{"metadata":{"market":"ou_1_5","num_trees":100,"num_class":1,"feature_names":["season","leagueId","homeFormScore","awayFormScore","homePPG10","awayPPG10","homeGF10","homeGA10","awayGF10","awayGA10","homeDaysSince","awayDaysSince","homeHomeFormScore","awayAwayFormScore","homeElo","awayElo","eloDiff","homeTier","awayTier","tierGap","h2h_overall_matches","h2h_overall_home_win_pct","h2h_overall_away_win_pct","h2h_overall_draw_pct","h2h_overall_avg_goals","h2h_overall_btts_pct","h2h_overall_over_2_5_pct","h2h_venue_matches","h2h_venue_home_win_pct","h2h_venue_away_win_pct","h2h_venue_draw_pct","h2h_venue_avg_goals","h2h_venue_btts_pct","h2h_venue_over_2_5_pct"],"objective":"binary sigmoid:1"},"tree_info":[{"tree_index":0,"shrinkage":1,"tree_structure":{"split_feature":6,"threshold":1.6833333333333336,"default_left":true,"left_child":{"split_feature":8,"threshold":1.7071428571428573,"default_left":true,"left_child":{"split_feature":6,"threshold":1.1339285714285716,"default_left":true,"left_child":{"split_feature":24,"threshold":3.1000000000000005,"default_left":false,"left_child":{"split_feature":9,"threshold":1.4722222222222225,"default_left":true,"left_child":{"split_feature":11,"threshold":79.50000000000001,"default_left":true,"left_child":{"split_feature":2,"threshold":1.0354010025062659,"default_left":true,"left_child":{"leaf_value":1.0841399679548642},"right_child":{"split_feature":14,"threshold":1684.8350000000003,"default_left":true,"left_child":{"leaf_value":1.0611673157902775},"right_child":{"split_feature":9,"threshold":1.2928571428571431,"default_left":true,"left_child":{"split_feature":8,"threshold":1.4722222222222225,"default_left":true,"left_child":{"leaf_value":1.0594897094869034},"right_child":{"leaf_value":1.1265757601155393}},"right_child":{"leaf_value":1.1202917823524154}}}},"right_child":{"leaf_value":1.016725022489497}},"right_child":{"split_feature":10,"threshold":20.500000000000004,"default_left":true,"left_child":{"split_feature":14,"threshold":1730.5650000000003,"default_left":true,"left_child":{"split_feature":14,"threshold":1370.5200000000002,"default_left":true,"left_child":{"leaf_value":1.1446628609085054},"right_child":{"leaf_value":1.0927613481659615}},"right_child":{"leaf_value":1.1462289517729687}},"right_child":{"leaf_value":1.0240115949717792}}},"right_child":{"split_feature":5,"threshold":0.6458333333333334,"default_left":true,"left_child":{"split_feature":9,"threshold":1.8166666666666669,"default_left":true,"left_child":{"leaf_value":1.0217058648532213},"right_child":{"leaf_value":1.1021075460383523}},"right_child":{"leaf_value":1.1037336629052628}}},"right_child":{"split_feature":31,"threshold":2.7750000000000004,"default_left":true,"left_child":{"split_feature":14,"threshold":1725.9950000000001,"default_left":true,"left_child":{"split_feature":15,"threshold":1392.8650000000002,"default_left":true,"left_child":{"leaf_value":1.1312614131197398},"right_child":{"leaf_value":1.0922527529906105}},"right_child":{"split_feature":12,"threshold":0.9921875000000001,"default_left":true,"left_child":{"leaf_value":1.0550473346258213},"right_child":{"leaf_value":1.1196950903899796}}},"right_child":{"split_feature":15,"threshold":1710.095,"default_left":true,"left_child":{"split_feature":8,"threshold":1.585714285714286,"default_left":true,"left_child":{"split_feature":9,"threshold":0.7888888888888891,"default_left":true,"left_child":{"leaf_value":1.0651177893737303},"right_child":{"leaf_value":1.1224995910266697}},"right_child":{"leaf_value":1.159822373476872}},"right_child":{"split_feature":25,"threshold":45.00000000000001,"default_left":true,"left_child":{"leaf_value":1.070750313855129},"right_child":{"leaf_value":1.1124806440479762}}}}},"right_child":{"split_feature":0,"threshold":2009.5000000000002,"default_left":true,"left_child":{"leaf_value":1.1045570138372978},"right_child":{"split_feature":1,"threshold":91.00000000000001,"default_left":true,"left_child":{"split_feature":1,"threshold":69.50000000000001,"default_left":true,"left_child":{"split_feature":15,"threshold":1719.7050000000002,"default_left":true,"left_child":{"split_feature":15,"threshold":1649.1400000000003,"default_left":true,"left_child":{"leaf_value":1.126333472755282},"right_child":{"leaf_value":1.0529627522403695}},"right_child":{"leaf_value":1.1321239724678842}},"right_child":{"leaf_value":1.153436121369902}},"right_child":{"split_feature":8,"threshold":2.0500000000000003,"default_left":true,"left_child":{"leaf_value":1.0967388274453247},"right_child":{"leaf_value":1.1266995899213956}}}}},"right_child":{"split_feature":6,"threshold":2.1125000000000003,"default_left":true,"left_child":{"split_feature":31,"threshold":2.7083333333333335,"default_left":true,"left_child":{"split_feature":22,"threshold":1.0000000180025095e-35,"default_left":true,"left_child":{"leaf_value":1.1353741666215713},"right_child":{"split_feature":5,"threshold":2.183333333333334,"default_left":true,"left_child":{"leaf_value":1.1131462676891588},"right_child":{"leaf_value":1.073992827838755}}},"right_child":{"split_feature":32,"threshold":90.00000000000001,"default_left":true,"left_child":{"leaf_value":1.1437265846561602},"right_child":{"leaf_value":1.1177434441547434}}},"right_child":{"split_feature":9,"threshold":0.8944444444444445,"default_left":true,"left_child":{"leaf_value":1.1241981479862417},"right_child":{"split_feature":14,"threshold":1942.265,"default_left":true,"left_child":{"split_feature":15,"threshold":1515.345,"default_left":true,"left_child":{"leaf_value":1.1685417832615872},"right_child":{"leaf_value":1.1431805756259235}},"right_child":{"leaf_value":1.1787484570856028}}}}}},{"tree_index":1,"shrinkage":0.0919128,"tree_structure":{"split_feature":16,"threshold":208.91499999999988,"default_left":true,"left_child":{"split_feature":8,"threshold":1.3541666666666667,"default_left":true,"left_child":{"split_feature":16,"threshold":99.59499999999993,"default_left":true,"left_child":{"split_feature":14,"threshold":1377.015,"default_left":true,"left_child":{"leaf_value":0.015117648855415534},"right_child":{"split_feature":15,"threshold":1725.7150000000004,"default_left":true,"left_child":{"split_feature":9,"threshold":1.3166666666666669,"default_left":true,"left_child":{"split_feature":33,"threshold":29.166666666666668,"default_left":false,"left_child":{"leaf_value":-0.05522090762237579},"right_child":{"split_feature":9,"threshold":0.7888888888888891,"default_left":true,"left_child":{"leaf_value":-0.06492190531831564},"right_child":{"leaf_value":-0.02657783382174309}}},"right_child":{"split_feature":25,"threshold":1.0000000180025095e-35,"default_left":false,"left_child":{"leaf_value":0.014709557602652305},"right_child":{"leaf_value":-0.02426012382403145}}},"right_child":{"leaf_value":-0.012477439836536347}}},"right_child":{"split_feature":24,"threshold":2.7750000000000004,"default_left":true,"left_child":{"split_feature":15,"threshold":1691.9050000000004,"default_left":true,"left_child":{"split_feature":1,"threshold":91.00000000000001,"default_left":true,"left_child":{"split_feature":1,"threshold":69.50000000000001,"default_left":true,"left_child":{"split_feature":3,"threshold":1.6333570412517784,"default_left":true,"left_child":{"leaf_value":-0.016990310469796203},"right_child":{"leaf_value":-0.08402060586977836}},"right_child":{"split_feature":13,"threshold":1.4609375000000002,"default_left":true,"left_child":{"split_feature":22,"threshold":1.0000000180025095e-35,"default_left":false,"left_child":{"leaf_value":-0.017476263559795344},"right_child":{"leaf_value":0.032288476851069295}},"right_child":{"leaf_value":-0.05558323809102582}}},"right_child":{"split_feature":11,"threshold":19.500000000000004,"default_left":true,"left_child":{"leaf_value":-0.025306750990690834},"right_child":{"leaf_value":-0.09616282635714582}}},"right_child":{"leaf_value":0.008276003955076208}},"right_child":{"split_feature":4,"threshold":1.585714285714286,"default_left":true,"left_child":{"leaf_value":-0.006615206338287509},"right_child":{"split_feature":3,"threshold":1.510338345864662,"default_left":true,"left_child":{"split_feature":21,"threshold":1.0000000180025095e-35,"default_left":true,"left_child":{"leaf_value":-0.032487274525978556},"right_child":{"leaf_value":0.04216247213902847}},"right_child":{"leaf_value":-0.030349468682240543}}}}},"right_child":{"split_feature":24,"threshold":2.7083333333333335,"default_left":true,"left_child":{"split_feature":8,"threshold":1.7071428571428573,"default_left":true,"left_child":{"leaf_value":-0.010485561914333382},"right_child":{"leaf_value":0.0028923834515042586}},"right_child":{"split_feature":27,"threshold":4.500000000000001,"default_left":true,"left_child":{"split_feature":16,"threshold":-95.71500000000002,"default_left":true,"left_child":{"split_feature":9,"threshold":0.5857142857142857,"default_left":true,"left_child":{"leaf_value":-0.0361027585950222},"right_child":{"leaf_value":0.036169848036818955}},"right_child":{"split_feature":3,"threshold":1.9567935796939158,"default_left":true,"left_child":{"split_feature":2,"threshold":1.3777856804172595,"default_left":true,"left_child":{"leaf_value":-0.010604719128999933},"right_child":{"leaf_value":0.018174570817790215}},"right_child":{"leaf_value":-0.03457708738972701}}},"right_child":{"split_feature":1,"threshold":91.00000000000001,"default_left":true,"left_child":{"split_feature":1,"threshold":69.50000000000001,"default_left":true,"left_child":{"leaf_value":0.014779418251710457},"right_child":{"leaf_value":0.03799854587168198}},"right_child":{"split_feature":11,"threshold":5.500000000000001,"default_left":true,"left_child":{"leaf_value":0.03318101238254857},"right_child":{"split_feature":15,"threshold":1969.14,"default_left":true,"left_child":{"leaf_value":-0.012305614041499402},"right_child":{"leaf_value":0.04256958312396325}}}}}}},"right_child":{"split_feature":16,"threshold":402.87000000000006,"default_left":true,"left_child":{"split_feature":16,"threshold":306.63500000000005,"default_left":true,"left_child":{"split_feature":3,"threshold":1.5367746288798922,"default_left":true,"left_child":{"split_feature":14,"threshold":1498.8600000000001,"default_left":true,"left_child":{"leaf_value":0.0538748543246451},"right_child":{"leaf_value":0.006031707030306538}},"right_child":{"leaf_value":0.032252457461292836}},"right_child":{"split_feature":1,"threshold":91.00000000000001,"default_left":true,"left_child":{"leaf_value":0.0437185405541957},"right_child":{"split_feature":24,"threshold":4.1000000000000005,"default_left":true,"left_child":{"leaf_value":0.009027034780234899},"right_child":{"leaf_value":0.07603723767818567}}}},"right_child":{"leaf_value":0.059761737370579736}}}},{"tree_index":2,"shrinkage":0.0919128,"tree_structure":{"split_feature":14,"threshold":1738.6450000000002,"default_left":true,"left_child":{"split_feature":8,"threshold":1.7071428571428573,"default_left":true,"left_child":{"split_feature":15,"threshold":1392.8650000000002,"default_left":true,"left_child":{"split_feature":14,"threshold":1465.0900000000001,"default_left":true,"left_child":{"split_feature":23,"threshold":36.66666666666667,"default_left":false,"left_child":{"leaf_value":-0.010624086991098564},"right_child":{"split_feature":1,"threshold":91.00000000000001,"default_left":true,"left_child":{"leaf_value":0.051118195516402426},"right_child":{"leaf_value":-0.02191141595569961}}},"right_child":{"leaf_value":0.03693926487838752}},"right_child":{"split_feature":31,"threshold":2.7750000000000004,"default_left":true,"left_child":{"split_feature":7,"threshold":1.3875000000000002,"default_left":true,"left_child":{"split_feature":9,"threshold":0.6125000000000002,"default_left":true,"left_child":{"split_feature":2,"threshold":1.6416040100250628,"default_left":true,"left_child":{"leaf_value":-0.0399444168630393},"right_child":{"leaf_value":-0.11725200424553132}},"right_child":{"leaf_value":-0.023302204579029883}},"right_child":{"split_feature":12,"threshold":1.3452380952380956,"default_left":true,"left_child":{"split_feature":11,"threshold":83.50000000000001,"default_left":true,"left_child":{"split_feature":15,"threshold":1733.3200000000002,"default_left":true,"left_child":{"leaf_value":-0.01888702940001703},"right_child":{"split_feature":1,"threshold":137.50000000000003,"default_left":true,"left_child":{"split_feature":33,"threshold":36.66666666666667,"default_left":false,"left_child":{"split_feature":3,"threshold":1.6755571360834522,"default_left":true,"left_child":{"leaf_value":0.028533128029995743},"right_child":{"leaf_value":-0.06143858949618691}},"right_child":{"leaf_value":0.04742032861239003}},"right_child":{"leaf_value":-0.025953808504940036}}},"right_child":{"leaf_value":-0.08409284120242186}},"right_child":{"leaf_value":-0.002795454194423008}}},"right_child":{"split_feature":27,"threshold":4.500000000000001,"default_left":true,"left_child":{"split_feature":14,"threshold":1382.7700000000002,"default_left":true,"left_child":{"leaf_value":0.047985436877262096},"right_child":{"split_feature":9,"threshold":1.3875000000000002,"default_left":true,"left_child":{"leaf_value":-0.023641094233433906},"right_child":{"split_feature":15,"threshold":1665.3350000000003,"default_left":true,"left_child":{"split_feature":2,"threshold":1.4214638157894737,"default_left":true,"left_child":{"leaf_value":-0.023179894375219286},"right_child":{"leaf_value":0.013238758398239165}},"right_child":{"leaf_value":0.023448009914661325}}}},"right_child":{"split_feature":15,"threshold":1611.4750000000001,"default_left":true,"left_child":{"split_feature":24,"threshold":2.5500000000000003,"default_left":true,"left_child":{"leaf_value":-0.00420666103055577},"right_child":{"leaf_value":0.02895411343345225}},"right_child":{"split_feature":8,"threshold":1.1833333333333336,"default_left":true,"left_child":{"split_feature":14,"threshold":1657.2350000000004,"default_left":true,"left_child":{"leaf_value":-0.053386041552062134},"right_child":{"leaf_value":0.00253880470126516}},"right_child":{"split_feature":13,"threshold":1.1180555555555556,"default_left":true,"left_child":{"leaf_value":0.027212018257679906},"right_child":{"split_feature":10,"threshold":3.5000000000000004,"default_left":true,"left_child":{"leaf_value":-0.08398858848546273},"right_child":{"leaf_value":0.002196927968177973}}}}}}}},"right_child":{"split_feature":7,"threshold":1.3166666666666669,"default_left":true,"left_child":{"split_feature":2,"threshold":1.8533232118758434,"default_left":true,"left_child":{"split_feature":0,"threshold":2021.5000000000002,"default_left":true,"left_child":{"leaf_value":-0.01403495638339737},"right_child":{"leaf_value":0.04195985743987844}},"right_child":{"leaf_value":0.029199506675688144}},"right_child":{"split_feature":31,"threshold":2.5500000000000003,"default_left":true,"left_child":{"leaf_value":0.008321643224079744},"right_child":{"split_feature":14,"threshold":1397.035,"default_left":true,"left_child":{"leaf_value":0.07036852469863691},"right_child":{"leaf_value":0.024512421583205626}}}}},"right_child":{"split_feature":14,"threshold":1988.6900000000003,"default_left":true,"left_child":{"split_feature":15,"threshold":1590.2750000000003,"default_left":true,"left_child":{"leaf_value":0.042576003175970704},"right_child":{"split_feature":1,"threshold":91.00000000000001,"default_left":true,"left_child":{"split_feature":1,"threshold":69.50000000000001,"default_left":true,"left_child":{"split_feature":0,"threshold":2022.5000000000002,"default_left":true,"left_child":{"leaf_value":0.008078125906745613},"right_child":{"leaf_value":0.06161170486395948}},"right_child":{"leaf_value":0.03802794142832719}},"right_child":{"leaf_value":0.0022693875504715944}}},"right_child":{"leaf_value":0.06729128414267205}}}},{"tree_index":3,"shrinkage":0.0919128,"tree_structure":{"split_feature":6,"threshold":1.788888888888889,"default_left":true,"left_child":{"split_feature":6,"threshold":1.1339285714285716,"default_left":true,"left_child":{"split_feature":16,"threshold":-39.7299999999999,"default_left":true,"left_child":{"split_feature":14,"threshold":1595.2150000000004,"default_left":true,"left_child":{"split_feature":33,"threshold":36.66666666666667,"default_left":true,"left_child":{"split_feature":9,"threshold":0.8944444444444445,"default_left":true,"left_child":{"split_feature":16,"threshold":-112.98,"default_left":true,"left_child":{"leaf_value":0.005162859811077256},"right_child":{"leaf_value":-0.09256140348745351}},"right_child":{"leaf_value":0.013918842540373448}},"right_child":{"leaf_value":0.026056823285474776}},"right_child":{"leaf_value":-0.009677204654350196}},"right_child":{"split_feature":9,"threshold":1.9500000000000002,"default_left":true,"left_child":{"split_feature":21,"threshold":55.00000000000001,"default_left":false,"left_child":{"split_feature":14,"threshold":1644.2550000000003,"default_left":true,"left_child":{"split_feature":14,"threshold":1392.6350000000002,"default_left":true,"left_child":{"leaf_value":5.9237943019598637e-05},"right_child":{"split_feature":7,"threshold":0.6833333333333335,"default_left":true,"left_child":{"leaf_value":-0.09914852144696616},"right_child":{"leaf_value":-0.03217882866188813}}},"right_child":{"split_feature":9,"threshold":1.2928571428571431,"default_left":true,"left_child":{"split_feature":16,"threshold":63.274999999999984,"default_left":true,"left_child":{"leaf_value":-0.012147164199699644},"right_child":{"split_feature":16,"threshold":100.59999999999992,"default_left":true,"left_child":{"leaf_value":-0.08104996745828662},"right_child":{"leaf_value":-0.025921058884894176}}},"right_child":{"leaf_value":-0.005054454134260791}}},"right_child":{"split_feature":8,"threshold":1.3541666666666667,"default_left":true,"left_child":{"leaf_value":-0.01587570564213146},"right_child":{"leaf_value":0.007687755148655035}}},"right_child":{"leaf_value":0.0007426776582204667}}},"right_child":{"split_feature":0,"threshold":2008.5000000000002,"default_left":true,"left_child":{"split_feature":1,"threshold":69.50000000000001,"default_left":true,"left_child":{"split_feature":16,"threshold":170.69499999999985,"default_left":true,"left_child":{"leaf_value":-0.03476073493656612},"right_child":{"leaf_value":-0.0009048900851595931}},"right_child":{"split_feature":23,"threshold":70.83333333333334,"default_left":true,"left_child":{"split_feature":15,"threshold":1492.0850000000003,"default_left":true,"left_child":{"leaf_value":-0.02339908161196378},"right_child":{"leaf_value":0.006262537528597859}},"right_child":{"leaf_value":-0.039587395730881325}}},"right_child":{"split_feature":1,"threshold":91.00000000000001,"default_left":true,"left_child":{"split_feature":1,"threshold":69.50000000000001,"default_left":true,"left_child":{"split_feature":14,"threshold":1721.5700000000002,"default_left":true,"left_child":{"split_feature":15,"threshold":1731.785,"default_left":true,"left_child":{"split_feature":0,"threshold":2009.5000000000002,"default_left":true,"left_child":{"leaf_value":-0.08059612344946922},"right_child":{"split_feature":16,"threshold":92.27499999999999,"default_left":true,"left_child":{"leaf_value":-0.028391420240286323},"right_child":{"split_feature":21,"threshold":63.333333333333336,"default_left":true,"left_child":{"leaf_value":0.009120090797425378},"right_child":{"split_feature":16,"threshold":173.87000000000003,"default_left":true,"left_child":{"leaf_value":0.010403663836325353},"right_child":{"leaf_value":-0.089088802031196}}}}},"right_child":{"leaf_value":0.016280545234990392}},"right_child":{"leaf_value":0.021823313287659542}},"right_child":{"leaf_value":0.031608581146970564}},"right_child":{"split_feature":8,"threshold":2.154761904761905,"default_left":true,"left_child":{"split_feature":14,"threshold":1690.7550000000003,"default_left":true,"left_child":{"split_feature":5,"threshold":1.1180555555555558,"default_left":true,"left_child":{"split_feature":28,"threshold":70.83333333333334,"default_left":false,"left_child":{"leaf_value":-0.04325853326114044},"right_child":{"leaf_value":-0.004564640726322882}},"right_child":{"leaf_value":-0.004896050910649983}},"right_child":{"leaf_value":0.0036358291197291044}},"right_child":{"leaf_value":0.025479898856790053}}}}},"right_child":{"split_feature":16,"threshold":402.87000000000006,"default_left":true,"left_child":{"split_feature":9,"threshold":1.0500000000000003,"default_left":true,"left_child":{"split_feature":16,"threshold":229.92,"default_left":true,"left_child":{"leaf_value":-0.0002572632874921833},"right_child":{"leaf_value":0.029517187740250944}},"right_child":{"split_feature":8,"threshold":1.4722222222222225,"default_left":true,"left_child":{"leaf_value":0.017054841087752487},"right_child":{"leaf_value":0.038028738385812416}}},"right_child":{"leaf_value":0.05751551926524593}}}},{"tree_index":4,"shrinkage":0.0919128,"tree_structure":{"split_feature":24,"threshold":2.7750000000000004,"default_left":true,"left_child":{"split_feature":15,"threshold":1392.8650000000002,"default_left":true,"left_child":{"leaf_value":0.023392698607917536},"right_child":{"split_feature":8,"threshold":1.2111111111111115,"default_left":true,"left_child":{"split_feature":4,"threshold":1.6833333333333336,"default_left":true,"left_child":{"split_feature":9,"threshold":1.3166666666666669,"default_left":true,"left_child":{"leaf_value":-0.02285975791632154},"right_child":{"split_feature":11,"threshold":18.500000000000004,"default_left":true,"left_child":{"leaf_value":-0.0084796398464587},"right_child":{"split_feature":0,"threshold":2007.5000000000002,"default_left":true,"left_child":{"leaf_value":0.015067104325331059},"right_child":{"leaf_value":-0.08492324103183449}}}},"right_child":{"leaf_value":-0.000898485590292724}},"right_child":{"split_feature":0,"threshold":2009.5000000000002,"default_left":true,"left_child":{"split_feature":9,"threshold":2.0500000000000003,"default_left":true,"left_child":{"split_feature":24,"threshold":2.5500000000000003,"default_left":false,"left_child":{"leaf_value":-0.012811718603804563},"right_child":{"leaf_value":0.005561009794897633}},"right_child":{"leaf_value":-0.054825676332601284}},"right_child":{"split_feature":1,"threshold":91.00000000000001,"default_left":true,"left_child":{"split_feature":1,"threshold":69.50000000000001,"default_left":true,"left_child":{"split_feature":15,"threshold":1733.3200000000002,"default_left":true,"left_child":{"leaf_value":-0.014013523384406423},"right_child":{"leaf_value":0.012714431243097358}},"right_child":{"leaf_value":0.035153805016598365}},"right_child":{"split_feature":32,"threshold":77.50000000000001,"default_left":true,"left_child":{"leaf_value":-0.0021138160032132007},"right_child":{"leaf_value":-0.03577537406664286}}}}}},"right_child":{"split_feature":4,"threshold":1.585714285714286,"default_left":true,"left_child":{"split_feature":8,"threshold":1.585714285714286,"default_left":true,"left_child":{"split_feature":9,"threshold":1.788888888888889,"default_left":true,"left_child":{"split_feature":3,"threshold":0.4844713134186818,"default_left":true,"left_child":{"leaf_value":-0.0844828031535158},"right_child":{"split_feature":0,"threshold":2011.5000000000002,"default_left":true,"left_child":{"split_feature":9,"threshold":1.3875000000000002,"default_left":true,"left_child":{"leaf_value":-0.026151979443724493},"right_child":{"split_feature":30,"threshold":45.00000000000001,"default_left":true,"left_child":{"leaf_value":0.004801848744437093},"right_child":{"leaf_value":-0.04392959822413851}}},"right_child":{"split_feature":3,"threshold":1.3355855855855856,"default_left":true,"left_child":{"leaf_value":-0.011161146164524577},"right_child":{"split_feature":1,"threshold":137.50000000000003,"default_left":true,"left_child":{"leaf_value":0.024813554711826724},"right_child":{"leaf_value":-0.01940375411268941}}}}},"right_child":{"split_feature":29,"threshold":55.00000000000001,"default_left":true,"left_child":{"leaf_value":0.014453660921544393},"right_child":{"leaf_value":-0.029918680191008823}}},"right_child":{"split_feature":0,"threshold":2015.5000000000002,"default_left":true,"left_child":{"split_feature":17,"threshold":1.5000000000000002,"default_left":true,"left_child":{"leaf_value":-0.0029855349717807355},"right_child":{"split_feature":1,"threshold":91.00000000000001,"default_left":true,"left_child":{"leaf_value":0.038229831156023714},"right_child":{"split_feature":15,"threshold":1763.095,"default_left":true,"left_child":{"leaf_value":-0.06849672776141731},"right_child":{"leaf_value":0.03649052279455954}}}},"right_child":{"split_feature":31,"threshold":2.4500000000000006,"default_left":false,"left_child":{"leaf_value":-0.000487070652619953},"right_child":{"leaf_value":0.033568904846140384}}}},"right_child":{"split_feature":9,"threshold":1.1833333333333336,"default_left":true,"left_child":{"split_feature":31,"threshold":2.9000000000000004,"default_left":true,"left_child":{"split_feature":0,"threshold":2009.5000000000002,"default_left":true,"left_child":{"leaf_value":-0.04025965180373576},"right_child":{"split_feature":22,"threshold":22.500000000000004,"default_left":true,"left_child":{"leaf_value":0.03235070380328793},"right_child":{"split_feature":21,"threshold":22.500000000000004,"default_left":true,"left_child":{"split_feature":9,"threshold":0.8944444444444445,"default_left":true,"left_child":{"leaf_value":-0.030546424305200163},"right_child":{"leaf_value":0.047645230820658226}},"right_child":{"split_feature":28,"threshold":55.00000000000001,"default_left":true,"left_child":{"leaf_value":-0.11851491858755994},"right_child":{"leaf_value":-0.003076498258524462}}}}},"right_child":{"leaf_value":0.018092766309322023}},"right_child":{"split_feature":2,"threshold":2.2500000000000004,"default_left":true,"left_child":{"leaf_value":0.023262767501674914},"right_child":{"leaf_value":0.04522310750999608}}}}}},{"tree_index":5,"shrinkage":0.0919128,"tree_structure":{"split_feature":6,"threshold":1.788888888888889,"default_left":true,"left_child":{"split_feature":6,"threshold":1.1339285714285716,"default_left":true,"left_child":{"split_feature":16,"threshold":-39.7299999999999,"default_left":true,"left_child":{"split_feature":7,"threshold":1.2928571428571431,"default_left":true,"left_child":{"leaf_value":-0.013758449909269634},"right_child":{"leaf_value":0.011475767043027375}},"right_child":{"split_feature":11,"threshold":79.50000000000001,"default_left":true,"left_child":{"split_feature":22,"threshold":22.500000000000004,"default_left":true,"left_child":{"split_feature":7,"threshold":1.3875000000000002,"default_left":true,"left_child":{"split_feature":14,"threshold":1750.8600000000001,"default_left":true,"left_child":{"leaf_value":-0.02106354384795312},"right_child":{"split_feature":32,"threshold":63.333333333333336,"default_left":true,"left_child":{"leaf_value":0.028759804280031814},"right_child":{"leaf_value":-0.043880339675184434}}},"right_child":{"split_feature":24,"threshold":2.9000000000000004,"default_left":true,"left_child":{"leaf_value":-0.00721707036663307},"right_child":{"split_feature":15,"threshold":1715.5250000000003,"default_left":true,"left_child":{"leaf_value":0.008327714647756546},"right_child":{"leaf_value":0.07983957901998123}}}},"right_child":{"split_feature":24,"threshold":3.1000000000000005,"default_left":true,"left_child":{"split_feature":11,"threshold":6.500000000000001,"default_left":true,"left_child":{"split_feature":3,"threshold":0.8991228070175438,"default_left":true,"left_child":{"leaf_value":-0.008124401234016768},"right_child":{"leaf_value":-0.04113251930477137}},"right_child":{"leaf_value":-0.018858185074353866}},"right_child":{"split_feature":26,"threshold":45.00000000000001,"default_left":true,"left_child":{"leaf_value":0.055311927748138257},"right_child":{"leaf_value":-0.011066903797863663}}}},"right_child":{"split_feature":11,"threshold":92.50000000000001,"default_left":true,"left_child":{"leaf_value":-0.10627755572990287},"right_child":{"leaf_value":-0.027294759235460903}}}},"right_child":{"split_feature":7,"threshold":1.4722222222222225,"default_left":true,"left_child":{"split_feature":16,"threshold":202.50500000000002,"default_left":true,"left_child":{"split_feature":23,"threshold":70.83333333333334,"default_left":true,"left_child":{"split_feature":8,"threshold":2.8285714285714287,"default_left":true,"left_child":{"leaf_value":-0.007976892289904959},"right_child":{"leaf_value":0.043652234622955664}},"right_child":{"split_feature":0,"threshold":2008.5000000000002,"default_left":true,"left_child":{"split_feature":4,"threshold":1.585714285714286,"default_left":true,"left_child":{"leaf_value":-0.12787998125863917},"right_child":{"leaf_value":-0.01974858607739184}},"right_child":{"leaf_value":-0.013955631901582655}}},"right_child":{"split_feature":24,"threshold":3.4500000000000006,"default_left":true,"left_child":{"leaf_value":0.0035028980409769835},"right_child":{"split_feature":14,"threshold":1738.6450000000002,"default_left":true,"left_child":{"split_feature":14,"threshold":1668.9550000000002,"default_left":true,"left_child":{"leaf_value":0.058992324499886444},"right_child":{"leaf_value":-0.04047010252919455}},"right_child":{"leaf_value":0.05550508758239022}}}},"right_child":{"split_feature":23,"threshold":1.0000000180025095e-35,"default_left":true,"left_child":{"split_feature":8,"threshold":1.6833333333333336,"default_left":true,"left_child":{"split_feature":1,"threshold":69.50000000000001,"default_left":true,"left_child":{"leaf_value":-0.033103082436479386},"right_child":{"split_feature":16,"threshold":195.01000000000002,"default_left":true,"left_child":{"leaf_value":-0.007901953777583643},"right_child":{"leaf_value":0.0373848301380794}}},"right_child":{"split_feature":3,"threshold":2.528782894736842,"default_left":true,"left_child":{"leaf_value":0.03038765245159597},"right_child":{"leaf_value":-0.05364060672250785}}},"right_child":{"split_feature":8,"threshold":1.0500000000000003,"default_left":true,"left_child":{"split_feature":16,"threshold":155.08000000000018,"default_left":true,"left_child":{"leaf_value":-0.013443066954706387},"right_child":{"leaf_value":0.029782340093981396}},"right_child":{"leaf_value":0.020717532701433734}}}}},"right_child":{"split_feature":16,"threshold":402.87000000000006,"default_left":true,"left_child":{"split_feature":33,"threshold":55.00000000000001,"default_left":true,"left_child":{"split_feature":16,"threshold":198.525,"default_left":true,"left_child":{"leaf_value":-0.0005191813700032932},"right_child":{"split_feature":7,"threshold":1.1180555555555558,"default_left":true,"left_child":{"split_feature":25,"threshold":45.00000000000001,"default_left":true,"left_child":{"leaf_value":-0.003934821045863552},"right_child":{"leaf_value":0.031075240371649493}},"right_child":{"leaf_value":0.04008995191059795}}},"right_child":{"leaf_value":0.02460024174273333}},"right_child":{"leaf_value":0.052614247905261695}}}},{"tree_index":6,"shrinkage":0.0919128,"tree_structure":{"split_feature":6,"threshold":1.788888888888889,"default_left":true,"left_child":{"split_feature":6,"threshold":1.1339285714285716,"default_left":true,"left_child":{"split_feature":8,"threshold":2.0500000000000003,"default_left":true,"left_child":{"split_feature":9,"threshold":1.2111111111111115,"default_left":true,"left_child":{"leaf_value":-0.01802689204438506},"right_child":{"split_feature":1,"threshold":91.00000000000001,"default_left":true,"left_child":{"split_feature":1,"threshold":69.50000000000001,"default_left":true,"left_child":{"split_feature":15,"threshold":1803.4450000000004,"default_left":true,"left_child":{"split_feature":13,"threshold":0.20486111111111108,"default_left":true,"left_child":{"split_feature":12,"threshold":1.3671875000000002,"default_left":true,"left_child":{"leaf_value":-0.014377942283822137},"right_child":{"leaf_value":-0.08048346008842754}},"right_child":{"leaf_value":-0.009325574421189082}},"right_child":{"leaf_value":0.0521771677718497}},"right_child":{"split_feature":12,"threshold":0.7204861111111112,"default_left":true,"left_child":{"leaf_value":-0.007958875704426924},"right_child":{"split_feature":10,"threshold":7.500000000000001,"default_left":true,"left_child":{"leaf_value":0.03627895264316751},"right_child":{"leaf_value":0.0007357709463464843}}}},"right_child":{"split_feature":1,"threshold":114.50000000000001,"default_left":true,"left_child":{"split_feature":10,"threshold":20.500000000000004,"default_left":true,"left_child":{"split_feature":2,"threshold":1.3073549257759787,"default_left":true,"left_child":{"leaf_value":-0.0182623936298181},"right_child":{"leaf_value":-0.07011869150474596}},"right_child":{"leaf_value":-0.11276584405997292}},"right_child":{"split_feature":30,"threshold":45.00000000000001,"default_left":true,"left_child":{"leaf_value":-0.003707005901690288},"right_child":{"leaf_value":-0.03081200224289249}}}}},"right_child":{"split_feature":12,"threshold":0.6171875000000001,"default_left":true,"left_child":{"leaf_value":0.046633914433468315},"right_child":{"leaf_value":0.000673497746772072}}},"right_child":{"split_feature":31,"threshold":3.5500000000000003,"default_left":true,"left_child":{"split_feature":1,"threshold":91.00000000000001,"default_left":true,"left_child":{"split_feature":1,"threshold":69.50000000000001,"default_left":true,"left_child":{"split_feature":14,"threshold":1813.3150000000003,"default_left":true,"left_child":{"split_feature":9,"threshold":0.6833333333333335,"default_left":true,"left_child":{"split_feature":15,"threshold":1727.4050000000004,"default_left":true,"left_child":{"leaf_value":-0.09930380625516734},"right_child":{"leaf_value":-0.01657449425768763}},"right_child":{"split_feature":0,"threshold":2009.5000000000002,"default_left":true,"left_child":{"split_feature":14,"threshold":1684.8350000000003,"default_left":true,"left_child":{"split_feature":2,"threshold":1.004385964912281,"default_left":true,"left_child":{"leaf_value":0.015399195487584826},"right_child":{"leaf_value":-0.044494207030265284}},"right_child":{"leaf_value":-0.005240866287562077}},"right_child":{"leaf_value":0.0012510957355826595}}},"right_child":{"split_feature":2,"threshold":1.675557136083452,"default_left":true,"left_child":{"leaf_value":0.07357179586445818},"right_child":{"leaf_value":0.005599325152501092}}},"right_child":{"leaf_value":0.017721560651634823}},"right_child":{"split_feature":14,"threshold":1547.4500000000003,"default_left":true,"left_child":{"leaf_value":-0.025694204799246573},"right_child":{"split_feature":12,"threshold":0.8229166666666667,"default_left":true,"left_child":{"leaf_value":-0.04307418677385679},"right_child":{"split_feature":2,"threshold":1.9312584345479085,"default_left":true,"left_child":{"leaf_value":0.001602567062238201},"right_child":{"split_feature":5,"threshold":1.0500000000000003,"default_left":true,"left_child":{"leaf_value":0.015337817742152614},"right_child":{"leaf_value":-0.038568708036213505}}}}}},"right_child":{"split_feature":14,"threshold":1377.015,"default_left":true,"left_child":{"leaf_value":0.07740033016548266},"right_child":{"split_feature":27,"threshold":4.500000000000001,"default_left":true,"left_child":{"leaf_value":0.002933210898470992},"right_child":{"leaf_value":0.026594142958596894}}}}},"right_child":{"split_feature":9,"threshold":1.0500000000000003,"default_left":true,"left_child":{"split_feature":14,"threshold":1988.6900000000003,"default_left":true,"left_child":{"split_feature":31,"threshold":1.7083333333333337,"default_left":true,"left_child":{"leaf_value":-0.025482229213083102},"right_child":{"leaf_value":0.008881295538847396}},"right_child":{"leaf_value":0.06388451056737784}},"right_child":{"split_feature":6,"threshold":2.4142857142857146,"default_left":true,"left_child":{"split_feature":8,"threshold":1.9500000000000002,"default_left":true,"left_child":{"leaf_value":0.017510473300130464},"right_child":{"leaf_value":0.04625807156759236}},"right_child":{"leaf_value":0.04525130933784212}}}}},{"tree_index":7,"shrinkage":0.0919128,"tree_structure":{"split_feature":24,"threshold":2.7750000000000004,"default_left":true,"left_child":{"split_feature":15,"threshold":1392.8650000000002,"default_left":true,"left_child":{"leaf_value":0.021055776877205695},"right_child":{"split_feature":7,"threshold":1.3875000000000002,"default_left":true,"left_child":{"split_feature":4,"threshold":1.8944444444444446,"default_left":true,"left_child":{"split_feature":21,"threshold":55.00000000000001,"default_left":true,"left_child":{"split_feature":10,"threshold":6.500000000000001,"default_left":true,"left_child":{"leaf_value":-0.02604135592413673},"right_child":{"leaf_value":-0.013240231211892309}},"right_child":{"leaf_value":-0.0006198127879329444}},"right_child":{"leaf_value":-0.0005292876619649291}},"right_child":{"split_feature":12,"threshold":1.2968750000000002,"default_left":true,"left_child":{"split_feature":11,"threshold":83.50000000000001,"default_left":true,"left_child":{"split_feature":15,"threshold":1793.7950000000003,"default_left":true,"left_child":{"leaf_value":-0.011137220697184607},"right_child":{"split_feature":30,"threshold":22.500000000000004,"default_left":false,"left_child":{"leaf_value":0.03704282794080077},"right_child":{"leaf_value":-0.012010498418681832}}},"right_child":{"leaf_value":-0.060830117603097165}},"right_child":{"split_feature":4,"threshold":1.6833333333333336,"default_left":true,"left_child":{"split_feature":7,"threshold":1.8166666666666669,"default_left":true,"left_child":{"split_feature":15,"threshold":1547.0800000000002,"default_left":true,"left_child":{"split_feature":9,"threshold":1.585714285714286,"default_left":true,"left_child":{"leaf_value":-0.03800161510300291},"right_child":{"leaf_value":0.0024992330808145573}},"right_child":{"split_feature":15,"threshold":1593.595,"default_left":true,"left_child":{"leaf_value":0.027054420391132955},"right_child":{"leaf_value":0.0008375979076922732}}},"right_child":{"split_feature":26,"threshold":45.00000000000001,"default_left":true,"left_child":{"leaf_value":0.0280324396190802},"right_child":{"leaf_value":-0.01280013692552055}}},"right_child":{"leaf_value":0.032805088576149194}}}}},"right_child":{"split_feature":27,"threshold":4.500000000000001,"default_left":true,"left_child":{"split_feature":4,"threshold":1.585714285714286,"default_left":true,"left_child":{"split_feature":7,"threshold":2.3875000000000006,"default_left":true,"left_child":{"split_feature":7,"threshold":1.2928571428571431,"default_left":true,"left_child":{"split_feature":13,"threshold":1.9053819444444446,"default_left":true,"left_child":{"leaf_value":-0.014580698503146082},"right_child":{"split_feature":33,"threshold":45.00000000000001,"default_left":true,"left_child":{"leaf_value":-0.1108004573318798},"right_child":{"leaf_value":-0.03046426591902467}}},"right_child":{"leaf_value":-0.002670752190133059}},"right_child":{"leaf_value":0.03188568463318993}},"right_child":{"split_feature":9,"threshold":1.0500000000000003,"default_left":true,"left_child":{"split_feature":25,"threshold":90.00000000000001,"default_left":true,"left_child":{"leaf_value":-0.03303920205525424},"right_child":{"leaf_value":0.024890054195970075}},"right_child":{"split_feature":21,"threshold":29.166666666666668,"default_left":true,"left_child":{"split_feature":5,"threshold":1.1833333333333336,"default_left":true,"left_child":{"leaf_value":-0.04161090581236153},"right_child":{"split_feature":27,"threshold":2.5000000000000004,"default_left":true,"left_child":{"leaf_value":0.0008673092134264688},"right_child":{"leaf_value":0.06695845876895407}}},"right_child":{"leaf_value":0.02461583973060553}}}},"right_child":{"split_feature":21,"threshold":77.50000000000001,"default_left":true,"left_child":{"split_feature":12,"threshold":2.118055555555556,"default_left":true,"left_child":{"split_feature":10,"threshold":4.500000000000001,"default_left":true,"left_child":{"leaf_value":0.02300089815534347},"right_child":{"split_feature":10,"threshold":6.500000000000001,"default_left":true,"left_child":{"leaf_value":-0.009967101157134218},"right_child":{"split_feature":4,"threshold":0.8944444444444445,"default_left":true,"left_child":{"split_feature":11,"threshold":6.500000000000001,"default_left":true,"left_child":{"leaf_value":-0.0188136339437937},"right_child":{"leaf_value":0.031111337336304872}},"right_child":{"split_feature":13,"threshold":1.2204861111111114,"default_left":true,"left_child":{"split_feature":13,"threshold":1.1180555555555556,"default_left":true,"left_child":{"split_feature":10,"threshold":27.500000000000004,"default_left":true,"left_child":{"leaf_value":0.0017752887130654095},"right_child":{"leaf_value":-0.05385168319361525}},"right_child":{"leaf_value":-0.05113839901658305}},"right_child":{"leaf_value":0.012883313888331194}}}}},"right_child":{"leaf_value":0.02155532475037278}},"right_child":{"split_feature":30,"threshold":1.0000000180025095e-35,"default_left":true,"left_child":{"leaf_value":0.0461900027837785},"right_child":{"leaf_value":0.017170903335121664}}}}}},{"tree_index":8,"shrinkage":0.0919128,"tree_structure":{"split_feature":6,"threshold":1.788888888888889,"default_left":true,"left_child":{"split_feature":16,"threshold":-112.98,"default_left":true,"left_child":{"split_feature":7,"threshold":2.183333333333334,"default_left":true,"left_child":{"split_feature":15,"threshold":1814.0300000000002,"default_left":true,"left_child":{"leaf_value":0.02217492605847038},"right_child":{"leaf_value":0.001652403920735021}},"right_child":{"leaf_value":0.04927437431792107}},"right_child":{"split_feature":6,"threshold":1.1339285714285716,"default_left":true,"left_child":{"split_feature":2,"threshold":1.9496457489878543,"default_left":true,"left_child":{"split_feature":16,"threshold":173.87000000000003,"default_left":true,"left_child":{"split_feature":7,"threshold":1.3875000000000002,"default_left":true,"left_child":{"split_feature":26,"threshold":70.83333333333334,"default_left":false,"left_child":{"leaf_value":-0.023142284947142412},"right_child":{"leaf_value":-0.0033185250218115154}},"right_child":{"split_feature":2,"threshold":1.4036774628879891,"default_left":true,"left_child":{"split_feature":21,"threshold":55.00000000000001,"default_left":true,"left_child":{"split_feature":10,"threshold":15.500000000000002,"default_left":true,"left_child":{"split_feature":14,"threshold":1370.5200000000002,"default_left":true,"left_child":{"leaf_value":0.017319613318774452},"right_child":{"leaf_value":-0.012167161059423748}},"right_child":{"leaf_value":-0.04015835604116263}},"right_child":{"split_feature":0,"threshold":2021.5000000000002,"default_left":true,"left_child":{"leaf_value":-0.00018336600984220015},"right_child":{"leaf_value":0.056196565783548424}}},"right_child":{"leaf_value":0.043538767727718065}}},"right_child":{"split_feature":32,"threshold":63.333333333333336,"default_left":true,"left_child":{"leaf_value":0.010156707273376564},"right_child":{"split_feature":14,"threshold":1586.0450000000003,"default_left":true,"left_child":{"leaf_value":0.023088247079206623},"right_child":{"split_feature":24,"threshold":2.6333333333333337,"default_left":true,"left_child":{"split_feature":7,"threshold":1.0500000000000003,"default_left":true,"left_child":{"leaf_value":0.03470199923941399},"right_child":{"leaf_value":-0.05523805841450648}},"right_child":{"split_feature":26,"threshold":63.333333333333336,"default_left":true,"left_child":{"leaf_value":-0.11800484465325803},"right_child":{"leaf_value":-0.03477168208345678}}}}}},"right_child":{"leaf_value":-0.07381853799898162}},"right_child":{"split_feature":16,"threshold":202.50500000000002,"default_left":true,"left_child":{"split_feature":7,"threshold":1.0500000000000003,"default_left":true,"left_child":{"split_feature":0,"threshold":2002.5000000000002,"default_left":true,"left_child":{"leaf_value":-0.050393184347727854},"right_child":{"split_feature":30,"threshold":29.166666666666668,"default_left":false,"left_child":{"leaf_value":-0.0007950899274831108},"right_child":{"leaf_value":-0.025112323933572305}}},"right_child":{"split_feature":8,"threshold":1.2928571428571431,"default_left":true,"left_child":{"split_feature":14,"threshold":1655.0050000000003,"default_left":true,"left_child":{"split_feature":7,"threshold":1.6833333333333336,"default_left":true,"left_child":{"split_feature":15,"threshold":1645.6600000000003,"default_left":true,"left_child":{"split_feature":24,"threshold":1.4500000000000002,"default_left":false,"left_child":{"leaf_value":-0.06298123859582769},"right_child":{"split_feature":15,"threshold":1574.865,"default_left":true,"left_child":{"split_feature":25,"threshold":63.333333333333336,"default_left":true,"left_child":{"split_feature":14,"threshold":1461.515,"default_left":true,"left_child":{"leaf_value":0.03168958101497215},"right_child":{"split_feature":29,"threshold":55.00000000000001,"default_left":false,"left_child":{"leaf_value":-0.04148152477853616},"right_child":{"leaf_value":0.021997851859020222}}},"right_child":{"leaf_value":-0.055203367420896536}},"right_child":{"leaf_value":0.013498622330088491}}},"right_child":{"leaf_value":-0.06049881207708702}},"right_child":{"split_feature":30,"threshold":36.66666666666667,"default_left":true,"left_child":{"leaf_value":-0.012038661577662833},"right_child":{"leaf_value":0.023070258395246804}}},"right_child":{"leaf_value":0.005896419826131868}},"right_child":{"leaf_value":0.007134291941184324}}},"right_child":{"split_feature":2,"threshold":1.9395363408521304,"default_left":true,"left_child":{"split_feature":16,"threshold":320.71,"default_left":true,"left_child":{"leaf_value":0.01312547878475569},"right_child":{"leaf_value":0.04360441137185693}},"right_child":{"split_feature":25,"threshold":90.00000000000001,"default_left":false,"left_child":{"leaf_value":-0.017934519342617763},"right_child":{"leaf_value":0.04894067712318142}}}}}},"right_child":{"split_feature":16,"threshold":402.87000000000006,"default_left":true,"left_child":{"leaf_value":0.0137761491206417},"right_child":{"leaf_value":0.04640401525706663}}}},{"tree_index":9,"shrinkage":0.0919128,"tree_structure":{"split_feature":6,"threshold":1.788888888888889,"default_left":true,"left_child":{"split_feature":1,"threshold":91.00000000000001,"default_left":true,"left_child":{"split_feature":1,"threshold":69.50000000000001,"default_left":true,"left_child":{"split_feature":1,"threshold":50.00000000000001,"default_left":true,"left_child":{"leaf_value":-0.0027617894322907524},"right_child":{"split_feature":15,"threshold":1649.1400000000003,"default_left":true,"left_child":{"split_feature":25,"threshold":1.0000000180025095e-35,"default_left":false,"left_child":{"leaf_value":-0.035460789681905636},"right_child":{"leaf_value":-0.003656928134166477}},"right_child":{"split_feature":8,"threshold":2.154761904761905,"default_left":true,"left_child":{"split_feature":30,"threshold":1.0000000180025095e-35,"default_left":true,"left_child":{"split_feature":2,"threshold":1.4762038073908177,"default_left":true,"left_child":{"split_feature":24,"threshold":1.4500000000000002,"default_left":true,"left_child":{"leaf_value":-0.02242456160560671},"right_child":{"split_feature":2,"threshold":0.8991228070175438,"default_left":true,"left_child":{"leaf_value":-0.02935083174886524},"right_child":{"leaf_value":-0.08197805199449965}}},"right_child":{"split_feature":8,"threshold":1.2928571428571431,"default_left":true,"left_child":{"leaf_value":-0.052140734764468184},"right_child":{"split_feature":6,"threshold":1.3875000000000002,"default_left":true,"left_child":{"leaf_value":-0.03981299723101653},"right_child":{"leaf_value":0.053608252262275426}}}},"right_child":{"split_feature":15,"threshold":1752.7950000000003,"default_left":true,"left_child":{"split_feature":9,"threshold":1.3875000000000002,"default_left":true,"left_child":{"leaf_value":-0.022140185491623443},"right_child":{"leaf_value":-0.07237566067513655}},"right_child":{"leaf_value":0.010761747774802773}}},"right_child":{"leaf_value":0.022665850954446454}}}},"right_child":{"split_feature":24,"threshold":5.900000000000001,"default_left":true,"left_child":{"split_feature":24,"threshold":1.1000000000000003,"default_left":false,"left_child":{"leaf_value":-0.021756589063665368},"right_child":{"split_feature":12,"threshold":0.7578125000000001,"default_left":true,"left_child":{"leaf_value":0.0024435307811174144},"right_child":{"split_feature":29,"threshold":63.333333333333336,"default_left":true,"left_child":{"split_feature":7,"threshold":0.8944444444444445,"default_left":true,"left_child":{"leaf_value":-0.008432625355494624},"right_child":{"split_feature":3,"threshold":2.528782894736842,"default_left":true,"left_child":{"leaf_value":0.02231335032890151},"right_child":{"leaf_value":-0.028594605635009256}}},"right_child":{"leaf_value":0.03946533625209363}}}},"right_child":{"leaf_value":-0.056909337706987966}}},"right_child":{"split_feature":1,"threshold":114.50000000000001,"default_left":true,"left_child":{"split_feature":15,"threshold":1542.2700000000002,"default_left":true,"left_child":{"split_feature":28,"threshold":70.83333333333334,"default_left":false,"left_child":{"split_feature":15,"threshold":1387.575,"default_left":true,"left_child":{"leaf_value":0.007983347583985726},"right_child":{"leaf_value":-0.042697375320968844}},"right_child":{"leaf_value":-0.012887578433368527}},"right_child":{"split_feature":24,"threshold":1.366666666666667,"default_left":false,"left_child":{"leaf_value":-0.07045076052086571},"right_child":{"leaf_value":-0.0030498906752308478}}},"right_child":{"split_feature":15,"threshold":1482.1100000000004,"default_left":true,"left_child":{"leaf_value":0.04360629743126737},"right_child":{"split_feature":15,"threshold":1969.14,"default_left":true,"left_child":{"leaf_value":-0.006017737243520362},"right_child":{"leaf_value":0.02803530726921967}}}}},"right_child":{"split_feature":31,"threshold":2.366666666666667,"default_left":false,"left_child":{"split_feature":29,"threshold":63.333333333333336,"default_left":true,"left_child":{"split_feature":30,"threshold":90.00000000000001,"default_left":true,"left_child":{"leaf_value":0.002101233897013205},"right_child":{"leaf_value":0.05093050706464915}},"right_child":{"leaf_value":-0.05634564180028602}},"right_child":{"split_feature":9,"threshold":1.0500000000000003,"default_left":true,"left_child":{"split_feature":31,"threshold":5.1000000000000005,"default_left":false,"left_child":{"split_feature":11,"threshold":11.500000000000002,"default_left":true,"left_child":{"leaf_value":0.006780418333208772},"right_child":{"leaf_value":0.04554348943001271}},"right_child":{"split_feature":7,"threshold":0.9500000000000001,"default_left":true,"left_child":{"leaf_value":-0.07759747644712221},"right_child":{"leaf_value":-0.004013556545505956}}},"right_child":{"split_feature":8,"threshold":1.4722222222222225,"default_left":true,"left_child":{"split_feature":6,"threshold":2.4142857142857146,"default_left":true,"left_child":{"leaf_value":0.013129625121966053},"right_child":{"leaf_value":0.043429786311662624}},"right_child":{"leaf_value":0.0371963366165754}}}}}},{"tree_index":10,"shrinkage":0.0919128,"tree_structure":{"split_feature":6,"threshold":1.788888888888889,"default_left":true,"left_child":{"split_feature":1,"threshold":91.00000000000001,"default_left":true,"left_child":{"split_feature":1,"threshold":69.50000000000001,"default_left":true,"left_child":{"split_feature":14,"threshold":1738.6450000000002,"default_left":true,"left_child":{"split_feature":7,"threshold":1.8944444444444446,"default_left":true,"left_child":{"split_feature":15,"threshold":1733.3200000000002,"default_left":true,"left_child":{"split_feature":15,"threshold":1650.4700000000003,"default_left":true,"left_child":{"split_feature":13,"threshold":0.9218750000000001,"default_left":true,"left_child":{"leaf_value":-0.017001431152529643},"right_child":{"split_feature":26,"threshold":36.66666666666667,"default_left":true,"left_child":{"leaf_value":-0.011313899312320764},"right_child":{"split_feature":5,"threshold":1.788888888888889,"default_left":true,"left_child":{"leaf_value":0.02911468983895407},"right_child":{"leaf_value":-0.034193848929734864}}}},"right_child":{"split_feature":1,"threshold":50.00000000000001,"default_left":true,"left_child":{"leaf_value":-0.018901876717066828},"right_child":{"leaf_value":-0.03857291434464807}}},"right_child":{"split_feature":31,"threshold":4.2250000000000005,"default_left":true,"left_child":{"split_feature":14,"threshold":1552.035,"default_left":true,"left_child":{"leaf_value":0.05448210964823273},"right_child":{"leaf_value":-0.003434212179137883}},"right_child":{"leaf_value":-0.0662703753907238}}},"right_child":{"split_feature":3,"threshold":1.3991228070175439,"default_left":true,"left_child":{"leaf_value":0.016816246899866785},"right_child":{"leaf_value":-0.008880150587368182}}},"right_child":{"split_feature":28,"threshold":45.00000000000001,"default_left":true,"left_child":{"leaf_value":0.023365867503867398},"right_child":{"leaf_value":-0.004690172174174793}}},"right_child":{"split_feature":24,"threshold":5.708333333333335,"default_left":true,"left_child":{"split_feature":24,"threshold":1.1000000000000003,"default_left":false,"left_child":{"leaf_value":-0.019545793143635942},"right_child":{"split_feature":12,"threshold":0.7578125000000001,"default_left":true,"left_child":{"leaf_value":0.002222047686960851},"right_child":{"leaf_value":0.01998206924724141}}},"right_child":{"leaf_value":-0.048988831435932155}}},"right_child":{"split_feature":1,"threshold":114.50000000000001,"default_left":true,"left_child":{"split_feature":15,"threshold":1542.2700000000002,"default_left":true,"left_child":{"split_feature":28,"threshold":70.83333333333334,"default_left":false,"left_child":{"split_feature":15,"threshold":1377.055,"default_left":true,"left_child":{"leaf_value":0.021377129255523535},"right_child":{"leaf_value":-0.03729354188698943}},"right_child":{"leaf_value":-0.011630586051032265}},"right_child":{"leaf_value":-0.006146733507822851}},"right_child":{"split_feature":7,"threshold":1.4142857142857144,"default_left":true,"left_child":{"split_feature":14,"threshold":1725.9950000000001,"default_left":true,"left_child":{"leaf_value":-0.015207450324226589},"right_child":{"split_feature":15,"threshold":1551.6750000000004,"default_left":true,"left_child":{"leaf_value":0.06071933450453072},"right_child":{"leaf_value":0.0002190284399072764}}},"right_child":{"split_feature":15,"threshold":1521.365,"default_left":true,"left_child":{"leaf_value":0.039555023335937606},"right_child":{"split_feature":15,"threshold":1839.785,"default_left":true,"left_child":{"leaf_value":-0.0023808378879246446},"right_child":{"leaf_value":0.020376286257053806}}}}}},"right_child":{"split_feature":14,"threshold":1988.6900000000003,"default_left":true,"left_child":{"split_feature":31,"threshold":2.366666666666667,"default_left":false,"left_child":{"split_feature":30,"threshold":77.50000000000001,"default_left":true,"left_child":{"split_feature":28,"threshold":36.66666666666667,"default_left":true,"left_child":{"split_feature":12,"threshold":1.9531250000000002,"default_left":true,"left_child":{"split_feature":31,"threshold":1.7750000000000001,"default_left":true,"left_child":{"leaf_value":-0.1191866219294687},"right_child":{"leaf_value":-0.03135723323269921}},"right_child":{"split_feature":29,"threshold":55.00000000000001,"default_left":true,"left_child":{"split_feature":1,"threshold":91.00000000000001,"default_left":true,"left_child":{"leaf_value":0.0536041345173803},"right_child":{"leaf_value":-0.02789663062565176}},"right_child":{"leaf_value":-0.03927094672287025}}},"right_child":{"leaf_value":0.005047723638955641}},"right_child":{"leaf_value":0.04323038180951283}},"right_child":{"split_feature":1,"threshold":91.00000000000001,"default_left":true,"left_child":{"split_feature":1,"threshold":69.50000000000001,"default_left":true,"left_child":{"leaf_value":0.011141179332300697},"right_child":{"leaf_value":0.029675411216933845}},"right_child":{"leaf_value":0.008380033441428314}}},"right_child":{"leaf_value":0.049962872586458575}}}},{"tree_index":11,"shrinkage":0.0919128,"tree_structure":{"split_feature":16,"threshold":306.63500000000005,"default_left":true,"left_child":{"split_feature":8,"threshold":1.2928571428571431,"default_left":true,"left_child":{"split_feature":16,"threshold":116.92499999999997,"default_left":true,"left_child":{"split_feature":7,"threshold":1.0500000000000003,"default_left":true,"left_child":{"split_feature":9,"threshold":0.6833333333333335,"default_left":true,"left_child":{"leaf_value":-0.09822852064037804},"right_child":{"split_feature":11,"threshold":13.500000000000002,"default_left":true,"left_child":{"split_feature":28,"threshold":90.00000000000001,"default_left":true,"left_child":{"split_feature":16,"threshold":68.85499999999992,"default_left":true,"left_child":{"split_feature":3,"threshold":1.2213512504665922,"default_left":true,"left_child":{"leaf_value":-0.07101506223801013},"right_child":{"leaf_value":-0.00024370910943002116}},"right_child":{"split_feature":7,"threshold":0.7888888888888891,"default_left":true,"left_child":{"leaf_value":0.04646321536554988},"right_child":{"leaf_value":-0.008402694258926402}}},"right_child":{"leaf_value":-0.06738683915926467}},"right_child":{"leaf_value":-0.07503374262592662}}},"right_child":{"split_feature":30,"threshold":36.66666666666667,"default_left":false,"left_child":{"split_feature":16,"threshold":-91.11999999999988,"default_left":true,"left_child":{"leaf_value":0.02675269602795125},"right_child":{"leaf_value":-0.018850485639391335}},"right_child":{"leaf_value":-0.0047262098345508645}}},"right_child":{"split_feature":7,"threshold":1.6458333333333337,"default_left":true,"left_child":{"split_feature":14,"threshold":1703.805,"default_left":true,"left_child":{"split_feature":10,"threshold":55.50000000000001,"default_left":true,"left_child":{"split_feature":8,"threshold":0.7888888888888891,"default_left":true,"left_child":{"split_feature":14,"threshold":1472.265,"default_left":true,"left_child":{"leaf_value":-0.07698547823073552},"right_child":{"leaf_value":-0.015712942890169945}},"right_child":{"split_feature":26,"threshold":55.00000000000001,"default_left":true,"left_child":{"leaf_value":-0.010546743546596902},"right_child":{"leaf_value":0.007688672873217399}}},"right_child":{"leaf_value":-0.05692904147027361}},"right_child":{"leaf_value":0.0030502490160488286}},"right_child":{"leaf_value":0.012526053745945025}}},"right_child":{"split_feature":31,"threshold":2.7750000000000004,"default_left":true,"left_child":{"split_feature":22,"threshold":22.500000000000004,"default_left":false,"left_child":{"split_feature":7,"threshold":1.3875000000000002,"default_left":true,"left_child":{"split_feature":16,"threshold":-34.355000000000125,"default_left":true,"left_child":{"leaf_value":-0.050431340211063165},"right_child":{"leaf_value":0.000757147429041313}},"right_child":{"split_feature":29,"threshold":1.0000000180025095e-35,"default_left":false,"left_child":{"split_feature":14,"threshold":1718.765,"default_left":true,"left_child":{"split_feature":3,"threshold":1.5800142247510671,"default_left":true,"left_child":{"leaf_value":0.009268833121891916},"right_child":{"leaf_value":-0.0325595412542334}},"right_child":{"leaf_value":0.045776162121474985}},"right_child":{"split_feature":13,"threshold":1.7282986111111114,"default_left":true,"left_child":{"leaf_value":0.03949109366839192},"right_child":{"leaf_value":-0.003179573520370809}}}},"right_child":{"leaf_value":-0.005452832394331103}},"right_child":{"split_feature":7,"threshold":2.292857142857143,"default_left":true,"left_child":{"split_feature":8,"threshold":2.154761904761905,"default_left":true,"left_child":{"split_feature":9,"threshold":1.2928571428571431,"default_left":true,"left_child":{"split_feature":28,"threshold":63.333333333333336,"default_left":true,"left_child":{"leaf_value":0.0026296550297896398},"right_child":{"split_feature":2,"threshold":1.0811403508771933,"default_left":true,"left_child":{"split_feature":3,"threshold":1.723684210526316,"default_left":true,"left_child":{"leaf_value":-0.006735016848441037},"right_child":{"leaf_value":-0.09583680693024738}},"right_child":{"leaf_value":-0.01048528762130169}}},"right_child":{"split_feature":16,"threshold":-75.01499999999997,"default_left":true,"left_child":{"leaf_value":0.05738399355644373},"right_child":{"split_feature":6,"threshold":1.0500000000000003,"default_left":true,"left_child":{"split_feature":2,"threshold":1.1404879385964914,"default_left":true,"left_child":{"leaf_value":0.0032515360880697075},"right_child":{"leaf_value":-0.042617355910511134}},"right_child":{"leaf_value":0.014310805299195388}}}},"right_child":{"leaf_value":0.018638755148237682}},"right_child":{"leaf_value":0.045099463332291624}}}},"right_child":{"split_feature":6,"threshold":2.154761904761905,"default_left":true,"left_child":{"split_feature":7,"threshold":1.0500000000000003,"default_left":true,"left_child":{"leaf_value":0.00876138408725307},"right_child":{"leaf_value":0.03281707194214514}},"right_child":{"leaf_value":0.036023056023032365}}}},{"tree_index":12,"shrinkage":0.0919128,"tree_structure":{"split_feature":16,"threshold":306.63500000000005,"default_left":true,"left_child":{"split_feature":16,"threshold":-112.98,"default_left":true,"left_child":{"split_feature":7,"threshold":2.292857142857143,"default_left":true,"left_child":{"leaf_value":0.008915482997722705},"right_child":{"leaf_value":0.05330073194895436}},"right_child":{"split_feature":6,"threshold":1.1339285714285716,"default_left":true,"left_child":{"split_feature":2,"threshold":1.8850250626566416,"default_left":true,"left_child":{"split_feature":3,"threshold":1.7809758771929827,"default_left":true,"left_child":{"split_feature":16,"threshold":-39.7299999999999,"default_left":true,"left_child":{"split_feature":31,"threshold":3.1000000000000005,"default_left":false,"left_child":{"leaf_value":0.028296057492679973},"right_child":{"leaf_value":-0.013216834570915032}},"right_child":{"split_feature":14,"threshold":1730.5650000000003,"default_left":true,"left_child":{"split_feature":1,"threshold":91.00000000000001,"default_left":true,"left_child":{"split_feature":15,"threshold":1523.8750000000002,"default_left":true,"left_child":{"leaf_value":0.01164643871422159},"right_child":{"split_feature":30,"threshold":36.66666666666667,"default_left":false,"left_child":{"leaf_value":-0.016000005944416296},"right_child":{"split_feature":15,"threshold":1747.1800000000003,"default_left":true,"left_child":{"leaf_value":-0.0029611326876074202},"right_child":{"leaf_value":0.06483528419797546}}}},"right_child":{"split_feature":31,"threshold":1.4500000000000002,"default_left":true,"left_child":{"split_feature":7,"threshold":1.4142857142857144,"default_left":true,"left_child":{"leaf_value":-0.017336147687892194},"right_child":{"leaf_value":0.008419547091419623}},"right_child":{"split_feature":11,"threshold":9.500000000000002,"default_left":true,"left_child":{"split_feature":14,"threshold":1465.0900000000001,"default_left":true,"left_child":{"leaf_value":-0.03521110521327372},"right_child":{"split_feature":15,"threshold":1471.9850000000004,"default_left":true,"left_child":{"leaf_value":0.03050212394702275},"right_child":{"leaf_value":-0.014118622726964661}}},"right_child":{"split_feature":28,"threshold":45.00000000000001,"default_left":true,"left_child":{"leaf_value":-0.07068971236816887},"right_child":{"split_feature":15,"threshold":1594.9050000000004,"default_left":true,"left_child":{"leaf_value":-0.04930169072008383},"right_child":{"leaf_value":0.012855320894560223}}}}}},"right_child":{"split_feature":32,"threshold":63.333333333333336,"default_left":true,"left_child":{"leaf_value":0.022397849178482657},"right_child":{"leaf_value":-0.016850715728586606}}}},"right_child":{"split_feature":1,"threshold":69.50000000000001,"default_left":true,"left_child":{"split_feature":16,"threshold":76.78999999999998,"default_left":true,"left_child":{"leaf_value":-0.024574756736772303},"right_child":{"leaf_value":-0.07929750757245545}},"right_child":{"split_feature":24,"threshold":2.1000000000000005,"default_left":false,"left_child":{"split_feature":14,"threshold":1652.765,"default_left":true,"left_child":{"leaf_value":-0.015499986459309896},"right_child":{"leaf_value":-0.076712820000441}},"right_child":{"leaf_value":-0.0008592729537028974}}}},"right_child":{"split_feature":13,"threshold":0.9921875000000001,"default_left":true,"left_child":{"leaf_value":-0.1003198344535502},"right_child":{"leaf_value":-0.009882585880740369}}},"right_child":{"split_feature":9,"threshold":0.6833333333333335,"default_left":true,"left_child":{"split_feature":22,"threshold":36.66666666666667,"default_left":true,"left_child":{"split_feature":1,"threshold":114.50000000000001,"default_left":true,"left_child":{"leaf_value":-0.012275213595269811},"right_child":{"leaf_value":0.046199875775996165}},"right_child":{"leaf_value":-0.03855157964986938}},"right_child":{"split_feature":1,"threshold":91.00000000000001,"default_left":true,"left_child":{"split_feature":1,"threshold":69.50000000000001,"default_left":true,"left_child":{"split_feature":27,"threshold":4.500000000000001,"default_left":true,"left_child":{"leaf_value":-0.011145538616032537},"right_child":{"leaf_value":0.005777297193408701}},"right_child":{"split_feature":24,"threshold":1.1000000000000003,"default_left":false,"left_child":{"leaf_value":-0.030329162895379538},"right_child":{"leaf_value":0.017623159731635946}}},"right_child":{"split_feature":15,"threshold":1547.0800000000002,"default_left":true,"left_child":{"leaf_value":-0.019485958662520078},"right_child":{"split_feature":12,"threshold":0.787326388888889,"default_left":true,"left_child":{"leaf_value":-0.03869908370641261},"right_child":{"leaf_value":0.001867452189280458}}}}}}},"right_child":{"split_feature":1,"threshold":91.00000000000001,"default_left":true,"left_child":{"leaf_value":0.03197611643100632},"right_child":{"split_feature":16,"threshold":354.6850000000001,"default_left":true,"left_child":{"leaf_value":-0.004940073266826889},"right_child":{"leaf_value":0.022895983207663277}}}}},{"tree_index":13,"shrinkage":0.0919128,"tree_structure":{"split_feature":16,"threshold":306.63500000000005,"default_left":true,"left_child":{"split_feature":8,"threshold":1.2928571428571431,"default_left":true,"left_child":{"split_feature":16,"threshold":99.59499999999993,"default_left":true,"left_child":{"split_feature":7,"threshold":1.0500000000000003,"default_left":true,"left_child":{"split_feature":0,"threshold":2006.5000000000002,"default_left":true,"left_child":{"split_feature":2,"threshold":1.685855263157895,"default_left":true,"left_child":{"split_feature":26,"threshold":45.00000000000001,"default_left":true,"left_child":{"leaf_value":-0.013699331285259169},"right_child":{"leaf_value":-0.08056967095101535}},"right_child":{"leaf_value":-0.12019194297998115}},"right_child":{"split_feature":11,"threshold":10.500000000000002,"default_left":true,"left_child":{"split_feature":14,"threshold":1652.765,"default_left":true,"left_child":{"leaf_value":-0.01605059021343329},"right_child":{"leaf_value":0.03607649319155302}},"right_child":{"leaf_value":-0.056460689311826795}}},"right_child":{"split_feature":0,"threshold":2001.5000000000002,"default_left":true,"left_child":{"leaf_value":0.015640300532969695},"right_child":{"leaf_value":-0.012325998975490495}}},"right_child":{"split_feature":7,"threshold":1.7321428571428574,"default_left":true,"left_child":{"split_feature":26,"threshold":55.00000000000001,"default_left":true,"left_child":{"split_feature":16,"threshold":172.395,"default_left":true,"left_child":{"split_feature":2,"threshold":1.8533232118758434,"default_left":true,"left_child":{"split_feature":11,"threshold":62.50000000000001,"default_left":true,"left_child":{"leaf_value":-0.016882516587447122},"right_child":{"leaf_value":-0.08251148999969296}},"right_child":{"leaf_value":0.02193217450316775}},"right_child":{"split_feature":7,"threshold":1.3875000000000002,"default_left":true,"left_child":{"split_feature":29,"threshold":29.166666666666668,"default_left":true,"left_child":{"split_feature":31,"threshold":3.9000000000000004,"default_left":true,"left_child":{"leaf_value":-0.015128610371914842},"right_child":{"leaf_value":0.040926765746328704}},"right_child":{"leaf_value":0.018002264976730357}},"right_child":{"leaf_value":0.01883158595072923}}},"right_child":{"split_feature":0,"threshold":2020.5000000000002,"default_left":true,"left_child":{"leaf_value":0.006826573550380606},"right_child":{"leaf_value":-0.019510788834179397}}},"right_child":{"split_feature":15,"threshold":1668.7700000000002,"default_left":true,"left_child":{"split_feature":8,"threshold":0.763888888888889,"default_left":true,"left_child":{"leaf_value":-0.02144078481229052},"right_child":{"split_feature":15,"threshold":1641.8150000000003,"default_left":true,"left_child":{"leaf_value":0.022445260285882146},"right_child":{"leaf_value":-0.029355113098657223}}},"right_child":{"leaf_value":0.0563078510536951}}}},"right_child":{"split_feature":0,"threshold":2015.5000000000002,"default_left":true,"left_child":{"split_feature":6,"threshold":1.2111111111111115,"default_left":true,"left_child":{"leaf_value":-0.007239586959170642},"right_child":{"split_feature":7,"threshold":0.8944444444444445,"default_left":true,"left_child":{"split_feature":10,"threshold":12.500000000000002,"default_left":true,"left_child":{"leaf_value":-0.020270916962808656},"right_child":{"split_feature":8,"threshold":1.6833333333333336,"default_left":true,"left_child":{"leaf_value":-0.01713932998997015},"right_child":{"leaf_value":0.08653756394239363}}},"right_child":{"split_feature":25,"threshold":1.0000000180025095e-35,"default_left":false,"left_child":{"split_feature":8,"threshold":1.3875000000000002,"default_left":true,"left_child":{"leaf_value":0.04536382181429892},"right_child":{"split_feature":29,"threshold":77.50000000000001,"default_left":false,"left_child":{"leaf_value":-0.07438699998653917},"right_child":{"split_feature":14,"threshold":1672.575,"default_left":true,"left_child":{"leaf_value":-0.03451870015787449},"right_child":{"leaf_value":0.03596341053350984}}}},"right_child":{"leaf_value":0.0071021520934651606}}}},"right_child":{"split_feature":16,"threshold":-233.54499999999993,"default_left":true,"left_child":{"leaf_value":0.03530776340114394},"right_child":{"split_feature":25,"threshold":55.00000000000001,"default_left":true,"left_child":{"split_feature":15,"threshold":1872.0900000000004,"default_left":true,"left_child":{"leaf_value":0.00682996623462864},"right_child":{"leaf_value":-0.030549850012106448}},"right_child":{"leaf_value":0.015526009760754099}}}}},"right_child":{"split_feature":0,"threshold":2008.5000000000002,"default_left":true,"left_child":{"leaf_value":0.004456772830661797},"right_child":{"split_feature":16,"threshold":402.87000000000006,"default_left":true,"left_child":{"split_feature":11,"threshold":3.5000000000000004,"default_left":true,"left_child":{"leaf_value":-0.02567439219508315},"right_child":{"leaf_value":0.023135401125212028}},"right_child":{"leaf_value":0.04201158010600189}}}}},{"tree_index":14,"shrinkage":0.0919128,"tree_structure":{"split_feature":16,"threshold":306.63500000000005,"default_left":true,"left_child":{"split_feature":16,"threshold":-112.98,"default_left":true,"left_child":{"split_feature":15,"threshold":1814.0300000000002,"default_left":true,"left_child":{"leaf_value":0.02206098584958296},"right_child":{"leaf_value":0.0044270752018784765}},"right_child":{"split_feature":1,"threshold":91.00000000000001,"default_left":true,"left_child":{"split_feature":1,"threshold":69.50000000000001,"default_left":true,"left_child":{"split_feature":9,"threshold":0.7071428571428572,"default_left":true,"left_child":{"split_feature":14,"threshold":1809.6000000000001,"default_left":true,"left_child":{"leaf_value":-0.03030666158427481},"right_child":{"leaf_value":0.018929927463971707}},"right_child":{"split_feature":13,"threshold":1.0000000180025095e-35,"default_left":true,"left_child":{"split_feature":21,"threshold":45.00000000000001,"default_left":true,"left_child":{"leaf_value":-0.015864685944070648},"right_child":{"leaf_value":-0.07459048476938354}},"right_child":{"leaf_value":-0.004202159953936385}}},"right_child":{"split_feature":24,"threshold":1.1000000000000003,"default_left":false,"left_child":{"leaf_value":-0.022626943526296916},"right_child":{"split_feature":24,"threshold":5.450000000000001,"default_left":true,"left_child":{"split_feature":4,"threshold":1.0500000000000003,"default_left":true,"left_child":{"split_feature":16,"threshold":122.07499999999995,"default_left":true,"left_child":{"split_feature":16,"threshold":103.05500000000008,"default_left":true,"left_child":{"leaf_value":0.003044527457987455},"right_child":{"split_feature":24,"threshold":3.2250000000000005,"default_left":false,"left_child":{"leaf_value":-0.008884549906703086},"right_child":{"leaf_value":-0.08378483186938819}}},"right_child":{"split_feature":23,"threshold":22.500000000000004,"default_left":false,"left_child":{"leaf_value":0.0022094269230556124},"right_child":{"leaf_value":0.05148093742831579}}},"right_child":{"leaf_value":0.017838317081115357}},"right_child":{"leaf_value":-0.04537605161059916}}}},"right_child":{"split_feature":1,"threshold":114.50000000000001,"default_left":true,"left_child":{"leaf_value":-0.017816242374226375},"right_child":{"split_feature":16,"threshold":143.1850000000001,"default_left":true,"left_child":{"split_feature":3,"threshold":1.027580971659919,"default_left":true,"left_child":{"split_feature":9,"threshold":1.585714285714286,"default_left":true,"left_child":{"split_feature":8,"threshold":1.0500000000000003,"default_left":true,"left_child":{"split_feature":25,"threshold":63.333333333333336,"default_left":false,"left_child":{"leaf_value":-0.04473714127359921},"right_child":{"leaf_value":0.010313393409889128}},"right_child":{"leaf_value":-0.07853758684381054}},"right_child":{"split_feature":21,"threshold":36.66666666666667,"default_left":false,"left_child":{"leaf_value":0.011000882741344706},"right_child":{"split_feature":13,"threshold":0.22829861111111113,"default_left":true,"left_child":{"leaf_value":0.01527921172742733},"right_child":{"split_feature":4,"threshold":0.7321428571428573,"default_left":true,"left_child":{"leaf_value":-0.08212359335661207},"right_child":{"leaf_value":-0.021409173298139135}}}}},"right_child":{"split_feature":15,"threshold":1738.5200000000002,"default_left":true,"left_child":{"split_feature":23,"threshold":45.00000000000001,"default_left":false,"left_child":{"split_feature":15,"threshold":1731.785,"default_left":true,"left_child":{"leaf_value":0.005368145502478793},"right_child":{"leaf_value":0.056771970743062714}},"right_child":{"split_feature":24,"threshold":2.5500000000000003,"default_left":true,"left_child":{"leaf_value":-0.006392114398362884},"right_child":{"leaf_value":-0.05759695547807789}}},"right_child":{"leaf_value":-0.011479731687868353}}},"right_child":{"split_feature":25,"threshold":55.00000000000001,"default_left":false,"left_child":{"split_feature":11,"threshold":5.500000000000001,"default_left":true,"left_child":{"leaf_value":-0.03350826111845883},"right_child":{"split_feature":14,"threshold":1784.9550000000002,"default_left":true,"left_child":{"split_feature":14,"threshold":1736.825,"default_left":true,"left_child":{"split_feature":9,"threshold":1.585714285714286,"default_left":true,"left_child":{"leaf_value":0.023148178072614527},"right_child":{"leaf_value":-0.019592739866506836}},"right_child":{"leaf_value":0.0381324694423929}},"right_child":{"leaf_value":-0.01753073824608994}}},"right_child":{"split_feature":32,"threshold":90.00000000000001,"default_left":true,"left_child":{"leaf_value":0.017267687350173998},"right_child":{"leaf_value":-0.010259025991594324}}}}}}},"right_child":{"split_feature":1,"threshold":91.00000000000001,"default_left":true,"left_child":{"leaf_value":0.028181328136059818},"right_child":{"split_feature":14,"threshold":2017.6900000000003,"default_left":true,"left_child":{"leaf_value":0.005317906271147633},"right_child":{"leaf_value":0.05151517761951903}}}}},{"tree_index":15,"shrinkage":0.0919128,"tree_structure":{"split_feature":0,"threshold":2009.5000000000002,"default_left":true,"left_child":{"split_feature":1,"threshold":69.50000000000001,"default_left":true,"left_child":{"split_feature":1,"threshold":50.00000000000001,"default_left":true,"left_child":{"split_feature":25,"threshold":22.500000000000004,"default_left":true,"left_child":{"leaf_value":0.009413726959175259},"right_child":{"split_feature":11,"threshold":5.500000000000001,"default_left":true,"left_child":{"split_feature":32,"threshold":29.166666666666668,"default_left":true,"left_child":{"leaf_value":0.044737891141438266},"right_child":{"split_feature":11,"threshold":3.5000000000000004,"default_left":true,"left_child":{"leaf_value":-0.03780732260293147},"right_child":{"leaf_value":0.01757610596968127}}},"right_child":{"split_feature":10,"threshold":12.500000000000002,"default_left":true,"left_child":{"leaf_value":-0.026916260502746193},"right_child":{"leaf_value":0.0035276495343870987}}}},"right_child":{"split_feature":30,"threshold":22.500000000000004,"default_left":true,"left_child":{"split_feature":3,"threshold":2.169871794871795,"default_left":true,"left_child":{"split_feature":8,"threshold":1.6458333333333337,"default_left":true,"left_child":{"leaf_value":-0.03222389391211803},"right_child":{"leaf_value":0.013382818998613343}},"right_child":{"leaf_value":-0.09307168281965306}},"right_child":{"leaf_value":-0.00488781348095685}}},"right_child":{"split_feature":1,"threshold":91.00000000000001,"default_left":true,"left_child":{"split_feature":3,"threshold":0.5811403508771931,"default_left":true,"left_child":{"leaf_value":0.04530311968571656},"right_child":{"leaf_value":0.004844906835010957}},"right_child":{"split_feature":1,"threshold":114.50000000000001,"default_left":true,"left_child":{"split_feature":0,"threshold":2003.5000000000002,"default_left":true,"left_child":{"leaf_value":-0.0016895617532490571},"right_child":{"split_feature":27,"threshold":4.500000000000001,"default_left":true,"left_child":{"split_feature":24,"threshold":2.7750000000000004,"default_left":true,"left_child":{"leaf_value":-0.0257113164555382},"right_child":{"split_feature":32,"threshold":63.333333333333336,"default_left":true,"left_child":{"leaf_value":-0.03646909520329696},"right_child":{"leaf_value":-0.10730476708620022}}},"right_child":{"split_feature":24,"threshold":2.5500000000000003,"default_left":true,"left_child":{"split_feature":12,"threshold":1.5825892857142858,"default_left":true,"left_child":{"leaf_value":0.016308864147547345},"right_child":{"leaf_value":-0.048345468097769344}},"right_child":{"leaf_value":0.045612396357399373}}}},"right_child":{"leaf_value":7.977993435949019e-05}}}},"right_child":{"split_feature":1,"threshold":91.00000000000001,"default_left":true,"left_child":{"split_feature":1,"threshold":69.50000000000001,"default_left":true,"left_child":{"split_feature":2,"threshold":2.2667140825035563,"default_left":true,"left_child":{"split_feature":0,"threshold":2022.5000000000002,"default_left":true,"left_child":{"split_feature":3,"threshold":0.6359649122807018,"default_left":true,"left_child":{"leaf_value":-0.02520022795605125},"right_child":{"leaf_value":0.0010579237512064355}},"right_child":{"split_feature":25,"threshold":36.66666666666667,"default_left":false,"left_child":{"leaf_value":0.07516884836322023},"right_child":{"split_feature":23,"threshold":36.66666666666667,"default_left":true,"left_child":{"split_feature":1,"threshold":50.00000000000001,"default_left":true,"left_child":{"leaf_value":0.019998633951433836},"right_child":{"leaf_value":-0.04419239341306991}},"right_child":{"leaf_value":0.04983652877588813}}}},"right_child":{"leaf_value":0.03203144138384688}},"right_child":{"split_feature":7,"threshold":1.585714285714286,"default_left":true,"left_child":{"leaf_value":0.026609776176173466},"right_child":{"split_feature":3,"threshold":0.8289473684210528,"default_left":true,"left_child":{"split_feature":30,"threshold":29.166666666666668,"default_left":false,"left_child":{"split_feature":26,"threshold":55.00000000000001,"default_left":true,"left_child":{"leaf_value":-0.005607628026301217},"right_child":{"leaf_value":-0.06508678316970734}},"right_child":{"leaf_value":0.008678775018627705}},"right_child":{"split_feature":24,"threshold":5.900000000000001,"default_left":false,"left_child":{"split_feature":31,"threshold":3.9000000000000004,"default_left":false,"left_child":{"leaf_value":0.013269719897220547},"right_child":{"leaf_value":0.03717358453792876}},"right_child":{"leaf_value":-0.031175754179938415}}}}},"right_child":{"split_feature":21,"threshold":70.83333333333334,"default_left":true,"left_child":{"split_feature":8,"threshold":2.0500000000000003,"default_left":true,"left_child":{"leaf_value":-0.007971388971411789},"right_child":{"split_feature":12,"threshold":0.6171875000000001,"default_left":true,"left_child":{"leaf_value":0.06243657184214499},"right_child":{"leaf_value":0.004911399486778454}}},"right_child":{"leaf_value":0.011961077073501967}}}}},{"tree_index":16,"shrinkage":0.0919128,"tree_structure":{"split_feature":16,"threshold":306.63500000000005,"default_left":true,"left_child":{"split_feature":16,"threshold":-112.98,"default_left":true,"left_child":{"split_feature":7,"threshold":2.292857142857143,"default_left":true,"left_child":{"split_feature":0,"threshold":2017.5000000000002,"default_left":true,"left_child":{"leaf_value":0.0003960180207005294},"right_child":{"split_feature":26,"threshold":22.500000000000004,"default_left":true,"left_child":{"leaf_value":-0.039926077330474846},"right_child":{"leaf_value":0.02733368541361626}}},"right_child":{"leaf_value":0.048270403333719326}},"right_child":{"split_feature":6,"threshold":1.1339285714285716,"default_left":true,"left_child":{"split_feature":2,"threshold":1.8850250626566416,"default_left":true,"left_child":{"split_feature":3,"threshold":1.7809758771929827,"default_left":true,"left_child":{"split_feature":16,"threshold":-43.064999999999934,"default_left":true,"left_child":{"split_feature":22,"threshold":63.333333333333336,"default_left":false,"left_child":{"split_feature":0,"threshold":2020.5000000000002,"default_left":true,"left_child":{"leaf_value":0.04041675028136379},"right_child":{"leaf_value":-0.021816385033696997}},"right_child":{"split_feature":16,"threshold":-91.11999999999988,"default_left":true,"left_child":{"leaf_value":-0.052967396282034805},"right_child":{"split_feature":15,"threshold":1741.8000000000002,"default_left":true,"left_child":{"leaf_value":0.024329811238999386},"right_child":{"leaf_value":-0.02937698148646719}}}},"right_child":{"split_feature":16,"threshold":99.59499999999993,"default_left":true,"left_child":{"split_feature":10,"threshold":84.50000000000001,"default_left":true,"left_child":{"split_feature":15,"threshold":1793.7950000000003,"default_left":true,"left_child":{"leaf_value":-0.009923952249036175},"right_child":{"split_feature":3,"threshold":1.5551619433198383,"default_left":true,"left_child":{"leaf_value":0.0009711356994494553},"right_child":{"leaf_value":0.06670888349147074}}},"right_child":{"leaf_value":-0.058144425387245506}},"right_child":{"split_feature":23,"threshold":70.83333333333334,"default_left":true,"left_child":{"split_feature":4,"threshold":1.788888888888889,"default_left":true,"left_child":{"leaf_value":-0.003351220261045344},"right_child":{"leaf_value":0.05371600549129755}},"right_child":{"split_feature":13,"threshold":0.9218750000000001,"default_left":true,"left_child":{"leaf_value":0.04090587055835621},"right_child":{"leaf_value":-0.009805142252633535}}}}},"right_child":{"leaf_value":-0.01514264793885942}},"right_child":{"split_feature":13,"threshold":0.9921875000000001,"default_left":true,"left_child":{"leaf_value":-0.08467921083886712},"right_child":{"leaf_value":-0.00702494074603425}}},"right_child":{"split_feature":7,"threshold":1.0500000000000003,"default_left":true,"left_child":{"split_feature":0,"threshold":2009.5000000000002,"default_left":true,"left_child":{"split_feature":16,"threshold":115.84000000000005,"default_left":true,"left_child":{"split_feature":31,"threshold":2.1000000000000005,"default_left":true,"left_child":{"split_feature":26,"threshold":29.166666666666668,"default_left":false,"left_child":{"leaf_value":-0.023268789452536878},"right_child":{"leaf_value":-0.07700078915974058}},"right_child":{"leaf_value":-0.013262739406919426}},"right_child":{"split_feature":2,"threshold":1.486842105263158,"default_left":true,"left_child":{"leaf_value":-0.047340782103952005},"right_child":{"leaf_value":-0.001900582064026239}}},"right_child":{"split_feature":10,"threshold":4.500000000000001,"default_left":true,"left_child":{"leaf_value":-0.022912650007193124},"right_child":{"leaf_value":0.005676429736408623}}},"right_child":{"split_feature":13,"threshold":1.0000000180025095e-35,"default_left":true,"left_child":{"split_feature":31,"threshold":1.9000000000000001,"default_left":false,"left_child":{"leaf_value":-0.09691053649270612},"right_child":{"leaf_value":-0.005779731381435919}},"right_child":{"leaf_value":0.004305303180629717}}}}},"right_child":{"split_feature":0,"threshold":2008.5000000000002,"default_left":true,"left_child":{"split_feature":16,"threshold":348.085,"default_left":true,"left_child":{"split_feature":21,"threshold":1.0000000180025095e-35,"default_left":true,"left_child":{"leaf_value":-0.03554161507908442},"right_child":{"leaf_value":0.03410299619843692}},"right_child":{"split_feature":3,"threshold":1.4577999051683264,"default_left":true,"left_child":{"leaf_value":-0.0003968222999324155},"right_child":{"leaf_value":-0.09413690612994371}}},"right_child":{"split_feature":16,"threshold":402.87000000000006,"default_left":true,"left_child":{"split_feature":11,"threshold":5.500000000000001,"default_left":true,"left_child":{"leaf_value":-0.010020488447474867},"right_child":{"leaf_value":0.022291187304245175}},"right_child":{"split_feature":21,"threshold":55.00000000000001,"default_left":true,"left_child":{"leaf_value":0.08410012986422051},"right_child":{"leaf_value":0.02978711335081311}}}}}},{"tree_index":17,"shrinkage":0.0919128,"tree_structure":{"split_feature":16,"threshold":196.775,"default_left":true,"left_child":{"split_feature":16,"threshold":-112.98,"default_left":true,"left_child":{"split_feature":7,"threshold":2.292857142857143,"default_left":true,"left_child":{"split_feature":0,"threshold":2017.5000000000002,"default_left":true,"left_child":{"leaf_value":0.0003597149931190187},"right_child":{"split_feature":25,"threshold":1.0000000180025095e-35,"default_left":true,"left_child":{"leaf_value":-0.04594131864856267},"right_child":{"split_feature":31,"threshold":2.2250000000000005,"default_left":true,"left_child":{"leaf_value":-0.001915572637231364},"right_child":{"leaf_value":0.03375721767652012}}}},"right_child":{"leaf_value":0.04520738638953184}},"right_child":{"split_feature":9,"threshold":0.6833333333333335,"default_left":true,"left_child":{"split_feature":16,"threshold":159.49500000000003,"default_left":true,"left_child":{"leaf_value":-0.015501292378692657},"right_child":{"leaf_value":-0.0734018393388441}},"right_child":{"split_feature":6,"threshold":1.2111111111111115,"default_left":true,"left_child":{"split_feature":7,"threshold":1.3875000000000002,"default_left":true,"left_child":{"split_feature":12,"threshold":0.8046875000000001,"default_left":true,"left_child":{"split_feature":14,"threshold":1535.5100000000002,"default_left":true,"left_child":{"leaf_value":0.038061985469456064},"right_child":{"leaf_value":-0.002834326070891031}},"right_child":{"leaf_value":-0.011573409262522026}},"right_child":{"split_feature":2,"threshold":1.1062030075187972,"default_left":true,"left_child":{"split_feature":22,"threshold":36.66666666666667,"default_left":false,"left_child":{"leaf_value":0.003241538976696857},"right_child":{"split_feature":0,"threshold":2009.5000000000002,"default_left":true,"left_child":{"split_feature":13,"threshold":1.3906250000000002,"default_left":true,"left_child":{"split_feature":15,"threshold":1690.5000000000002,"default_left":true,"left_child":{"leaf_value":-0.020354195155971547},"right_child":{"split_feature":28,"threshold":1.0000000180025095e-35,"default_left":false,"left_child":{"leaf_value":-0.02959422561984278},"right_child":{"leaf_value":0.02203917843804198}}},"right_child":{"split_feature":31,"threshold":2.6333333333333337,"default_left":true,"left_child":{"split_feature":29,"threshold":55.00000000000001,"default_left":false,"left_child":{"leaf_value":-0.020982987455259606},"right_child":{"leaf_value":-0.08594494669076656}},"right_child":{"leaf_value":0.002430287118541395}}},"right_child":{"leaf_value":-0.004263790242744486}}},"right_child":{"leaf_value":0.010137201380065184}}},"right_child":{"split_feature":31,"threshold":1.9000000000000001,"default_left":true,"left_child":{"split_feature":15,"threshold":1614.2550000000003,"default_left":true,"left_child":{"split_feature":22,"threshold":45.00000000000001,"default_left":false,"left_child":{"split_feature":9,"threshold":0.9500000000000001,"default_left":true,"left_child":{"leaf_value":-0.08745619919051267},"right_child":{"leaf_value":-0.026599946990461063}},"right_child":{"split_feature":13,"threshold":1.1796875000000002,"default_left":true,"left_child":{"split_feature":14,"threshold":1491.7500000000002,"default_left":true,"left_child":{"split_feature":12,"threshold":1.4843750000000002,"default_left":true,"left_child":{"leaf_value":0.013830404677501188},"right_child":{"leaf_value":-0.08858720879871132}},"right_child":{"split_feature":12,"threshold":1.9330357142857144,"default_left":true,"left_child":{"leaf_value":-0.021394946914848664},"right_child":{"leaf_value":0.0381977072162513}}},"right_child":{"split_feature":14,"threshold":1485.1300000000003,"default_left":true,"left_child":{"leaf_value":0.08847497430506143},"right_child":{"leaf_value":-0.0019691628016105644}}}},"right_child":{"split_feature":0,"threshold":2008.5000000000002,"default_left":true,"left_child":{"split_feature":14,"threshold":1714.3950000000002,"default_left":true,"left_child":{"split_feature":14,"threshold":1703.805,"default_left":true,"left_child":{"leaf_value":-0.01510191044834859},"right_child":{"leaf_value":-0.08073392020931462}},"right_child":{"split_feature":13,"threshold":0.6848958333333334,"default_left":true,"left_child":{"leaf_value":0.050948544061400494},"right_child":{"split_feature":14,"threshold":1738.6450000000002,"default_left":true,"left_child":{"leaf_value":0.033175337617864134},"right_child":{"leaf_value":-0.01948010547050366}}}},"right_child":{"leaf_value":0.012235072655520613}}},"right_child":{"leaf_value":0.004936451518654678}}}}},"right_child":{"split_feature":16,"threshold":402.87000000000006,"default_left":true,"left_child":{"split_feature":11,"threshold":87.50000000000001,"default_left":true,"left_child":{"split_feature":12,"threshold":2.65625,"default_left":true,"left_child":{"leaf_value":0.007895221338669404},"right_child":{"leaf_value":-0.008750270674732347}},"right_child":{"leaf_value":0.05608759483336492}},"right_child":{"leaf_value":0.027601808558810864}}}},{"tree_index":18,"shrinkage":0.0919128,"tree_structure":{"split_feature":6,"threshold":2.1125000000000003,"default_left":true,"left_child":{"split_feature":1,"threshold":91.00000000000001,"default_left":true,"left_child":{"split_feature":1,"threshold":69.50000000000001,"default_left":true,"left_child":{"split_feature":0,"threshold":2008.5000000000002,"default_left":true,"left_child":{"leaf_value":-0.012943819025431413},"right_child":{"split_feature":15,"threshold":1733.3200000000002,"default_left":true,"left_child":{"split_feature":16,"threshold":100.59999999999992,"default_left":true,"left_child":{"split_feature":7,"threshold":2.2678571428571432,"default_left":true,"left_child":{"leaf_value":-0.013768415907314582},"right_child":{"leaf_value":0.028807214732072116}},"right_child":{"split_feature":0,"threshold":2019.5000000000002,"default_left":true,"left_child":{"split_feature":24,"threshold":3.2916666666666674,"default_left":false,"left_child":{"split_feature":33,"threshold":70.83333333333334,"default_left":false,"left_child":{"split_feature":7,"threshold":1.788888888888889,"default_left":true,"left_child":{"leaf_value":-0.004532859567404281},"right_child":{"split_feature":30,"threshold":36.66666666666667,"default_left":true,"left_child":{"leaf_value":0},"right_child":{"leaf_value":0.08240859907012159}}},"right_child":{"split_feature":7,"threshold":0.8944444444444445,"default_left":true,"left_child":{"leaf_value":-0.08563754299435525},"right_child":{"leaf_value":-0.019212690828726096}}},"right_child":{"leaf_value":0.017581261307366407}},"right_child":{"split_feature":33,"threshold":29.166666666666668,"default_left":false,"left_child":{"leaf_value":-0.012204061467953572},"right_child":{"leaf_value":0.02784832545937317}}}},"right_child":{"leaf_value":0.011085449874230739}}},"right_child":{"split_feature":10,"threshold":6.500000000000001,"default_left":true,"left_child":{"split_feature":8,"threshold":0.6125000000000002,"default_left":true,"left_child":{"leaf_value":-0.05172254634898906},"right_child":{"leaf_value":0.004626650524875698}},"right_child":{"split_feature":16,"threshold":182.28,"default_left":true,"left_child":{"leaf_value":0.011016700129610426},"right_child":{"leaf_value":0.0289702185418384}}}},"right_child":{"split_feature":1,"threshold":114.50000000000001,"default_left":true,"left_child":{"leaf_value":-0.012210895348148017},"right_child":{"split_feature":16,"threshold":-249.46,"default_left":true,"left_child":{"leaf_value":0.03948218072833606},"right_child":{"split_feature":1,"threshold":137.50000000000003,"default_left":true,"left_child":{"split_feature":0,"threshold":2018.5000000000002,"default_left":true,"left_child":{"split_feature":11,"threshold":5.500000000000001,"default_left":true,"left_child":{"split_feature":21,"threshold":63.333333333333336,"default_left":false,"left_child":{"split_feature":15,"threshold":1661.6750000000004,"default_left":true,"left_child":{"leaf_value":-0.04092230151634166},"right_child":{"split_feature":9,"threshold":0.9500000000000001,"default_left":true,"left_child":{"split_feature":32,"threshold":55.00000000000001,"default_left":false,"left_child":{"leaf_value":-0.0775430341709521},"right_child":{"leaf_value":0.003730845056363665}},"right_child":{"leaf_value":0.017696022652616234}}},"right_child":{"leaf_value":0.03009382803479496}},"right_child":{"split_feature":8,"threshold":1.8944444444444446,"default_left":true,"left_child":{"split_feature":3,"threshold":1.0529115341545354,"default_left":true,"left_child":{"leaf_value":-0.007830690928450857},"right_child":{"leaf_value":0.01188537406524586}},"right_child":{"leaf_value":-0.018255843517484133}}},"right_child":{"split_feature":10,"threshold":4.500000000000001,"default_left":true,"left_child":{"leaf_value":0.04887149976063611},"right_child":{"split_feature":16,"threshold":-112.98,"default_left":true,"left_child":{"leaf_value":0.05809454062274085},"right_child":{"leaf_value":-0.00010685193626318942}}}},"right_child":{"split_feature":14,"threshold":1714.3950000000002,"default_left":true,"left_child":{"split_feature":7,"threshold":1.4142857142857144,"default_left":true,"left_child":{"split_feature":33,"threshold":22.500000000000004,"default_left":false,"left_child":{"leaf_value":-0.05092708802478966},"right_child":{"split_feature":8,"threshold":1.3875000000000002,"default_left":true,"left_child":{"leaf_value":-0.005310816913709908},"right_child":{"split_feature":31,"threshold":3.5500000000000003,"default_left":true,"left_child":{"leaf_value":-0.024659127435521892},"right_child":{"leaf_value":-0.09606138830109395}}}},"right_child":{"leaf_value":-0.0068469762447672}},"right_child":{"split_feature":3,"threshold":0.5741502192982457,"default_left":true,"left_child":{"leaf_value":0.03904251825458021},"right_child":{"leaf_value":-0.0007178190557823534}}}}}}},"right_child":{"split_feature":11,"threshold":87.50000000000001,"default_left":true,"left_child":{"leaf_value":0.014141724549213653},"right_child":{"leaf_value":0.08788849643350996}}}},{"tree_index":19,"shrinkage":0.0919128,"tree_structure":{"split_feature":16,"threshold":306.63500000000005,"default_left":true,"left_child":{"split_feature":16,"threshold":-112.98,"default_left":true,"left_child":{"split_feature":7,"threshold":2.535714285714286,"default_left":true,"left_child":{"split_feature":31,"threshold":2.4500000000000006,"default_left":true,"left_child":{"split_feature":21,"threshold":29.166666666666668,"default_left":true,"left_child":{"leaf_value":0.001063158486869727},"right_child":{"leaf_value":-0.041323410993900016}},"right_child":{"split_feature":13,"threshold":1.4609375000000002,"default_left":true,"left_child":{"leaf_value":0.042510354769019},"right_child":{"split_feature":6,"threshold":0.9500000000000001,"default_left":true,"left_child":{"split_feature":6,"threshold":0.6833333333333335,"default_left":true,"left_child":{"leaf_value":0.0295530602985715},"right_child":{"split_feature":14,"threshold":1589.2050000000002,"default_left":true,"left_child":{"split_feature":28,"threshold":1.0000000180025095e-35,"default_left":true,"left_child":{"leaf_value":0.03031450181391073},"right_child":{"leaf_value":-0.03855720948970447}},"right_child":{"leaf_value":-0.0627914175615947}}},"right_child":{"leaf_value":0.016844169647045514}}}},"right_child":{"leaf_value":0.06420808301347186}},"right_child":{"split_feature":9,"threshold":0.6833333333333335,"default_left":true,"left_child":{"leaf_value":-0.015618152850122684},"right_child":{"split_feature":6,"threshold":1.1339285714285716,"default_left":true,"left_child":{"split_feature":2,"threshold":1.9496457489878543,"default_left":true,"left_child":{"leaf_value":-0.004239480167522949},"right_child":{"leaf_value":-0.05448779668086308}},"right_child":{"split_feature":13,"threshold":1.2008928571428572,"default_left":true,"left_child":{"split_feature":31,"threshold":2.7083333333333335,"default_left":true,"left_child":{"split_feature":7,"threshold":1.1055555555555558,"default_left":true,"left_child":{"leaf_value":-0.014172217578292593},"right_child":{"split_feature":14,"threshold":1343.6500000000003,"default_left":true,"left_child":{"leaf_value":-0.05775705443571322},"right_child":{"leaf_value":-0.000561775794766103}}},"right_child":{"leaf_value":0.004557295451003292}},"right_child":{"split_feature":28,"threshold":1.0000000180025095e-35,"default_left":false,"left_child":{"split_feature":25,"threshold":1.0000000180025095e-35,"default_left":true,"left_child":{"leaf_value":0.03853979827002982},"right_child":{"leaf_value":-0.013057057322507894}},"right_child":{"split_feature":10,"threshold":6.500000000000001,"default_left":true,"left_child":{"split_feature":23,"threshold":63.333333333333336,"default_left":true,"left_child":{"split_feature":5,"threshold":2.3875000000000006,"default_left":true,"left_child":{"split_feature":2,"threshold":1.3509705113848451,"default_left":true,"left_child":{"split_feature":2,"threshold":1.2742627846211276,"default_left":true,"left_child":{"leaf_value":0.009957267287269235},"right_child":{"leaf_value":0.058833523374858664}},"right_child":{"split_feature":31,"threshold":4.1000000000000005,"default_left":true,"left_child":{"leaf_value":-0.007580279380074444},"right_child":{"leaf_value":0.054598830271720626}}},"right_child":{"leaf_value":-0.050475794880538216}},"right_child":{"leaf_value":-0.07372967045112408}},"right_child":{"leaf_value":0.013516018066062448}}}}}}},"right_child":{"split_feature":24,