{"metadata":{"market":"ou_4_5","num_trees":100,"num_class":1,"feature_names":["season","leagueId","homeFormScore","awayFormScore","homePPG10","awayPPG10","homeGF10","homeGA10","awayGF10","awayGA10","homeDaysSince","awayDaysSince","homeHomeFormScore","awayAwayFormScore","homeElo","awayElo","eloDiff","homeTier","awayTier","tierGap","h2h_overall_matches","h2h_overall_home_win_pct","h2h_overall_away_win_pct","h2h_overall_draw_pct","h2h_overall_avg_goals","h2h_overall_btts_pct","h2h_overall_over_2_5_pct","h2h_venue_matches","h2h_venue_home_win_pct","h2h_venue_away_win_pct","h2h_venue_draw_pct","h2h_venue_avg_goals","h2h_venue_btts_pct","h2h_venue_over_2_5_pct"],"objective":"binary sigmoid:1"},"tree_info":[{"tree_index":0,"shrinkage":1,"tree_structure":{"split_feature":6,"threshold":2.0500000000000003,"default_left":true,"left_child":{"split_feature":8,"threshold":1.6458333333333337,"default_left":true,"left_child":{"split_feature":6,"threshold":1.4722222222222225,"default_left":true,"left_child":{"split_feature":14,"threshold":1355.0700000000002,"default_left":true,"left_child":{"split_feature":31,"threshold":2.2916666666666674,"default_left":false,"left_child":{"leaf_value":-1.8001034650704961},"right_child":{"leaf_value":-1.7784856075069013}},"right_child":{"split_feature":6,"threshold":1.0500000000000003,"default_left":true,"left_child":{"split_feature":9,"threshold":1.527777777777778,"default_left":true,"left_child":{"leaf_value":-1.8040771567869163},"right_child":{"leaf_value":-1.798431638264551}},"right_child":{"split_feature":14,"threshold":1740.4750000000001,"default_left":true,"left_child":{"split_feature":24,"threshold":1.9000000000000001,"default_left":false,"left_child":{"leaf_value":-1.8040873681038179},"right_child":{"split_feature":2,"threshold":1.7809758771929827,"default_left":true,"left_child":{"split_feature":14,"threshold":1586.0450000000003,"default_left":true,"left_child":{"leaf_value":-1.793416324126843},"right_child":{"leaf_value":-1.7986117343290065}},"right_child":{"leaf_value":-1.8083972079733945}}},"right_child":{"leaf_value":-1.791601187397696}}}},"right_child":{"split_feature":22,"threshold":36.66666666666667,"default_left":true,"left_child":{"split_feature":14,"threshold":1843.6950000000004,"default_left":true,"left_child":{"split_feature":15,"threshold":1382.8800000000003,"default_left":true,"left_child":{"split_feature":13,"threshold":1.3906250000000002,"default_left":true,"left_child":{"split_feature":10,"threshold":5.500000000000001,"default_left":true,"left_child":{"leaf_value":-1.8051190630666625},"right_child":{"split_feature":28,"threshold":77.50000000000001,"default_left":true,"left_child":{"split_feature":32,"threshold":70.83333333333334,"default_left":false,"left_child":{"split_feature":2,"threshold":1.3165485829959516,"default_left":true,"left_child":{"leaf_value":-1.7930526285961592},"right_child":{"leaf_value":-1.732504141520153}},"right_child":{"leaf_value":-1.7812812000646232}},"right_child":{"leaf_value":-1.7923087678442315}}},"right_child":{"leaf_value":-1.7134336091949471}},"right_child":{"split_feature":24,"threshold":2.6333333333333337,"default_left":true,"left_child":{"leaf_value":-1.7950956453167382},"right_child":{"split_feature":24,"threshold":2.7750000000000004,"default_left":true,"left_child":{"leaf_value":-1.7551332680584302},"right_child":{"split_feature":9,"threshold":1.788888888888889,"default_left":true,"left_child":{"split_feature":32,"threshold":29.166666666666668,"default_left":false,"left_child":{"split_feature":15,"threshold":1652.8850000000004,"default_left":true,"left_child":{"leaf_value":-1.7639641670696524},"right_child":{"leaf_value":-1.7997616114471697}},"right_child":{"leaf_value":-1.7943923843968423}},"right_child":{"split_feature":14,"threshold":1763.1050000000002,"default_left":true,"left_child":{"leaf_value":-1.7858008605083764},"right_child":{"split_feature":28,"threshold":63.333333333333336,"default_left":true,"left_child":{"leaf_value":-1.7899840703345835},"right_child":{"split_feature":14,"threshold":1803.285,"default_left":true,"left_child":{"leaf_value":-1.7136545269766092},"right_child":{"leaf_value":-1.7839797532540191}}}}}}}},"right_child":{"split_feature":32,"threshold":55.00000000000001,"default_left":false,"left_child":{"split_feature":28,"threshold":63.333333333333336,"default_left":true,"left_child":{"leaf_value":-1.8029987143268542},"right_child":{"split_feature":13,"threshold":0.5937500000000001,"default_left":true,"left_child":{"leaf_value":-1.7982519760651803},"right_child":{"leaf_value":-1.7731746560298671}}},"right_child":{"split_feature":32,"threshold":63.333333333333336,"default_left":true,"left_child":{"leaf_value":-1.7593496519123786},"right_child":{"leaf_value":-1.7809465927146173}}}},"right_child":{"split_feature":9,"threshold":2.0500000000000003,"default_left":true,"left_child":{"leaf_value":-1.797467480082871},"right_child":{"leaf_value":-1.7816185592759641}}}},"right_child":{"split_feature":0,"threshold":2015.5000000000002,"default_left":true,"left_child":{"split_feature":24,"threshold":3.4500000000000006,"default_left":true,"left_child":{"split_feature":23,"threshold":45.00000000000001,"default_left":true,"left_child":{"split_feature":22,"threshold":22.500000000000004,"default_left":false,"left_child":{"split_feature":15,"threshold":1565.9450000000004,"default_left":true,"left_child":{"split_feature":14,"threshold":1574.9950000000001,"default_left":true,"left_child":{"leaf_value":-1.7833159810477826},"right_child":{"leaf_value":-1.7400085077893515}},"right_child":{"leaf_value":-1.7892326619381012}},"right_child":{"leaf_value":-1.7948862684875755}},"right_child":{"leaf_value":-1.8018019242185968}},"right_child":{"split_feature":13,"threshold":1.7421875,"default_left":true,"left_child":{"split_feature":24,"threshold":3.9000000000000004,"default_left":true,"left_child":{"leaf_value":-1.7835647014261742},"right_child":{"leaf_value":-1.797821840665671}},"right_child":{"split_feature":8,"threshold":2.3541666666666674,"default_left":true,"left_child":{"leaf_value":-1.7887742254986785},"right_child":{"split_feature":0,"threshold":2007.5000000000002,"default_left":true,"left_child":{"split_feature":15,"threshold":1810.1850000000002,"default_left":true,"left_child":{"leaf_value":-1.770148481373506},"right_child":{"leaf_value":-1.8174204788446247}},"right_child":{"leaf_value":-1.7548639319398023}}}}},"right_child":{"split_feature":24,"threshold":3.9000000000000004,"default_left":true,"left_child":{"split_feature":14,"threshold":1397.035,"default_left":true,"left_child":{"split_feature":22,"threshold":22.500000000000004,"default_left":true,"left_child":{"leaf_value":-1.8017124835965757},"right_child":{"leaf_value":-1.7652983114313734}},"right_child":{"split_feature":11,"threshold":82.50000000000001,"default_left":true,"left_child":{"split_feature":28,"threshold":1.0000000180025095e-35,"default_left":true,"left_child":{"split_feature":6,"threshold":1.8944444444444446,"default_left":true,"left_child":{"split_feature":0,"threshold":2022.5000000000002,"default_left":true,"left_child":{"split_feature":13,"threshold":2.291294642857143,"default_left":true,"left_child":{"leaf_value":-1.7928134209485915},"right_child":{"split_feature":24,"threshold":2.6333333333333337,"default_left":false,"left_child":{"leaf_value":-1.7944418017128976},"right_child":{"split_feature":24,"threshold":3.5500000000000003,"default_left":true,"left_child":{"leaf_value":-1.7517538915754303},"right_child":{"leaf_value":-1.7930526285961592}}}},"right_child":{"split_feature":11,"threshold":10.500000000000002,"default_left":true,"left_child":{"leaf_value":-1.7578001177054188},"right_child":{"leaf_value":-1.8038090231506043}}},"right_child":{"leaf_value":-1.7498953991138027}},"right_child":{"leaf_value":-1.7905560692496567}},"right_child":{"split_feature":13,"threshold":2.1495535714285716,"default_left":true,"left_child":{"leaf_value":-1.7847478700576425},"right_child":{"leaf_value":-1.723815221922371}}}},"right_child":{"split_feature":8,"threshold":2.154761904761905,"default_left":true,"left_child":{"leaf_value":-1.7827880924577428},"right_child":{"split_feature":10,"threshold":12.500000000000002,"default_left":true,"left_child":{"leaf_value":-1.753033401240619},"right_child":{"leaf_value":-1.7897842124726027}}}}}},"right_child":{"split_feature":14,"threshold":1988.6900000000003,"default_left":true,"left_child":{"split_feature":6,"threshold":2.683333333333334,"default_left":true,"left_child":{"split_feature":31,"threshold":3.1000000000000005,"default_left":false,"left_child":{"split_feature":15,"threshold":1549.3400000000001,"default_left":true,"left_child":{"split_feature":31,"threshold":1.7750000000000001,"default_left":true,"left_child":{"leaf_value":-1.8001548306803419},"right_child":{"leaf_value":-1.7715873355286338}},"right_child":{"split_feature":25,"threshold":70.83333333333334,"default_left":true,"left_child":{"leaf_value":-1.7897500363898737},"right_child":{"split_feature":0,"threshold":2011.5000000000002,"default_left":true,"left_child":{"leaf_value":-1.7930526285961592},"right_child":{"leaf_value":-1.764711816925235}}}},"right_child":{"split_feature":31,"threshold":4.900000000000001,"default_left":true,"left_child":{"split_feature":13,"threshold":1.8359375000000002,"default_left":true,"left_child":{"leaf_value":-1.7699946858830147},"right_child":{"split_feature":24,"threshold":3.366666666666667,"default_left":true,"left_child":{"leaf_value":-1.7958817296498542},"right_child":{"split_feature":28,"threshold":90.00000000000001,"default_left":false,"left_child":{"leaf_value":-1.7606392019617396},"right_child":{"leaf_value":-1.8123152456094251}}}},"right_child":{"leaf_value":-1.7930526285961592}}},"right_child":{"split_feature":9,"threshold":1.0500000000000003,"default_left":true,"left_child":{"split_feature":31,"threshold":2.5500000000000003,"default_left":true,"left_child":{"leaf_value":-1.8095286820559657},"right_child":{"leaf_value":-1.7707233431305858}},"right_child":{"split_feature":15,"threshold":1343.6950000000004,"default_left":true,"left_child":{"leaf_value":-1.7230654828739413},"right_child":{"split_feature":24,"threshold":3.2250000000000005,"default_left":true,"left_child":{"leaf_value":-1.7546277944766122},"right_child":{"split_feature":24,"threshold":3.9000000000000004,"default_left":true,"left_child":{"leaf_value":-1.7915846353273497},"right_child":{"leaf_value":-1.7636607757016907}}}}}},"right_child":{"split_feature":13,"threshold":1.779513888888889,"default_left":true,"left_child":{"split_feature":0,"threshold":2021.5000000000002,"default_left":true,"left_child":{"split_feature":2,"threshold":2.148300438596492,"default_left":true,"left_child":{"leaf_value":-1.7123597054644804},"right_child":{"leaf_value":-1.7513997285244665}},"right_child":{"leaf_value":-1.7874948121314203}},"right_child":{"leaf_value":-1.7930526285961592}}}}},{"tree_index":1,"shrinkage":0.0270297,"tree_structure":{"split_feature":16,"threshold":278.5650000000001,"default_left":true,"left_child":{"split_feature":8,"threshold":1.6833333333333336,"default_left":true,"left_child":{"split_feature":16,"threshold":195.01000000000002,"default_left":true,"left_child":{"split_feature":8,"threshold":1.1339285714285716,"default_left":true,"left_child":{"split_feature":9,"threshold":1.8944444444444446,"default_left":true,"left_child":{"split_feature":33,"threshold":36.66666666666667,"default_left":false,"left_child":{"leaf_value":-0.012141417936935165},"right_child":{"split_feature":12,"threshold":2.65625,"default_left":true,"left_child":{"leaf_value":-0.008294160565660642},"right_child":{"leaf_value":0.00809391862269631}}},"right_child":{"split_feature":21,"threshold":55.00000000000001,"default_left":true,"left_child":{"split_feature":16,"threshold":187.60499999999993,"default_left":true,"left_child":{"leaf_value":-0.00785811321458559},"right_child":{"split_feature":33,"threshold":45.00000000000001,"default_left":true,"left_child":{"leaf_value":0.03515218565716375},"right_child":{"leaf_value":-0.009876895643479792}}},"right_child":{"leaf_value":0.004140657843527331}}},"right_child":{"split_feature":9,"threshold":1.585714285714286,"default_left":true,"left_child":{"split_feature":16,"threshold":-112.98,"default_left":true,"left_child":{"split_feature":4,"threshold":1.0500000000000003,"default_left":true,"left_child":{"leaf_value":0.010105487488728233},"right_child":{"leaf_value":-0.006891166507124135}},"right_child":{"leaf_value":-0.005869382719580515}},"right_child":{"split_feature":32,"threshold":55.00000000000001,"default_left":true,"left_child":{"leaf_value":-0.0026245408491998193},"right_child":{"leaf_value":0.004353662478021309}}}},"right_child":{"split_feature":24,"threshold":3.1000000000000005,"default_left":false,"left_child":{"split_feature":4,"threshold":1.1833333333333336,"default_left":true,"left_child":{"leaf_value":-0.010390540136478634},"right_child":{"split_feature":16,"threshold":206.69499999999996,"default_left":true,"left_child":{"split_feature":9,"threshold":1.4722222222222225,"default_left":true,"left_child":{"leaf_value":-0.0009661790445757512},"right_child":{"split_feature":11,"threshold":5.500000000000001,"default_left":true,"left_child":{"leaf_value":-0.0034800492109974632},"right_child":{"split_feature":27,"threshold":4.500000000000001,"default_left":true,"left_child":{"split_feature":24,"threshold":1.4500000000000002,"default_left":true,"left_child":{"leaf_value":0},"right_child":{"leaf_value":0.045496197003734994}},"right_child":{"leaf_value":0.005075167963784929}}}},"right_child":{"split_feature":8,"threshold":1.0500000000000003,"default_left":true,"left_child":{"leaf_value":-0.006616659607527678},"right_child":{"split_feature":2,"threshold":1.7294197031039136,"default_left":true,"left_child":{"split_feature":12,"threshold":1.4609375000000002,"default_left":true,"left_child":{"split_feature":25,"threshold":70.83333333333334,"default_left":false,"left_child":{"leaf_value":0},"right_child":{"leaf_value":0.050904926342400444}},"right_child":{"leaf_value":-0.008791584345654375}},"right_child":{"leaf_value":0.007457392501220175}}}}},"right_child":{"split_feature":22,"threshold":36.66666666666667,"default_left":false,"left_child":{"split_feature":22,"threshold":1.0000000180025095e-35,"default_left":true,"left_child":{"split_feature":12,"threshold":1.9765625000000002,"default_left":true,"left_child":{"leaf_value":0.010611632084523662},"right_child":{"split_feature":17,"threshold":1.5000000000000002,"default_left":true,"left_child":{"leaf_value":-0.013253922877347587},"right_child":{"leaf_value":0.018384246877560524}}},"right_child":{"leaf_value":0.016595580845663312}},"right_child":{"split_feature":16,"threshold":204.61000000000004,"default_left":true,"left_child":{"leaf_value":-0.01727595924073735},"right_child":{"leaf_value":0.0031918309103883312}}}}},"right_child":{"split_feature":24,"threshold":3.4500000000000006,"default_left":true,"left_child":{"split_feature":16,"threshold":202.50500000000002,"default_left":true,"left_child":{"split_feature":16,"threshold":-151.66500000000005,"default_left":true,"left_child":{"split_feature":24,"threshold":2.4500000000000006,"default_left":false,"left_child":{"split_feature":22,"threshold":55.00000000000001,"default_left":true,"left_child":{"leaf_value":0.01426150640749278},"right_child":{"leaf_value":-0.006240274823379124}},"right_child":{"split_feature":21,"threshold":36.66666666666667,"default_left":true,"left_child":{"split_feature":25,"threshold":63.333333333333336,"default_left":true,"left_child":{"split_feature":21,"threshold":1.0000000180025095e-35,"default_left":false,"left_child":{"leaf_value":0.02046591162452506},"right_child":{"leaf_value":0.004378920250673694}},"right_child":{"leaf_value":-0.005270208199983576}},"right_child":{"leaf_value":0.043187655677702254}}},"right_child":{"split_feature":5,"threshold":1.9500000000000002,"default_left":true,"left_child":{"split_feature":27,"threshold":4.500000000000001,"default_left":true,"left_child":{"split_feature":8,"threshold":2.2678571428571432,"default_left":true,"left_child":{"split_feature":16,"threshold":-51.79499999999995,"default_left":true,"left_child":{"split_feature":25,"threshold":63.333333333333336,"default_left":true,"left_child":{"leaf_value":0.011344377926755913},"right_child":{"leaf_value":-0.018302876643860995}},"right_child":{"leaf_value":-0.006174081543500033}},"right_child":{"split_feature":9,"threshold":1.4722222222222225,"default_left":true,"left_child":{"split_feature":2,"threshold":1.0626166480029864,"default_left":true,"left_child":{"leaf_value":0.026536553696405337},"right_child":{"leaf_value":-0.022675348545463516}},"right_child":{"split_feature":9,"threshold":1.8452380952380956,"default_left":true,"left_child":{"leaf_value":0.05678419297848907},"right_child":{"leaf_value":-0.0009586270623709953}}}},"right_child":{"split_feature":24,"threshold":2.1000000000000005,"default_left":true,"left_child":{"split_feature":3,"threshold":1.8263432017543864,"default_left":true,"left_child":{"leaf_value":-0.008219406482146028},"right_child":{"leaf_value":0.011551553709996797}},"right_child":{"split_feature":3,"threshold":1.1147098515519571,"default_left":true,"left_child":{"leaf_value":0.03476151435073686},"right_child":{"leaf_value":0.007523799277918475}}}},"right_child":{"leaf_value":-0.0036525251766074897}}},"right_child":{"split_feature":33,"threshold":45.00000000000001,"default_left":true,"left_child":{"split_feature":12,"threshold":2.1927083333333335,"default_left":true,"left_child":{"split_feature":9,"threshold":1.3166666666666669,"default_left":true,"left_child":{"split_feature":33,"threshold":36.66666666666667,"default_left":true,"left_child":{"leaf_value":0.06589916753251487},"right_child":{"leaf_value":0.0018077238684338776}},"right_child":{"leaf_value":0}},"right_child":{"leaf_value":-0.005957833537756149}},"right_child":{"leaf_value":0.0246615089990477}}},"right_child":{"split_feature":8,"threshold":2.683333333333334,"default_left":true,"left_child":{"split_feature":12,"threshold":1.6336805555555556,"default_left":true,"left_child":{"split_feature":2,"threshold":1.5708020050125313,"default_left":true,"left_child":{"leaf_value":0.004946176996554814},"right_child":{"leaf_value":-0.015821757819986446}},"right_child":{"split_feature":9,"threshold":1.0500000000000003,"default_left":true,"left_child":{"leaf_value":0.00458250249476237},"right_child":{"leaf_value":0.019023016648754495}}},"right_child":{"split_feature":3,"threshold":1.8540100250626568,"default_left":true,"left_child":{"leaf_value":-0.018500006398273684},"right_child":{"split_feature":24,"threshold":3.9000000000000004,"default_left":true,"left_child":{"leaf_value":0.013003187031782146},"right_child":{"leaf_value":0.03690575860555078}}}}}},"right_child":{"split_feature":16,"threshold":394.5299999999999,"default_left":true,"left_child":{"split_feature":8,"threshold":1.3875000000000002,"default_left":true,"left_child":{"leaf_value":0.008913601469980933},"right_child":{"split_feature":16,"threshold":348.085,"default_left":true,"left_child":{"split_feature":32,"threshold":45.00000000000001,"default_left":true,"left_child":{"leaf_value":0.03411524564926162},"right_child":{"leaf_value":0.01611682894550572}},"right_child":{"split_feature":3,"threshold":1.0453673245614037,"default_left":true,"left_child":{"leaf_value":0.039831583302211995},"right_child":{"leaf_value":0.0021594431247679642}}}},"right_child":{"split_feature":33,"threshold":55.00000000000001,"default_left":false,"left_child":{"split_feature":3,"threshold":1.1973684210526316,"default_left":true,"left_child":{"split_feature":9,"threshold":2.4722222222222228,"default_left":true,"left_child":{"leaf_value":0.004810319136073799},"right_child":{"leaf_value":0.049093433901624614}},"right_child":{"split_feature":12,"threshold":2.234375,"default_left":true,"left_child":{"leaf_value":-0.004338928302954271},"right_child":{"leaf_value":0.04081098291911915}}},"right_child":{"split_feature":11,"threshold":22.500000000000004,"default_left":true,"left_child":{"split_feature":2,"threshold":2.8070175438596494,"default_left":true,"left_child":{"split_feature":27,"threshold":4.500000000000001,"default_left":true,"left_child":{"split_feature":21,"threshold":90.00000000000001,"default_left":true,"left_child":{"leaf_value":0.0322284549124688},"right_child":{"leaf_value":0.011707656698046373}},"right_child":{"split_feature":2,"threshold":2.3377192982456143,"default_left":true,"left_child":{"split_feature":8,"threshold":0.8944444444444445,"default_left":true,"left_child":{"leaf_value":0.009285162438285623},"right_child":{"split_feature":24,"threshold":4.366666666666668,"default_left":true,"left_child":{"leaf_value":0.02859703101770794},"right_child":{"leaf_value":0.0685191585101339}}},"right_child":{"split_feature":21,"threshold":55.00000000000001,"default_left":true,"left_child":{"leaf_value":0},"right_child":{"leaf_value":0.053144959620107894}}}},"right_child":{"leaf_value":0.010076041498803737}},"right_child":{"leaf_value":0.06831729945431134}}}}}},{"tree_index":2,"shrinkage":0.0270297,"tree_structure":{"split_feature":14,"threshold":1813.3150000000003,"default_left":true,"left_child":{"split_feature":1,"threshold":69.50000000000001,"default_left":true,"left_child":{"split_feature":15,"threshold":1784.9850000000004,"default_left":true,"left_child":{"split_feature":9,"threshold":1.585714285714286,"default_left":true,"left_child":{"split_feature":14,"threshold":1562.3500000000001,"default_left":true,"left_child":{"split_feature":13,"threshold":2.3046875,"default_left":true,"left_child":{"leaf_value":-0.005433520038986629},"right_child":{"leaf_value":0.030662674019202234}},"right_child":{"split_feature":14,"threshold":1710.3550000000002,"default_left":true,"left_child":{"leaf_value":-0.012410616241353914},"right_child":{"split_feature":15,"threshold":1542.2700000000002,"default_left":true,"left_child":{"leaf_value":0.027520324425911683},"right_child":{"leaf_value":-0.006764611739592518}}}},"right_child":{"leaf_value":-0.004502343168149672}},"right_child":{"split_feature":7,"threshold":1.788888888888889,"default_left":true,"left_child":{"leaf_value":-0.002530439741139558},"right_child":{"split_feature":8,"threshold":1.2928571428571431,"default_left":true,"left_child":{"leaf_value":-0.020854487259166835},"right_child":{"split_feature":30,"threshold":55.00000000000001,"default_left":false,"left_child":{"split_feature":13,"threshold":0.9487847222222223,"default_left":true,"left_child":{"leaf_value":0.05461571933850514},"right_child":{"split_feature":24,"threshold":3.7083333333333335,"default_left":true,"left_child":{"leaf_value":0.017838677744097097},"right_child":{"leaf_value":-0.00873729107682012}}},"right_child":{"leaf_value":-0.005053565367887242}}}}},"right_child":{"split_feature":1,"threshold":91.00000000000001,"default_left":true,"left_child":{"split_feature":14,"threshold":1741.9650000000004,"default_left":true,"left_child":{"split_feature":1,"threshold":83.00000000000001,"default_left":true,"left_child":{"split_feature":8,"threshold":1.3166666666666669,"default_left":true,"left_child":{"leaf_value":-0.0016024243667569582},"right_child":{"split_feature":30,"threshold":1.0000000180025095e-35,"default_left":true,"left_child":{"split_feature":15,"threshold":1920.3300000000002,"default_left":true,"left_child":{"leaf_value":-0.0002617471794118829},"right_child":{"split_feature":24,"threshold":3.5500000000000003,"default_left":false,"left_child":{"leaf_value":-0.0003033291101099958},"right_child":{"split_feature":28,"threshold":1.0000000180025095e-35,"default_left":false,"left_child":{"leaf_value":0},"right_child":{"leaf_value":0.0698269899719479}}}},"right_child":{"leaf_value":0.010295737353953695}}},"right_child":{"split_feature":14,"threshold":1540.3550000000002,"default_left":true,"left_child":{"split_feature":15,"threshold":1682.0450000000003,"default_left":true,"left_child":{"split_feature":9,"threshold":0.6833333333333335,"default_left":true,"left_child":{"leaf_value":-0.017295111809447063},"right_child":{"leaf_value":0.006347034937819582}},"right_child":{"split_feature":30,"threshold":36.66666666666667,"default_left":false,"left_child":{"split_feature":32,"threshold":29.166666666666668,"default_left":true,"left_child":{"leaf_value":0.003725950568800848},"right_child":{"split_feature":2,"threshold":1.5907346491228072,"default_left":true,"left_child":{"split_feature":13,"threshold":2.4878472222222223,"default_left":true,"left_child":{"split_feature":13,"threshold":1.6770833333333333,"default_left":true,"left_child":{"leaf_value":0.014391153587126549},"right_child":{"leaf_value":0.06726724947427079}},"right_child":{"leaf_value":0.01399338828128287}},"right_child":{"leaf_value":0}}},"right_child":{"leaf_value":0.003159885800237079}}},"right_child":{"split_feature":9,"threshold":1.4365079365079367,"default_left":true,"left_child":{"split_feature":2,"threshold":2.4336622807017547,"default_left":true,"left_child":{"split_feature":2,"threshold":2.346491228070176,"default_left":true,"left_child":{"split_feature":12,"threshold":2.590277777777778,"default_left":true,"left_child":{"split_feature":15,"threshold":1387.575,"default_left":true,"left_child":{"leaf_value":0.05275928737129515},"right_child":{"leaf_value":0.01348798974942931}},"right_child":{"leaf_value":-0.009713967027002118}},"right_child":{"leaf_value":0.05115742047970628}},"right_child":{"leaf_value":-0.018119261579426508}},"right_child":{"split_feature":14,"threshold":1689.4850000000004,"default_left":true,"left_child":{"split_feature":11,"threshold":6.500000000000001,"default_left":true,"left_child":{"split_feature":2,"threshold":1.685855263157895,"default_left":true,"left_child":{"leaf_value":-0.011808045569141177},"right_child":{"split_feature":12,"threshold":1.9765625000000002,"default_left":true,"left_child":{"leaf_value":0.05211721916983887},"right_child":{"leaf_value":0.004739719528592952}}},"right_child":{"split_feature":24,"threshold":1.5500000000000003,"default_left":false,"left_child":{"leaf_value":-0.012858582229417811},"right_child":{"leaf_value":0.029965065518210404}}},"right_child":{"leaf_value":0.04303936787319773}}}}},"right_child":{"split_feature":15,"threshold":1547.0800000000002,"default_left":true,"left_child":{"split_feature":13,"threshold":1.6336805555555556,"default_left":true,"left_child":{"leaf_value":0.04730642340278135},"right_child":{"leaf_value":0}},"right_child":{"split_feature":24,"threshold":3.1000000000000005,"default_left":true,"left_child":{"leaf_value":0.008383496664676818},"right_child":{"split_feature":24,"threshold":4.708333333333335,"default_left":true,"left_child":{"leaf_value":0.026745034583533396},"right_child":{"leaf_value":-0.013994227280172807}}}}},"right_child":{"split_feature":15,"threshold":1989.6450000000002,"default_left":true,"left_child":{"split_feature":14,"threshold":1725.9950000000001,"default_left":true,"left_child":{"split_feature":8,"threshold":1.8660714285714288,"default_left":true,"left_child":{"split_feature":24,"threshold":2.6333333333333337,"default_left":true,"left_child":{"split_feature":2,"threshold":1.5194102276969021,"default_left":true,"left_child":{"leaf_value":-0.010639553492289852},"right_child":{"leaf_value":-0.001989643818588666}},"right_child":{"split_feature":3,"threshold":2.399122807017544,"default_left":true,"left_child":{"leaf_value":-0.005022803479145324},"right_child":{"leaf_value":0.018546688626126535}}},"right_child":{"split_feature":7,"threshold":1.3166666666666669,"default_left":true,"left_child":{"split_feature":28,"threshold":77.50000000000001,"default_left":true,"left_child":{"leaf_value":-0.0067007295222173465},"right_child":{"split_feature":13,"threshold":1.7421875,"default_left":true,"left_child":{"leaf_value":-0.001958499904409407},"right_child":{"leaf_value":0.04290031650377027}}},"right_child":{"split_feature":12,"threshold":0.7578125000000001,"default_left":true,"left_child":{"leaf_value":-0.0059294929837681734},"right_child":{"split_feature":12,"threshold":0.8897569444444445,"default_left":true,"left_child":{"split_feature":11,"threshold":7.500000000000001,"default_left":true,"left_child":{"leaf_value":-0.0025171358255114146},"right_child":{"leaf_value":0.07549196805764744}},"right_child":{"leaf_value":0.006537196956375605}}}}},"right_child":{"split_feature":15,"threshold":1523.8750000000002,"default_left":true,"left_child":{"split_feature":28,"threshold":90.00000000000001,"default_left":false,"left_child":{"leaf_value":0.006378576246235968},"right_child":{"split_feature":24,"threshold":2.5500000000000003,"default_left":false,"left_child":{"leaf_value":0.0070387395585868205},"right_child":{"leaf_value":0.042346177639674576}}},"right_child":{"split_feature":9,"threshold":1.3875000000000002,"default_left":true,"left_child":{"leaf_value":-0.005017783583228403},"right_child":{"leaf_value":0.002402032996670648}}}},"right_child":{"leaf_value":0.026788759371960368}}}},"right_child":{"split_feature":14,"threshold":1988.6900000000003,"default_left":true,"left_child":{"split_feature":15,"threshold":1680.8550000000002,"default_left":true,"left_child":{"split_feature":15,"threshold":1672.4150000000002,"default_left":true,"left_child":{"split_feature":8,"threshold":0.5634920634920636,"default_left":true,"left_child":{"split_feature":9,"threshold":1.9500000000000002,"default_left":true,"left_child":{"split_feature":2,"threshold":2.0575657894736845,"default_left":true,"left_child":{"leaf_value":0.013567786065605495},"right_child":{"split_feature":32,"threshold":63.333333333333336,"default_left":false,"left_child":{"leaf_value":0.08521039781404122},"right_child":{"leaf_value":0.008468809680424108}}},"right_child":{"leaf_value":-0.0029168194511196726}},"right_child":{"split_feature":8,"threshold":1.3875000000000002,"default_left":true,"left_child":{"split_feature":15,"threshold":1629.6450000000002,"default_left":true,"left_child":{"split_feature":24,"threshold":4.550000000000001,"default_left":false,"left_child":{"split_feature":25,"threshold":29.166666666666668,"default_left":true,"left_child":{"leaf_value":0.02232796751091087},"right_child":{"split_feature":2,"threshold":2.4336622807017547,"default_left":true,"left_child":{"leaf_value":0.0005164714993669179},"right_child":{"split_feature":24,"threshold":2.1000000000000005,"default_left":true,"left_child":{"leaf_value":-0.0202296175779554},"right_child":{"leaf_value":0.02807317509287705}}}},"right_child":{"leaf_value":0.031988263479719996}},"right_child":{"leaf_value":-4.647316434223328e-05}},"right_child":{"leaf_value":0.02051485148912253}}},"right_child":{"split_feature":30,"threshold":22.500000000000004,"default_left":false,"left_child":{"leaf_value":0.013720928860822964},"right_child":{"split_feature":25,"threshold":77.50000000000001,"default_left":false,"left_child":{"leaf_value":0.0717273628191731},"right_child":{"leaf_value":0.0027910469741593384}}}},"right_child":{"leaf_value":0.005873619044269122}},"right_child":{"split_feature":13,"threshold":1.7421875,"default_left":true,"left_child":{"split_feature":2,"threshold":2.1359649122807025,"default_left":true,"left_child":{"leaf_value":0.06907690118629636},"right_child":{"leaf_value":0.03471047452086548}},"right_child":{"leaf_value":0.004077807588864192}}}}},{"tree_index":3,"shrinkage":0.0270297,"tree_structure":{"split_feature":16,"threshold":278.5650000000001,"default_left":true,"left_child":{"split_feature":8,"threshold":1.6833333333333336,"default_left":true,"left_child":{"split_feature":6,"threshold":1.788888888888889,"default_left":true,"left_child":{"split_feature":7,"threshold":1.4142857142857144,"default_left":true,"left_child":{"split_feature":6,"threshold":1.0500000000000003,"default_left":true,"left_child":{"leaf_value":-0.011099549796125825},"right_child":{"split_feature":24,"threshold":3.2250000000000005,"default_left":true,"left_child":{"split_feature":14,"threshold":1515.7900000000002,"default_left":true,"left_child":{"split_feature":16,"threshold":180.52000000000012,"default_left":true,"left_child":{"leaf_value":-0.005727398215556801},"right_child":{"split_feature":30,"threshold":63.333333333333336,"default_left":false,"left_child":{"split_feature":9,"threshold":2.0500000000000003,"default_left":true,"left_child":{"leaf_value":-0.008411220689097172},"right_child":{"leaf_value":0.04842355409278371}},"right_child":{"leaf_value":0.0542461050728123}}},"right_child":{"split_feature":14,"threshold":1728.9150000000002,"default_left":true,"left_child":{"leaf_value":-0.009662901115363116},"right_child":{"leaf_value":-0.003740292264713147}}},"right_child":{"split_feature":0,"threshold":2016.5000000000002,"default_left":true,"left_child":{"split_feature":16,"threshold":224.78,"default_left":true,"left_child":{"leaf_value":0},"right_child":{"leaf_value":0.01892594058905974}},"right_child":{"leaf_value":-0.008255744256159868}}}},"right_child":{"split_feature":8,"threshold":1.1547619047619049,"default_left":true,"left_child":{"split_feature":13,"threshold":0.6614583333333334,"default_left":true,"left_child":{"split_feature":6,"threshold":0.8819444444444445,"default_left":true,"left_child":{"leaf_value":-0.009647182928816906},"right_child":{"split_feature":0,"threshold":2003.5000000000002,"default_left":true,"left_child":{"leaf_value":0.009394812010757756},"right_child":{"leaf_value":-0.0029301522588581733}}},"right_child":{"split_feature":6,"threshold":1.6833333333333336,"default_left":true,"left_child":{"leaf_value":-0.010058450219811197},"right_child":{"leaf_value":0.009658440127711448}}},"right_child":{"split_feature":16,"threshold":-112.98,"default_left":true,"left_child":{"split_feature":9,"threshold":0.8944444444444445,"default_left":true,"left_child":{"leaf_value":-0.0026444388338912397},"right_child":{"leaf_value":0.019057060148219614}},"right_child":{"leaf_value":-0.0011290371080589032}}}},"right_child":{"split_feature":6,"threshold":2.0500000000000003,"default_left":true,"left_child":{"split_feature":21,"threshold":45.00000000000001,"default_left":true,"left_child":{"split_feature":9,"threshold":1.9500000000000002,"default_left":true,"left_child":{"leaf_value":-0.004896654710784835},"right_child":{"leaf_value":0.015144035540601293}},"right_child":{"split_feature":6,"threshold":1.9500000000000002,"default_left":true,"left_child":{"leaf_value":0.012293546855364558},"right_child":{"leaf_value":-0.0051328013452992104}}},"right_child":{"split_feature":12,"threshold":1.9053819444444446,"default_left":true,"left_child":{"split_feature":3,"threshold":1.0911569464201045,"default_left":true,"left_child":{"leaf_value":0.0036703006295984923},"right_child":{"split_feature":7,"threshold":1.0500000000000003,"default_left":true,"left_child":{"leaf_value":-0.004963219280678804},"right_child":{"split_feature":30,"threshold":1.0000000180025095e-35,"default_left":true,"left_child":{"leaf_value":0.016628115916191268},"right_child":{"leaf_value":0.05553369781128269}}}},"right_child":{"leaf_value":0.007815626599573666}}}},"right_child":{"split_feature":14,"threshold":1377.015,"default_left":true,"left_child":{"split_feature":30,"threshold":63.333333333333336,"default_left":false,"left_child":{"split_feature":13,"threshold":0.8984375000000001,"default_left":true,"left_child":{"leaf_value":0},"right_child":{"split_feature":6,"threshold":1.585714285714286,"default_left":true,"left_child":{"leaf_value":0.02570706681307831},"right_child":{"leaf_value":0.0710169815139435}}},"right_child":{"leaf_value":-0.0017984268221873717}},"right_child":{"split_feature":0,"threshold":2019.5000000000002,"default_left":true,"left_child":{"split_feature":8,"threshold":2.4142857142857146,"default_left":true,"left_child":{"split_feature":16,"threshold":200.47500000000005,"default_left":true,"left_child":{"split_feature":1,"threshold":69.50000000000001,"default_left":true,"left_child":{"split_feature":16,"threshold":-139.9399999999998,"default_left":true,"left_child":{"leaf_value":0.0034308278937692643},"right_child":{"leaf_value":-0.0083932091773474}},"right_child":{"split_feature":1,"threshold":91.00000000000001,"default_left":true,"left_child":{"leaf_value":0.005494649256803746},"right_child":{"leaf_value":-0.0032717413841751833}}},"right_child":{"split_feature":13,"threshold":2.086805555555556,"default_left":true,"left_child":{"split_feature":14,"threshold":1750.8600000000001,"default_left":true,"left_child":{"split_feature":14,"threshold":1521.6250000000002,"default_left":true,"left_child":{"leaf_value":-0.010388756800693417},"right_child":{"split_feature":24,"threshold":1.9000000000000001,"default_left":true,"left_child":{"leaf_value":-0.0021113714835903374},"right_child":{"leaf_value":0.04823434221684432}}},"right_child":{"split_feature":13,"threshold":1.3582589285714286,"default_left":true,"left_child":{"leaf_value":-0.0052265832595466575},"right_child":{"split_feature":12,"threshold":2.4878472222222223,"default_left":true,"left_child":{"leaf_value":0.0017511047058058004},"right_child":{"split_feature":13,"threshold":1.6015625000000002,"default_left":true,"left_child":{"leaf_value":0.0681284858842934},"right_child":{"leaf_value":0.009700334382346278}}}}},"right_child":{"leaf_value":-0.012497544989156813}}},"right_child":{"split_feature":24,"threshold":3.9000000000000004,"default_left":true,"left_child":{"split_feature":7,"threshold":1.6833333333333336,"default_left":true,"left_child":{"leaf_value":0.001328789572309473},"right_child":{"split_feature":1,"threshold":137.50000000000003,"default_left":true,"left_child":{"leaf_value":0.009689800022647016},"right_child":{"leaf_value":0.0427251848995252}}},"right_child":{"split_feature":0,"threshold":2007.5000000000002,"default_left":true,"left_child":{"leaf_value":-0.006963392499187355},"right_child":{"split_feature":13,"threshold":1.5078125000000002,"default_left":true,"left_child":{"leaf_value":-0.005911300949104582},"right_child":{"split_feature":3,"threshold":2.6096491228070176,"default_left":true,"left_child":{"leaf_value":0.054606832693549184},"right_child":{"leaf_value":0.013356690750745042}}}}}},"right_child":{"split_feature":13,"threshold":0.9487847222222223,"default_left":true,"left_child":{"split_feature":28,"threshold":22.500000000000004,"default_left":true,"left_child":{"leaf_value":0.03874822899858681},"right_child":{"leaf_value":0.009196851482494847}},"right_child":{"split_feature":3,"threshold":1.2555713608345191,"default_left":true,"left_child":{"split_feature":1,"threshold":69.50000000000001,"default_left":true,"left_child":{"leaf_value":0.06557477907894735},"right_child":{"leaf_value":0.005278015421745411}},"right_child":{"split_feature":16,"threshold":-82.67500000000005,"default_left":true,"left_child":{"split_feature":3,"threshold":1.8622569938359412,"default_left":true,"left_child":{"leaf_value":-0.0055105213819814725},"right_child":{"split_feature":6,"threshold":0.9500000000000001,"default_left":true,"left_child":{"leaf_value":0.0034247129300648844},"right_child":{"leaf_value":0.02270891522623323}}},"right_child":{"split_feature":14,"threshold":1570.0600000000002,"default_left":true,"left_child":{"leaf_value":-0.01124158051201491},"right_child":{"leaf_value":0.00459969901887305}}}}}}}},"right_child":{"split_feature":6,"threshold":2.4142857142857146,"default_left":true,"left_child":{"split_feature":8,"threshold":1.3541666666666667,"default_left":true,"left_child":{"split_feature":16,"threshold":375.8150000000001,"default_left":true,"left_child":{"split_feature":7,"threshold":1.585714285714286,"default_left":true,"left_child":{"leaf_value":0.003960380040682566},"right_child":{"leaf_value":0.022887043027057432}},"right_child":{"split_feature":33,"threshold":55.00000000000001,"default_left":false,"left_child":{"split_feature":0,"threshold":2019.5000000000002,"default_left":true,"left_child":{"leaf_value":0},"right_child":{"leaf_value":0.02953244621162833}},"right_child":{"leaf_value":0.020651415322011875}}},"right_child":{"split_feature":3,"threshold":1.4859089212392684,"default_left":true,"left_child":{"split_feature":3,"threshold":1.4128711201079625,"default_left":true,"left_child":{"split_feature":33,"threshold":63.333333333333336,"default_left":false,"left_child":{"split_feature":32,"threshold":45.00000000000001,"default_left":true,"left_child":{"leaf_value":0.019818859425903102},"right_child":{"leaf_value":-0.004698735721024386}},"right_child":{"leaf_value":0.033615919216938316}},"right_child":{"split_feature":14,"threshold":1705.1350000000004,"default_left":true,"left_child":{"leaf_value":0},"right_child":{"split_feature":1,"threshold":69.50000000000001,"default_left":true,"left_child":{"leaf_value":0.00769548290151632},"right_child":{"leaf_value":0.0805999079628582}}}},"right_child":{"leaf_value":0.009999073270305118}}},"right_child":{"split_feature":1,"threshold":137.50000000000003,"default_left":true,"left_child":{"split_feature":16,"threshold":513.9250000000001,"default_left":true,"left_child":{"leaf_value":0.02276257254003142},"right_child":{"split_feature":1,"threshold":91.00000000000001,"default_left":true,"left_child":{"leaf_value":0.07566806245281801},"right_child":{"leaf_value":0.0028164501996858987}}},"right_child":{"split_feature":24,"threshold":4.775000000000001,"default_left":true,"left_child":{"split_feature":0,"threshold":2016.5000000000002,"default_left":true,"left_child":{"leaf_value":0.06030868911127298},"right_child":{"leaf_value":0.01651286800837468}},"right_child":{"leaf_value":0.000405512218852557}}}}}},{"tree_index":4,"shrinkage":0.0270297,"tree_structure":{"split_feature":4,"threshold":1.788888888888889,"default_left":true,"left_child":{"split_feature":8,"threshold":1.7321428571428574,"default_left":true,"left_child":{"split_feature":24,"threshold":2.6333333333333337,"default_left":true,"left_child":{"split_feature":15,"threshold":1392.8650000000002,"default_left":true,"left_child":{"split_feature":2,"threshold":1.0723217618514373,"default_left":true,"left_child":{"leaf_value":-0.0017885478381447096},"right_child":{"split_feature":11,"threshold":12.500000000000002,"default_left":true,"left_child":{"split_feature":21,"threshold":1.0000000180025095e-35,"default_left":false,"left_child":{"leaf_value":0.029495857401757496},"right_child":{"split_feature":13,"threshold":1.279513888888889,"default_left":true,"left_child":{"leaf_value":-0.002522004102594702},"right_child":{"leaf_value":0.04016241180570314}}},"right_child":{"split_feature":24,"threshold":2.2916666666666674,"default_left":true,"left_child":{"leaf_value":0.047718417397338876},"right_child":{"leaf_value":0}}}},"right_child":{"split_feature":9,"threshold":1.585714285714286,"default_left":true,"left_child":{"split_feature":8,"threshold":1.1339285714285716,"default_left":true,"left_child":{"leaf_value":-0.010416555202819132},"right_child":{"leaf_value":-0.005775753816255905}},"right_child":{"split_feature":26,"threshold":29.166666666666668,"default_left":true,"left_child":{"leaf_value":-0.00639627012144863},"right_child":{"split_feature":3,"threshold":0.8289473684210528,"default_left":true,"left_child":{"split_feature":13,"threshold":1.0000000180025095e-35,"default_left":true,"left_child":{"split_feature":9,"threshold":2.0500000000000003,"default_left":true,"left_child":{"leaf_value":0.025919895670749038},"right_child":{"leaf_value":-0.007511654234710812}},"right_child":{"split_feature":15,"threshold":1539.805,"default_left":true,"left_child":{"leaf_value":0.0014106123930291334},"right_child":{"leaf_value":-0.014765712912206639}}},"right_child":{"leaf_value":0.002848700039092093}}}}},"right_child":{"split_feature":1,"threshold":69.50000000000001,"default_left":true,"left_child":{"leaf_value":-0.005830436087436302},"right_child":{"split_feature":1,"threshold":91.00000000000001,"default_left":true,"left_child":{"split_feature":2,"threshold":1.0911569464201045,"default_left":true,"left_child":{"leaf_value":0.0006510198890735022},"right_child":{"split_feature":15,"threshold":1509.7050000000002,"default_left":true,"left_child":{"split_feature":11,"threshold":6.500000000000001,"default_left":true,"left_child":{"split_feature":13,"threshold":0.17187499999999997,"default_left":true,"left_child":{"leaf_value":0.04616996755803427},"right_child":{"leaf_value":-0.001756931956481935}},"right_child":{"split_feature":15,"threshold":1297.5800000000002,"default_left":true,"left_child":{"leaf_value":-0.00789338268063022},"right_child":{"split_feature":28,"threshold":22.500000000000004,"default_left":true,"left_child":{"split_feature":3,"threshold":0.974937343358396,"default_left":true,"left_child":{"leaf_value":0.02521416086391549},"right_child":{"leaf_value":-0.007784986193676049}},"right_child":{"split_feature":9,"threshold":2.5634920634920637,"default_left":true,"left_child":{"split_feature":32,"threshold":45.00000000000001,"default_left":true,"left_child":{"leaf_value":0.04592515907142993},"right_child":{"split_feature":15,"threshold":1343.6950000000004,"default_left":true,"left_child":{"leaf_value":-0.010223982153937588},"right_child":{"split_feature":3,"threshold":0.6698717948717949,"default_left":true,"left_child":{"leaf_value":0.061052577086183495},"right_child":{"split_feature":24,"threshold":3.9000000000000004,"default_left":true,"left_child":{"split_feature":3,"threshold":0.9664986935423666,"default_left":true,"left_child":{"leaf_value":0},"right_child":{"leaf_value":0.03886027148806975}},"right_child":{"leaf_value":-0.004018160307726781}}}}},"right_child":{"leaf_value":-0.003973973460751481}}}}},"right_child":{"split_feature":32,"threshold":1.0000000180025095e-35,"default_left":true,"left_child":{"leaf_value":-0.007042214684311967},"right_child":{"leaf_value":0.007748442831436731}}}},"right_child":{"split_feature":13,"threshold":0.36607142857142855,"default_left":true,"left_child":{"leaf_value":0.004251584697313931},"right_child":{"split_feature":8,"threshold":1.2928571428571431,"default_left":true,"left_child":{"leaf_value":-0.006890352898705022},"right_child":{"split_feature":21,"threshold":55.00000000000001,"default_left":true,"left_child":{"split_feature":9,"threshold":1.585714285714286,"default_left":true,"left_child":{"leaf_value":-0.004964671803991962},"right_child":{"split_feature":2,"threshold":1.633097165991903,"default_left":true,"left_child":{"leaf_value":0.003208006927111905},"right_child":{"leaf_value":0.05296018341952904}}},"right_child":{"split_feature":15,"threshold":1727.4050000000004,"default_left":true,"left_child":{"leaf_value":0.017746157422216097},"right_child":{"leaf_value":-0.004019104386274641}}}}}}}},"right_child":{"split_feature":24,"threshold":2.5500000000000003,"default_left":false,"left_child":{"split_feature":9,"threshold":0.7888888888888891,"default_left":true,"left_child":{"split_feature":13,"threshold":2.8437500000000004,"default_left":true,"left_child":{"leaf_value":-0.012279160982912297},"right_child":{"split_feature":28,"threshold":29.166666666666668,"default_left":false,"left_child":{"leaf_value":-0.0004747910496686782},"right_child":{"leaf_value":0.04682978033543835}}},"right_child":{"leaf_value":0.0009216885327396555}},"right_child":{"split_feature":8,"threshold":2.2678571428571432,"default_left":true,"left_child":{"split_feature":15,"threshold":1406.2550000000003,"default_left":true,"left_child":{"split_feature":23,"threshold":45.00000000000001,"default_left":false,"left_child":{"leaf_value":0.050297627963485844},"right_child":{"leaf_value":-0.005141620479854296}},"right_child":{"leaf_value":0.002899016592479732}},"right_child":{"split_feature":24,"threshold":4.450000000000001,"default_left":true,"left_child":{"split_feature":2,"threshold":0.2645576707726764,"default_left":true,"left_child":{"leaf_value":0.04656513915261916},"right_child":{"leaf_value":0.009220364999628337}},"right_child":{"split_feature":32,"threshold":77.50000000000001,"default_left":false,"left_child":{"leaf_value":0.045887347702947855},"right_child":{"leaf_value":0.01356028701584805}}}}}},"right_child":{"split_feature":9,"threshold":1.4142857142857144,"default_left":true,"left_child":{"split_feature":24,"threshold":4.1000000000000005,"default_left":true,"left_child":{"split_feature":22,"threshold":45.00000000000001,"default_left":true,"left_child":{"split_feature":1,"threshold":69.50000000000001,"default_left":true,"left_child":{"split_feature":2,"threshold":2.4220647773279356,"default_left":true,"left_child":{"leaf_value":-0.0023367169924801367},"right_child":{"split_feature":32,"threshold":45.00000000000001,"default_left":true,"left_child":{"leaf_value":0.024252473946818114},"right_child":{"leaf_value":9.758430490944729e-05}}},"right_child":{"split_feature":21,"threshold":77.50000000000001,"default_left":true,"left_child":{"split_feature":13,"threshold":1.6015625000000002,"default_left":true,"left_child":{"split_feature":3,"threshold":0.8165485829959515,"default_left":true,"left_child":{"leaf_value":-0.012468727229050828},"right_child":{"split_feature":3,"threshold":0.9128711201079623,"default_left":true,"left_child":{"leaf_value":0.03241455359956902},"right_child":{"split_feature":1,"threshold":91.00000000000001,"default_left":true,"left_child":{"split_feature":13,"threshold":0.8897569444444445,"default_left":true,"left_child":{"leaf_value":0},"right_child":{"leaf_value":0.021158262074496986}},"right_child":{"leaf_value":0.004626532687615568}}}},"right_child":{"leaf_value":-0.0016589813375983238}},"right_child":{"split_feature":13,"threshold":0.6495535714285715,"default_left":true,"left_child":{"split_feature":24,"threshold":3.7083333333333335,"default_left":false,"left_child":{"leaf_value":-0.007782140537298251},"right_child":{"leaf_value":0.02684010982884239}},"right_child":{"leaf_value":0.016970578052316564}}}},"right_child":{"split_feature":8,"threshold":1.788888888888889,"default_left":true,"left_child":{"leaf_value":-0.00887378053965888},"right_child":{"split_feature":15,"threshold":1644.2250000000001,"default_left":true,"left_child":{"leaf_value":0.03732395907125578},"right_child":{"leaf_value":-0.0005961522106846858}}}},"right_child":{"split_feature":15,"threshold":1616.9250000000004,"default_left":true,"left_child":{"leaf_value":-0.0029940671036286196},"right_child":{"split_feature":26,"threshold":70.83333333333334,"default_left":true,"left_child":{"leaf_value":0.06323015481254055},"right_child":{"split_feature":10,"threshold":3.5000000000000004,"default_left":true,"left_child":{"leaf_value":0.059789031291718746},"right_child":{"split_feature":3,"threshold":1.8082706766917294,"default_left":true,"left_child":{"leaf_value":0},"right_child":{"leaf_value":0.02168556659594417}}}}}},"right_child":{"split_feature":22,"threshold":36.66666666666667,"default_left":true,"left_child":{"split_feature":24,"threshold":2.7750000000000004,"default_left":false,"left_child":{"leaf_value":0.009672236464308027},"right_child":{"split_feature":2,"threshold":2.390350877192983,"default_left":true,"left_child":{"leaf_value":0.016147940515148326},"right_child":{"split_feature":15,"threshold":1355.1800000000003,"default_left":true,"left_child":{"leaf_value":0.06578749488841563},"right_child":{"split_feature":27,"threshold":4.500000000000001,"default_left":true,"left_child":{"split_feature":23,"threshold":22.500000000000004,"default_left":true,"left_child":{"leaf_value":0},"right_child":{"leaf_value":0.04131879305138388}},"right_child":{"leaf_value":0.03791124933766832}}}}},"right_child":{"split_feature":4,"threshold":2.292857142857143,"default_left":true,"left_child":{"leaf_value":-0.0010443621749379418},"right_child":{"split_feature":15,"threshold":1509.7050000000002,"default_left":true,"left_child":{"leaf_value":0.04693221674218965},"right_child":{"leaf_value":0.008176543590727408}}}}}}},{"tree_index":5,"shrinkage":0.0270297,"tree_structure":{"split_feature":6,"threshold":2.0500000000000003,"default_left":true,"left_child":{"split_feature":6,"threshold":1.4722222222222225,"default_left":true,"left_child":{"split_feature":8,"threshold":1.6833333333333336,"default_left":true,"left_child":{"split_feature":14,"threshold":1355.0700000000002,"default_left":true,"left_child":{"leaf_value":0.009118363871478009},"right_child":{"split_feature":6,"threshold":1.0500000000000003,"default_left":true,"left_child":{"split_feature":7,"threshold":1.6833333333333336,"default_left":true,"left_child":{"leaf_value":-0.010123419404061834},"right_child":{"split_feature":8,"threshold":1.1547619047619049,"default_left":true,"left_child":{"leaf_value":-0.008603323706188831},"right_child":{"leaf_value":-0.0001424977639108175}}},"right_child":{"split_feature":1,"threshold":69.50000000000001,"default_left":true,"left_child":{"split_feature":15,"threshold":1568.055,"default_left":true,"left_child":{"leaf_value":0.0003856895953333306},"right_child":{"split_feature":1,"threshold":50.00000000000001,"default_left":true,"left_child":{"split_feature":26,"threshold":55.00000000000001,"default_left":false,"left_child":{"split_feature":15,"threshold":1821.0450000000003,"default_left":true,"left_child":{"leaf_value":-0.0011115233114811134},"right_child":{"leaf_value":0.02851514149908934}},"right_child":{"leaf_value":-0.009089238018317632}},"right_child":{"leaf_value":-0.01459033510795243}}},"right_child":{"split_feature":1,"threshold":91.00000000000001,"default_left":true,"left_child":{"split_feature":0,"threshold":2021.5000000000002,"default_left":true,"left_child":{"split_feature":14,"threshold":1733.4650000000004,"default_left":true,"left_child":{"leaf_value":-0.0001444955793795535},"right_child":{"split_feature":13,"threshold":0.5590277777777778,"default_left":true,"left_child":{"leaf_value":-0.008046974945256701},"right_child":{"leaf_value":0.027009718769740503}}},"right_child":{"leaf_value":0.018082100541939934}},"right_child":{"split_feature":14,"threshold":1720.115,"default_left":true,"left_child":{"leaf_value":-0.006541484152455648},"right_child":{"split_feature":15,"threshold":1610.2550000000003,"default_left":true,"left_child":{"split_feature":12,"threshold":1.5825892857142858,"default_left":true,"left_child":{"leaf_value":0.043480175752193394},"right_child":{"leaf_value":0}},"right_child":{"leaf_value":-0.0021241702355849325}}}}}}},"right_child":{"split_feature":14,"threshold":1406.7750000000003,"default_left":true,"left_child":{"split_feature":13,"threshold":0.787326388888889,"default_left":true,"left_child":{"leaf_value":-0.009320314795139693},"right_child":{"split_feature":24,"threshold":3.7083333333333335,"default_left":true,"left_child":{"leaf_value":0.01094371532674525},"right_child":{"split_feature":26,"threshold":90.00000000000001,"default_left":true,"left_child":{"split_feature":7,"threshold":2.292857142857143,"default_left":true,"left_child":{"split_feature":13,"threshold":2.291294642857143,"default_left":true,"left_child":{"leaf_value":0.07323457763955424},"right_child":{"leaf_value":0.01334846854631171}},"right_child":{"leaf_value":0.0003300137036143776}},"right_child":{"leaf_value":0.006506126846515071}}}},"right_child":{"split_feature":15,"threshold":2016.6750000000004,"default_left":true,"left_child":{"split_feature":0,"threshold":2008.5000000000002,"default_left":true,"left_child":{"split_feature":5,"threshold":2.4142857142857146,"default_left":true,"left_child":{"split_feature":24,"threshold":2.2250000000000005,"default_left":false,"left_child":{"leaf_value":-0.009857589435932838},"right_child":{"leaf_value":0.0002443021278576238}},"right_child":{"leaf_value":-0.01805108403887629}},"right_child":{"split_feature":7,"threshold":1.4722222222222225,"default_left":true,"left_child":{"leaf_value":-0.001033799295285609},"right_child":{"split_feature":15,"threshold":1716.9950000000001,"default_left":true,"left_child":{"leaf_value":-0.0023167151796169793},"right_child":{"split_feature":0,"threshold":2015.5000000000002,"default_left":true,"left_child":{"leaf_value":8.870485697698301e-05},"right_child":{"split_feature":11,"threshold":8.500000000000002,"default_left":true,"left_child":{"leaf_value":0.018350952637763644},"right_child":{"leaf_value":0.0009355963694690072}}}}}},"right_child":{"split_feature":24,"threshold":2.5500000000000003,"default_left":true,"left_child":{"leaf_value":-0.010231755158660831},"right_child":{"leaf_value":0.02913913980621272}}}}},"right_child":{"split_feature":1,"threshold":69.50000000000001,"default_left":true,"left_child":{"split_feature":14,"threshold":1720.115,"default_left":true,"left_child":{"leaf_value":-0.009549304323900004},"right_child":{"split_feature":0,"threshold":2020.5000000000002,"default_left":true,"left_child":{"leaf_value":0.0001409959204546971},"right_child":{"leaf_value":0.01903832814757714}}},"right_child":{"split_feature":1,"threshold":91.00000000000001,"default_left":true,"left_child":{"split_feature":24,"threshold":3.2250000000000005,"default_left":true,"left_child":{"split_feature":33,"threshold":70.83333333333334,"default_left":true,"left_child":{"split_feature":33,"threshold":55.00000000000001,"default_left":false,"left_child":{"leaf_value":0.004576094120235771},"right_child":{"leaf_value":0.013840146850597394}},"right_child":{"leaf_value":-0.0022918177405690863}},"right_child":{"split_feature":12,"threshold":1.0747767857142858,"default_left":true,"left_child":{"leaf_value":-0.007140979182239648},"right_child":{"split_feature":8,"threshold":2.7500000000000004,"default_left":true,"left_child":{"leaf_value":0.015004482840131414},"right_child":{"split_feature":12,"threshold":2.291294642857143,"default_left":true,"left_child":{"leaf_value":0.06357259842177335},"right_child":{"leaf_value":0}}}}},"right_child":{"split_feature":14,"threshold":1967.8800000000003,"default_left":true,"left_child":{"split_feature":25,"threshold":29.166666666666668,"default_left":true,"left_child":{"split_feature":14,"threshold":1671.4350000000002,"default_left":true,"left_child":{"leaf_value":-0.0015769640696894878},"right_child":{"split_feature":1,"threshold":137.50000000000003,"default_left":true,"left_child":{"leaf_value":0.02026757038094282},"right_child":{"leaf_value":0.003441106610374128}}},"right_child":{"split_feature":15,"threshold":1468.6100000000004,"default_left":true,"left_child":{"leaf_value":-0.012809740762242465},"right_child":{"leaf_value":0.0002892083659712535}}},"right_child":{"split_feature":6,"threshold":1.8944444444444446,"default_left":true,"left_child":{"leaf_value":0.06414939019675799},"right_child":{"leaf_value":0.00342569220743839}}}}}},"right_child":{"split_feature":6,"threshold":2.4142857142857146,"default_left":true,"left_child":{"split_feature":33,"threshold":1.0000000180025095e-35,"default_left":false,"left_child":{"leaf_value":-0.005354434228517522},"right_child":{"split_feature":24,"threshold":3.7750000000000004,"default_left":true,"left_child":{"split_feature":12,"threshold":2.65625,"default_left":true,"left_child":{"split_feature":24,"threshold":3.4500000000000006,"default_left":false,"left_child":{"split_feature":32,"threshold":29.166666666666668,"default_left":false,"left_child":{"leaf_value":0.0026102560422059783},"right_child":{"leaf_value":0.018010087532952242}},"right_child":{"leaf_value":-0.00033022504623026985}},"right_child":{"leaf_value":0.0022596585048546745}},"right_child":{"split_feature":6,"threshold":2.292857142857143,"default_left":true,"left_child":{"split_feature":14,"threshold":1645.615,"default_left":true,"left_child":{"leaf_value":-0.01041073932111174},"right_child":{"split_feature":7,"threshold":1.0500000000000003,"default_left":true,"left_child":{"leaf_value":0.003793718474853371},"right_child":{"split_feature":13,"threshold":0.8984375000000001,"default_left":true,"left_child":{"split_feature":12,"threshold":2.1495535714285716,"default_left":true,"left_child":{"leaf_value":0.007611816151313895},"right_child":{"leaf_value":0.07545376613888723}},"right_child":{"leaf_value":0.013624360823043953}}}},"right_child":{"split_feature":32,"threshold":70.83333333333334,"default_left":true,"left_child":{"leaf_value":0.04427614832691865},"right_child":{"leaf_value":0.010615864304766487}}}}},"right_child":{"split_feature":13,"threshold":1.9531250000000002,"default_left":true,"left_child":{"split_feature":1,"threshold":137.50000000000003,"default_left":true,"left_child":{"split_feature":15,"threshold":1343.6950000000004,"default_left":true,"left_child":{"leaf_value":0.06244754654434284},"right_child":{"split_feature":32,"threshold":22.500000000000004,"default_left":false,"left_child":{"leaf_value":0.034956690713795556},"right_child":{"split_feature":5,"threshold":1.2111111111111115,"default_left":true,"left_child":{"split_feature":1,"threshold":114.50000000000001,"default_left":true,"left_child":{"split_feature":15,"threshold":1652.8850000000004,"default_left":true,"left_child":{"split_feature":14,"threshold":1578.1800000000003,"default_left":true,"left_child":{"leaf_value":-0.00833344247656826},"right_child":{"leaf_value":0.0341665344064548}},"right_child":{"leaf_value":0.004661711097189346}},"right_child":{"leaf_value":-0.0019707702826137594}},"right_child":{"split_feature":0,"threshold":2004.5000000000002,"default_left":true,"left_child":{"leaf_value":-0.013529381865120909},"right_child":{"split_feature":0,"threshold":2008.5000000000002,"default_left":true,"left_child":{"leaf_value":0.040332795759863184},"right_child":{"leaf_value":0.010328868278527031}}}}}},"right_child":{"split_feature":14,"threshold":1904.4850000000004,"default_left":true,"left_child":{"leaf_value":0},"right_child":{"split_feature":24,"threshold":4.633333333333334,"default_left":false,"left_child":{"split_feature":0,"threshold":2016.5000000000002,"default_left":true,"left_child":{"leaf_value":0.0568175590046277},"right_child":{"leaf_value":0.016131563589693056}},"right_child":{"leaf_value":0.0010170511384014174}}}},"right_child":{"split_feature":6,"threshold":2.683333333333334,"default_left":true,"left_child":{"leaf_value":-0.010478033307573837},"right_child":{"leaf_value":0.014763042817405045}}}}}},{"tree_index":6,"shrinkage":0.0270297,"tree_structure":{"split_feature":6,"threshold":2.0500000000000003,"default_left":true,"left_child":{"split_feature":6,"threshold":1.4722222222222225,"default_left":true,"left_child":{"split_feature":8,"threshold":1.6833333333333336,"default_left":true,"left_child":{"split_feature":14,"threshold":1355.0700000000002,"default_left":true,"left_child":{"split_feature":28,"threshold":22.500000000000004,"default_left":false,"left_child":{"split_feature":31,"threshold":3.4500000000000006,"default_left":true,"left_child":{"leaf_value":-0.013529261776705688},"right_child":{"leaf_value":0.01895394337789265}},"right_child":{"leaf_value":0.015196681201247113}},"right_child":{"split_feature":6,"threshold":1.0500000000000003,"default_left":true,"left_child":{"split_feature":9,"threshold":1.527777777777778,"default_left":true,"left_child":{"leaf_value":-0.01009849271133092},"right_child":{"leaf_value":-0.004607282559182279}},"right_child":{"split_feature":1,"threshold":69.50000000000001,"default_left":true,"left_child":{"split_feature":15,"threshold":1568.055,"default_left":true,"left_child":{"split_feature":31,"threshold":3.1000000000000005,"default_left":true,"left_child":{"leaf_value":-0.0032930044093225958},"right_child":{"split_feature":27,"threshold":2.5000000000000004,"default_left":true,"left_child":{"leaf_value":-0.005344191240211169},"right_child":{"leaf_value":0.035940676074932315}}},"right_child":{"split_feature":1,"threshold":50.00000000000001,"default_left":true,"left_child":{"split_feature":26,"threshold":55.00000000000001,"default_left":false,"left_child":{"split_feature":15,"threshold":1821.0450000000003,"default_left":true,"left_child":{"leaf_value":-0.0010826069946794407},"right_child":{"leaf_value":0.027357000418558913}},"right_child":{"leaf_value":-0.00890402798627018}},"right_child":{"leaf_value":-0.014350050512848912}}},"right_child":{"split_feature":1,"threshold":91.00000000000001,"default_left":true,"left_child":{"split_feature":0,"threshold":2021.5000000000002,"default_left":true,"left_child":{"split_feature":14,"threshold":1733.4650000000004,"default_left":true,"left_child":{"leaf_value":-0.0001406187730017941},"right_child":{"split_feature":3,"threshold":1.0219298245614035,"default_left":true,"left_child":{"leaf_value":-0.006638430266207872},"right_child":{"leaf_value":0.02895513193925915}}},"right_child":{"leaf_value":0.017387156709863964}},"right_child":{"split_feature":14,"threshold":1720.115,"default_left":true,"left_child":{"leaf_value":-0.006395502705099533},"right_child":{"split_feature":15,"threshold":1610.2550000000003,"default_left":true,"left_child":{"split_feature":12,"threshold":1.5825892857142858,"default_left":true,"left_child":{"split_feature":31,"threshold":2.7750000000000004,"default_left":false,"left_child":{"leaf_value":0.0007183359126219485},"right_child":{"leaf_value":0.06390226448092157}},"right_child":{"leaf_value":0}},"right_child":{"leaf_value":-0.0020702967549376277}}}}}}},"right_child":{"split_feature":14,"threshold":1406.7750000000003,"default_left":true,"left_child":{"split_feature":31,"threshold":4.450000000000001,"default_left":true,"left_child":{"split_feature":26,"threshold":90.00000000000001,"default_left":false,"left_child":{"split_feature":0,"threshold":2019.5000000000002,"default_left":true,"left_child":{"leaf_value":0.008872992668187035},"right_child":{"split_feature":10,"threshold":14.500000000000002,"default_left":true,"left_child":{"leaf_value":0.03761561804756606},"right_child":{"leaf_value":-0.010779813814833852}}},"right_child":{"leaf_value":-0.005906604563790499}},"right_child":{"leaf_value":0.043032650795570886}},"right_child":{"split_feature":15,"threshold":2016.6750000000004,"default_left":true,"left_child":{"split_feature":0,"threshold":2008.5000000000002,"default_left":true,"left_child":{"split_feature":3,"threshold":2.4533407988055247,"default_left":true,"left_child":{"leaf_value":-0.0027906608898474235},"right_child":{"leaf_value":-0.01670326670150552}},"right_child":{"leaf_value":0.0017935494110061282}},"right_child":{"leaf_value":0.02172514305230977}}}},"right_child":{"split_feature":1,"threshold":69.50000000000001,"default_left":true,"left_child":{"split_feature":14,"threshold":1720.115,"default_left":true,"left_child":{"leaf_value":-0.00935701661604788},"right_child":{"split_feature":0,"threshold":2020.5000000000002,"default_left":true,"left_child":{"leaf_value":0.00013718690063974076},"right_child":{"split_feature":9,"threshold":1.4722222222222225,"default_left":true,"left_child":{"leaf_value":0.00621768525416924},"right_child":{"split_feature":8,"threshold":1.2928571428571431,"default_left":true,"left_child":{"leaf_value":0.00888304045462448},"right_child":{"leaf_value":0.05053229882463156}}}}},"right_child":{"split_feature":1,"threshold":91.00000000000001,"default_left":true,"left_child":{"split_feature":9,"threshold":2.0500000000000003,"default_left":true,"left_child":{"split_feature":8,"threshold":2.7500000000000004,"default_left":true,"left_child":{"split_feature":21,"threshold":90.00000000000001,"default_left":true,"left_child":{"leaf_value":0.005330313967640061},"right_child":{"split_feature":12,"threshold":2.590277777777778,"default_left":true,"left_child":{"leaf_value":0.029938960319624865},"right_child":{"leaf_value":-0.0064506343223498745}}},"right_child":{"split_feature":14,"threshold":1465.0900000000001,"default_left":true,"left_child":{"leaf_value":0.06424644762601},"right_child":{"leaf_value":0.013440265312276432}}},"right_child":{"split_feature":15,"threshold":1549.3400000000001,"default_left":true,"left_child":{"split_feature":9,"threshold":2.2678571428571432,"default_left":true,"left_child":{"split_feature":12,"threshold":2.4878472222222223,"default_left":true,"left_child":{"leaf_value":0.046968392495966294},"right_child":{"leaf_value":-0.0014646762718539487}},"right_child":{"leaf_value":0.01368211198514933}},"right_child":{"leaf_value":0.005725709205376165}}},"right_child":{"split_feature":14,"threshold":1967.8800000000003,"default_left":true,"left_child":{"split_feature":25,"threshold":29.166666666666668,"default_left":true,"left_child":{"split_feature":14,"threshold":1671.4350000000002,"default_left":true,"left_child":{"leaf_value":-0.0015367723033996846},"right_child":{"split_feature":1,"threshold":137.50000000000003,"default_left":true,"left_child":{"leaf_value":0.019449972277788},"right_child":{"leaf_value":0.0033415458271351703}}},"right_child":{"split_feature":15,"threshold":1468.6100000000004,"default_left":true,"left_child":{"leaf_value":-0.012584169065684827},"right_child":{"split_feature":28,"threshold":90.00000000000001,"default_left":true,"left_child":{"split_feature":8,"threshold":2.0500000000000003,"default_left":true,"left_child":{"leaf_value":-0.0028918493113015025},"right_child":{"split_feature":12,"threshold":1.4487847222222225,"default_left":true,"left_child":{"leaf_value":0.0316703608281947},"right_child":{"leaf_value":0.0038141661498907902}}},"right_child":{"split_feature":9,"threshold":1.788888888888889,"default_left":true,"left_child":{"leaf_value":0.003119277177035908},"right_child":{"leaf_value":0.028532958368284702}}}}},"right_child":{"split_feature":9,"threshold":1.0500000000000003,"default_left":true,"left_child":{"leaf_value":-0.01716648658690183},"right_child":{"leaf_value":0.05323485930944972}}}}}},"right_child":{"split_feature":6,"threshold":2.4142857142857146,"default_left":true,"left_child":{"split_feature":31,"threshold":3.1000000000000005,"default_left":false,"left_child":{"split_feature":25,"threshold":70.83333333333334,"default_left":true,"left_child":{"leaf_value":0.0038077145014546957},"right_child":{"split_feature":0,"threshold":2011.5000000000002,"default_left":true,"left_child":{"leaf_value":0},"right_child":{"split_feature":14,"threshold":1635.9100000000003,"default_left":true,"left_child":{"leaf_value":-0.01027400507922426},"right_child":{"split_feature":14,"threshold":1703.805,"default_left":true,"left_child":{"leaf_value":0.06902396465483601},"right_child":{"split_feature":14,"threshold":1756.7750000000003,"default_left":true,"left_child":{"leaf_value":0},"right_child":{"leaf_value":0.03295455980414228}}}}}},"right_child":{"split_feature":9,"threshold":0.9500000000000001,"default_left":true,"left_child":{"leaf_value":0.003953247380587027},"right_child":{"split_feature":8,"threshold":1.267857142857143,"default_left":true,"left_child":{"split_feature":32,"threshold":77.50000000000001,"default_left":true,"left_child":{"leaf_value":0.017480168000791732},"right_child":{"split_feature":13,"threshold":0.8582589285714286,"default_left":true,"left_child":{"leaf_value":-0.016437361787849537},"right_child":{"leaf_value":0.011468548864004334}}},"right_child":{"split_feature":1,"threshold":50.00000000000001,"default_left":true,"left_child":{"leaf_value":7.726711690533848e-05},"right_child":{"split_feature":14,"threshold":1967.8800000000003,"default_left":true,"left_child":{"leaf_value":0.025920207447100514},"right_child":{"leaf_value":0.06419543100414328}}}}}},"right_child":{"split_feature":13,"threshold":1.9531250000000002,"default_left":true,"left_child":{"split_feature":1,"threshold":137.50000000000003,"default_left":true,"left_child":{"split_feature":15,"threshold":1343.6950000000004,"default_left":true,"left_child":{"leaf_value":0.058710192953263594},"right_child":{"split_feature":32,"threshold":22.500000000000004,"default_left":false,"left_child":{"leaf_value":0.03323494693890503},"right_child":{"split_feature":3,"threshold":1.0811403508771933,"default_left":true,"left_child":{"split_feature":1,"threshold":91.00000000000001,"default_left":true,"left_child":{"leaf_value":0.03161149703068946},"right_child":{"leaf_value":0}},"right_child":{"leaf_value":0.011462108348946487}}}},"right_child":{"split_feature":14,"threshold":1904.4850000000004,"default_left":true,"left_child":{"leaf_value":0},"right_child":{"leaf_value":0.04358425886148375}}},"right_child":{"split_feature":6,"threshold":2.683333333333334,"default_left":true,"left_child":{"leaf_value":-0.01028181049509689},"right_child":{"leaf_value":0.014238439410822997}}}}}},{"tree_index":7,"shrinkage":0.0270297,"tree_structure":{"split_feature":4,"threshold":1.788888888888889,"default_left":true,"left_child":{"split_feature":24,"threshold":2.5500000000000003,"default_left":true,"left_child":{"split_feature":7,"threshold":1.4142857142857144,"default_left":true,"left_child":{"split_feature":15,"threshold":1392.8650000000002,"default_left":true,"left_child":{"split_feature":10,"threshold":13.500000000000002,"default_left":true,"left_child":{"leaf_value":0.003427712417023127},"right_child":{"leaf_value":0.03846090109960989}},"right_child":{"split_feature":21,"threshold":55.00000000000001,"default_left":true,"left_child":{"leaf_value":-0.008924323858161562},"right_child":{"leaf_value":-0.0026540534285085567}}},"right_child":{"split_feature":4,"threshold":1.2928571428571431,"default_left":true,"left_child":{"split_feature":15,"threshold":1716.9950000000001,"default_left":true,"left_child":{"split_feature":9,"threshold":1.4722222222222225,"default_left":true,"left_child":{"split_feature":21,"threshold":77.50000000000001,"default_left":false,"left_child":{"leaf_value":-0.011171674538265005},"right_child":{"leaf_value":-0.0013781922541282006}},"right_child":{"split_feature":12,"threshold":0.7361111111111112,"default_left":true,"left_child":{"leaf_value":-0.0102957270800284},"right_child":{"split_feature":5,"threshold":1.4365079365079367,"default_left":true,"left_child":{"leaf_value":-0.0010540860483198979},"right_child":{"leaf_value":0.014077982148018333}}}},"right_child":{"split_feature":27,"threshold":4.500000000000001,"default_left":true,"left_child":{"leaf_value":-0.00262903732096228},"right_child":{"split_feature":13,"threshold":0.7165178571428572,"default_left":true,"left_child":{"leaf_value":-0.013622322294234365},"right_child":{"split_feature":21,"threshold":36.66666666666667,"default_left":true,"left_child":{"leaf_value":0.014787203358145892},"right_child":{"leaf_value":-0.0020865511037250987}}}}},"right_child":{"leaf_value":0.0023553033872251486}}},"right_child":{"split_feature":17,"threshold":1.5000000000000002,"default_left":true,"left_child":{"split_feature":15,"threshold":2016.6750000000004,"default_left":true,"left_child":{"split_feature":27,"threshold":4.500000000000001,"default_left":true,"left_child":{"split_feature":7,"threshold":1.788888888888889,"default_left":true,"left_child":{"split_feature":5,"threshold":0.38750000000000007,"default_left":true,"left_child":{"leaf_value":0.015162059438825407},"right_child":{"leaf_value":-0.00496934206642137}},"right_child":{"split_feature":15,"threshold":1666.5250000000003,"default_left":true,"left_child":{"split_feature":4,"threshold":1.1833333333333336,"default_left":true,"left_child":{"split_feature":13,"threshold":1.5825892857142858,"default_left":true,"left_child":{"split_feature":26,"threshold":36.66666666666667,"default_left":true,"left_child":{"leaf_value":0.019262303122260543},"right_child":{"leaf_value":-0.012510973510149957}},"right_child":{"leaf_value":0.01991952120536436}},"right_child":{"split_feature":5,"threshold":0.6833333333333335,"default_left":true,"left_child":{"leaf_value":0.03696085074927923},"right_child":{"leaf_value":0}}},"right_child":{"split_feature":32,"threshold":70.83333333333334,"default_left":true,"left_child":{"leaf_value":0.01079500989550212},"right_child":{"leaf_value":-0.002216940157262374}}}},"right_child":{"split_feature":13,"threshold":2.086805555555556,"default_left":true,"left_child":{"split_feature":21,"threshold":77.50000000000001,"default_left":true,"left_child":{"split_feature":13,"threshold":1.4140625000000002,"default_left":true,"left_child":{"split_feature":13,"threshold":1.3582589285714286,"default_left":true,"left_child":{"leaf_value":-0.00011605784552794184},"right_child":{"split_feature":26,"threshold":77.50000000000001,"default_left":true,"left_child":{"split_feature":15,"threshold":1694.535,"default_left":true,"left_child":{"leaf_value":-0.000681760820932191},"right_child":{"split_feature":4,"threshold":0.8944444444444445,"default_left":true,"left_child":{"leaf_value":-0.004585771327663139},"right_child":{"leaf_value":0.04408525638365497}}},"right_child":{"leaf_value":-0.00725006274117837}}},"right_child":{"split_feature":7,"threshold":1.6833333333333336,"default_left":true,"left_child":{"leaf_value":-0.008100717730641705},"right_child":{"split_feature":15,"threshold":1740.285,"default_left":true,"left_child":{"leaf_value":-0.009642548712887075},"right_child":{"split_feature":15,"threshold":1772.3350000000003,"default_left":true,"left_child":{"leaf_value":0.02932853286728434},"right_child":{"leaf_value":0.0032748491257044775}}}}},"right_child":{"split_feature":24,"threshold":2.7750000000000004,"default_left":true,"left_child":{"leaf_value":-0.013426697982349892},"right_child":{"leaf_value":0.010966884803409632}}},"right_child":{"leaf_value":0.007752020470014087}}},"right_child":{"leaf_value":0.020976142308059307}},"right_child":{"split_feature":24,"threshold":3.366666666666667,"default_left":true,"left_child":{"split_feature":9,"threshold":1.9500000000000002,"default_left":true,"left_child":{"split_feature":15,"threshold":1708.6750000000004,"default_left":true,"left_child":{"split_feature":28,"threshold":70.83333333333334,"default_left":true,"left_child":{"leaf_value":-0.0035547832277011407},"right_child":{"leaf_value":0.007493178846465544}},"right_child":{"split_feature":15,"threshold":1751.0250000000003,"default_left":true,"left_child":{"split_feature":7,"threshold":1.3875000000000002,"default_left":true,"left_child":{"leaf_value":-0.0055971203697354295},"right_child":{"split_feature":26,"threshold":55.00000000000001,"default_left":false,"left_child":{"leaf_value":0.07585930562937183},"right_child":{"leaf_value":0.016243059566017293}}},"right_child":{"leaf_value":0.000514243918399349}}},"right_child":{"split_feature":5,"threshold":0.8944444444444445,"default_left":true,"left_child":{"leaf_value":0.002108969222045046},"right_child":{"leaf_value":0.02517809669028263}}},"right_child":{"split_feature":29,"threshold":45.00000000000001,"default_left":true,"left_child":{"split_feature":24,"threshold":3.9000000000000004,"default_left":true,"left_child":{"split_feature":12,"threshold":1.4140625000000002,"default_left":true,"left_child":{"leaf_value":0.0022145408817765516},"right_child":{"leaf_value":0.019298136700844366}},"right_child":{"split_feature":5,"threshold":0.7888888888888891,"default_left":true,"left_child":{"leaf_value":0.014502845775523552},"right_child":{"leaf_value":-0.0028509338424816803}}},"right_child":{"split_feature":12,"threshold":1.1180555555555556,"default_left":true,"left_child":{"leaf_value":0.0034845877331714987},"right_child":{"split_feature":13,"threshold":1.0156250000000002,"default_left":true,"left_child":{"leaf_value":0.00403003181872848},"right_child":{"leaf_value":0.02919681098758155}}}}}}},"right_child":{"split_feature":9,"threshold":1.4142857142857144,"default_left":true,"left_child":{"split_feature":24,"threshold":4.1000000000000005,"default_left":true,"left_child":{"split_feature":22,"threshold":45.00000000000001,"default_left":true,"left_child":{"split_feature":7,"threshold":1.1547619047619049,"default_left":true,"left_child":{"split_feature":21,"threshold":77.50000000000001,"default_left":true,"left_child":{"leaf_value":0.0008373447256584946},"right_child":{"split_feature":4,"threshold":2.183333333333334,"default_left":true,"left_child":{"leaf_value":-0.001159164363719946},"right_child":{"split_feature":30,"threshold":1.0000000180025095e-35,"default_left":true,"left_child":{"split_feature":24,"threshold":2.366666666666667,"default_left":true,"left_child":{"leaf_value":0.0004509821826763375},"right_child":{"split_feature":32,"threshold":36.66666666666667,"default_left":true,"left_child":{"split_feature":32,"threshold":1.0000000180025095e-35,"default_left":false,"left_child":{"leaf_value":0.007921537958062783},"right_child":{"leaf_value":0.05272920968892955}},"right_child":{"leaf_value":0.014356378381097636}}},"right_child":{"leaf_value":0.0029213575909070462}}}},"right_child":{"leaf_value":0.010048234157376507}},"right_child":{"split_feature":7,"threshold":1.6833333333333336,"default_left":true,"left_child":{"leaf_value":-0.00509596173122977},"right_child":{"leaf_value":0.029320726151595138}}},"right_child":{"split_feature":15,"threshold":1616.9250000000004,"default_left":true,"left_child":{"leaf_value":-0.0033842156488996995},"right_child":{"split_feature":26,"threshold":70.83333333333334,"default_left":true,"left_child":{"leaf_value":0.05810052026994054},"right_child":{"split_feature":10,"threshold":3.5000000000000004,"default_left":true,"left_child":{"leaf_value":0.05516236289811935},"right_child":{"leaf_value":0.009984632146872374}}}}},"right_child":{"split_feature":22,"threshold":36.66666666666667,"default_left":true,"left_child":{"split_feature":24,"threshold":2.6333333333333337,"default_left":false,"left_child":{"leaf_value":0.00867210086084784},"right_child":{"split_feature":4,"threshold":2.316666666666667,"default_left":true,"left_child":{"split_feature":7,"threshold":1.0500000000000003,"default_left":true,"left_child":{"split_feature":25,"threshold":55.00000000000001,"default_left":true,"left_child":{"split_feature":11,"threshold":10.500000000000002,"default_left":true,"left_child":{"split_feature":13,"threshold":0.48437500000000006,"default_left":true,"left_child":{"leaf_value":0.004414179068075749},"right_child":{"leaf_value":0.03327064990027188}},"right_child":{"leaf_value":-0.005769277841909011}},"right_child":{"leaf_value":0.004235433948845188}},"right_child":{"leaf_value":0.020636160370181254}},"right_child":{"split_feature":27,"threshold":4.500000000000001,"default_left":true,"left_child":{"split_feature":27,"threshold":1.5000000000000002,"default_left":true,"left_child":{"leaf_value":0.02772347956375578},"right_child":{"leaf_value":-0.000478190494900954}},"right_child":{"leaf_value":0.03502068402302328}}}},"right_child":{"split_feature":4,"threshold":2.292857142857143,"default_left":true,"left_child":{"leaf_value":-0.0012296146930968052},"right_child":{"split_feature":15,"threshold":1509.7050000000002,"default_left":true,"left_child":{"leaf_value":0.04327288627298912},"right_child":{"leaf_value":0.007185180987926527}}}}}}},{"tree_index":8,"shrinkage":0.0270297,"tree_structure":{"split_feature":16,"threshold":278.5650000000001,"default_left":true,"left_child":{"split_feature":6,"threshold":1.788888888888889,"default_left":true,"left_child":{"split_feature":16,"threshold":-133.90499999999994,"default_left":true,"left_child":{"split_feature":14,"threshold":1370.5200000000002,"default_left":true,"left_child":{"split_feature":28,"threshold":1.0000000180025095e-35,"default_left":false,"left_child":{"leaf_value":0.03327464476130952},"right_child":{"leaf_value":0.007832888072154718}},"right_child":{"split_feature":0,"threshold":2008.5000000000002,"default_left":true,"left_child":{"leaf_value":-0.0033801325280773333},"right_child":{"split_feature":29,"threshold":36.66666666666667,"default_left":false,"left_child":{"split_feature":6,"threshold":1.1833333333333336,"default_left":true,"left_child":{"split_feature":10,"threshold":8.500000000000002,"default_left":true,"left_child":{"leaf_value":0.04348372150881308},"right_child":{"leaf_value":-1.4595219957484752e-05}},"right_child":{"leaf_value":0.0007949582757648882}},"right_child":{"split_feature":24,"threshold":3.9000000000000004,"default_left":false,"left_child":{"split_feature":7,"threshold":2.0500000000000003,"default_left":true,"left_child":{"split_feature":14,"threshold":1698.1950000000004,"default_left":true,"left_child":{"split_feature":29,"threshold":45.00000000000001,"default_left":true,"left_child":{"leaf_value":-0.01234989244811622},"right_child":{"leaf_value":0.0017995652951364315}},"right_child":{"leaf_value":0.018768079259680236}},"right_child":{"split_feature":32,"threshold":63.333333333333336,"default_left":false,"left_child":{"split_feature":10,"threshold":9.500000000000002,"default_left":true,"left_child":{"leaf_value":0.0361928659606346},"right_child":{"leaf_value":-0.007482472436444001}},"right_child":{"leaf_value":-0.004734045719497078}}},"right_child":{"leaf_value":0.015005425718956491}}}}},"right_child":{"split_feature":6,"threshold":1.0500000000000003,"default_left":true,"left_child":{"split_feature":7,"threshold":1.2361111111111114,"default_left":true,"left_child":{"leaf_value":-0.01071128024087812},"right_child":{"split_feature":14,"threshold":1355.0700000000002,"default_left":true,"left_child":{"split_feature":28,"threshold":29.166666666666668,"default_left":true,"left_child":{"leaf_value":-0.0010874630977378015},"right_child":{"leaf_value":0.021304369300147098}},"right_child":{"leaf_value":-0.005759172713378655}}},"right_child":{"split_feature":24,"threshold":3.2250000000000005,"default_left":true,"left_child":{"split_feature":7,"threshold":1.4365079365079367,"default_left":true,"left_child":{"split_feature":15,"threshold":1382.8800000000003,"default_left":true,"left_child":{"split_feature":28,"threshold":70.83333333333334,"default_left":true,"left_child":{"split_feature":22,"threshold":36.66666666666667,"default_left":true,"left_child":{"leaf_value":0.03734656365535235},"right_child":{"leaf_value":0.00011741791183669311}},"right_child":{"leaf_value":-0.011344815252697477}},"right_child":{"leaf_value":-0.0061251875820162}},"right_child":{"split_feature":3,"threshold":1.723684210526316,"default_left":true,"left_child":{"split_feature":14,"threshold":1767.8950000000002,"default_left":true,"left_child":{"leaf_value":-0.003096796976638414},"right_child":{"leaf_value":0.012616127423505423}},"right_child":{"split_feature":14,"threshold":1656.055,"default_left":true,"left_child":{"split_feature":4,"threshold":1.2928571428571431,"default_left":true,"left_child":{"leaf_value":0.003927625070309272},"right_child":{"split_feature":27,"threshold":1.5000000000000002,"default_left":true,"left_child":{"leaf_value":0.06175124416276887},"right_child":{"leaf_value":0.009831895963021845}}},"right_child":{"leaf_value":-0.002480851535530981}}}},"right_child":{"split_feature":14,"threshold":1382.7700000000002,"default_left":true,"left_child":{"split_feature":24,"threshold":3.9000000000000004,"default_left":true,"left_child":{"split_feature":22,"threshold":45.00000000000001,"default_left":true,"left_child":{"leaf_value":0},"right_child":{"split_feature":32,"threshold":70.83333333333334,"default_left":true,"left_child":{"leaf_value":0.015196484865635532},"right_child":{"leaf_value":0.07577614425745142}}},"right_child":{"leaf_value":0}},"right_child":{"split_feature":14,"threshold":1721.5700000000002,"default_left":true,"left_child":{"split_feature":10,"threshold":6.500000000000001,"default_left":true,"left_child":{"leaf_value":-0.005953603930483709},"right_child":{"split_feature":16,"threshold":153.63500000000002,"default_left":true,"left_child":{"split_feature":14,"threshold":1611.575,"default_left":true,"left_child":{"split_feature":7,"threshold":1.1833333333333336,"default_left":true,"left_child":{"leaf_value":-0.01657395679162609},"right_child":{"leaf_value":0.009103685157796053}},"right_child":{"leaf_value":-0.005007819718759933}},"right_child":{"leaf_value":0.011035583316230784}}},"right_child":{"split_feature":14,"threshold":1723.1450000000002,"default_left":true,"left_child":{"leaf_value":0.05738707186324192},"right_child":{"leaf_value":0.005128324751388142}}}}}}},"right_child":{"split_feature":6,"threshold":2.1125000000000003,"default_left":true,"left_child":{"split_feature":33,"threshold":1.0000000180025095e-35,"default_left":false,"left_child":{"split_feature":10,"threshold":16.500000000000004,"default_left":true,"left_child":{"leaf_value":-0.010135603959059806},"right_child":{"leaf_value":0.022283541403717123}},"right_child":{"leaf_value":0.0037834370090963827}},"right_child":{"split_feature":3,"threshold":1.9166666666666667,"default_left":true,"left_child":{"split_feature":3,"threshold":1.793385490753912,"default_left":true,"left_child":{"split_feature":2,"threshold":1.5266714082503559,"default_left":true,"left_child":{"split_feature":25,"threshold":55.00000000000001,"default_left":false,"left_child":{"leaf_value":0},"right_child":{"leaf_value":0.053874653794200804}},"right_child":{"split_feature":16,"threshold":95.84500000000006,"default_left":true,"left_child":{"leaf_value":-0.007338957989867396},"right_child":{"split_feature":15,"threshold":1731.785,"default_left":true,"left_child":{"split_feature":33,"threshold":70.83333333333334,"default_left":false,"left_child":{"leaf_value":0.0016382459360539399},"right_child":{"leaf_value":0.018714707275780892}},"right_child":{"split_feature":25,"threshold":77.50000000000001,"default_left":true,"left_child":{"split_feature":15,"threshold":1810.1850000000002,"default_left":true,"left_child":{"split_feature":26,"threshold":63.333333333333336,"default_left":false,"left_child":{"split_feature":32,"threshold":36.66666666666667,"default_left":true,"left_child":{"leaf_value":0.06553148049734506},"right_child":{"leaf_value":0.015125126640521342}},"right_child":{"leaf_value":-0.008638044013836945}},"right_child":{"leaf_value":-0.014571362290575946}},"right_child":{"leaf_value":0.05351090320700557}}}}},"right_child":{"split_feature":33,"threshold":29.166666666666668,"default_left":true,"left_child":{"leaf_value":-0.0007287909390606493},"right_child":{"leaf_value":0.042285806661686305}}},"right_child":{"split_feature":16,"threshold":-70.90999999999984,"default_left":true,"left_child":{"leaf_value":0.02431887823823552},"right_child":{"leaf_value":4.160228629457079e-06}}}}},"right_child":{"split_feature":6,"threshold":2.4142857142857146,"default_left":true,"left_child":{"split_feature":7,"threshold":1.585714285714286,"default_left":true,"left_child":{"split_feature":16,"threshold":394.5299999999999,"default_left":true,"left_child":{"split_feature":7,"threshold":0.7888888888888891,"default_left":true,"left_child":{"leaf_value":0.0011843221888946606},"right_child":{"split_feature":15,"threshold":1601.8350000000003,"default_left":true,"left_child":{"split_feature":32,"threshold":55.00000000000001,"default_left":false,"left_child":{"leaf_value":0.011178975563838161},"right_child":{"split_feature":24,"threshold":3.366666666666667,"default_left":true,"left_child":{"leaf_value":-0.004924350145702356},"right_child":{"split_feature":14,"threshold":1782.2350000000004,"default_left":true,"left_child":{"split_feature":3,"threshold":0.870380739081747,"default_left":true,"left_child":{"leaf_value":0.03584040043952078},"right_child":{"leaf_value":0.0030259380915133626}},"right_child":{"leaf_value":-0.009560929415095936}}}},"right_child":{"split_feature":10,"threshold":31.500000000000004,"default_left":true,"left_child":{"leaf_value":0.01657139664125727},"right_child":{"leaf_value":-0.018214403673783495}}}},"right_child":{"split_feature":33,"threshold":55.00000000000001,"default_left":false,"left_child":{"leaf_value":0.002825164444770664},"right_child":{"leaf_value":0.023090308048573396}}},"right_child":{"split_feature":14,"threshold":1831.4650000000004,"default_left":true,"left_child":{"split_feature":6,"threshold":1.788888888888889,"default_left":true,"left_child":{"split_feature":3,"threshold":0.4577999051683262,"default_left":true,"left_child":{"leaf_value":0.04909240365556591},"right_child":{"leaf_value":0}},"right_child":{"leaf_value":0.04310983599414847}},"right_child":{"leaf_value":0.0013179040013816638}}},"right_child":{"split_feature":15,"threshold":1743.4700000000003,"default_left":true,"left_child":{"split_feature":16,"threshold":394.5299999999999,"default_left":true,"left_child":{"split_feature":2,"threshold":2.3377192982456143,"default_left":true,"left_child":{"split_feature":10,"threshold":6.500000000000001,"default_left":true,"left_child":{"leaf_value":8.818681242961816e-06},"right_child":{"leaf_value":0.03148097152470281}},"right_child":{"leaf_value":0.0026085668171222077}},"right_child":{"split_feature":6,"threshold":3.35,"default_left":true,"left_child":{"split_feature":3,"threshold":1.5183873144399462,"default_left":true,"left_child":{"split_feature":0,"threshold":2021.5000000000002,"default_left":true,"left_child":{"leaf_value":0.03543157129903269},"right_child":{"leaf_value":0.008428075027387906}},"right_child":{"leaf_value":0}},"right_child":{"leaf_value":0.05555018265195679}}},"right_child":{"leaf_value":0.05107446144110718}}}}},{"tree_index":9,"shrinkage":0.0270297,"tree_structure":{"split_feature":6,"threshold":1.8944444444444446,"default_left":true,"left_child":{"split_feature":8,"threshold":1.6833333333333336,"default_left":true,"left_child":{"split_feature":6,"threshold":1.0500000000000003,"default_left":true,"left_child":{"split_feature":7,"threshold":1.6833333333333336,"default_left":true,"left_child":{"split_feature":9,"threshold":1.527777777777778,"default_left":true,"left_child":{"leaf_value":-0.010831082550496498},"right_child":{"leaf_value":-0.005908487899203649}},"right_child":{"split_feature":8,"threshold":1.1547619047619049,"default_left":true,"left_child":{"split_feature":3,"threshold":1.3073549257759787,"default_left":true,"left_child":{"split_feature":8,"threshold":0.6833333333333335,"default_left":true,"left_child":{"leaf_value":-0.01642111583339385},"right_child":{"split_feature":15,"threshold":1382.8800000000003,"default_left":true,"left_child":{"leaf_value":0.017462895234251118},"right_child":{"leaf_value":-0.0038577513205072895}}},"right_child":{"leaf_value":-0.016240340414628605}},"right_child":{"split_feature":9,"threshold":1.4722222222222225,"default_left":true,"left_child":{"leaf_value":-0.00417778205769653},"right_child":{"split_feature":11,"threshold":8.500000000000002,"default_left":true,"left_child":{"leaf_value":0.002822121229662483},"right_child":{"split_feature":24,"threshold":3.1000000000000005,"default_left":true,"left_child":{"leaf_value":0.009377304609807029},"right_child":{"leaf_value":0.046247955432574435}}}}}},"right_child":{"split_feature":1,"threshold":69.50000000000001,"default_left":true,"left_child":{"split_feature":1,"threshold":50.00000000000001,"default_left":true,"left_child":{"split_feature":4,"threshold":1.9500000000000002,"default_left":true,"left_child":{"leaf_value":-0.0038958588842976354},"right_child":{"split_feature":13,"threshold":1.2968750000000002,"default_left":true,"left_child":{"leaf_value":0.001514704469329095},"right_child":{"leaf_value":0.02807714297124734}}},"right_child":{"split_feature":15,"threshold":1542.2700000000002,"default_left":true,"left_child":{"split_feature":2,"threshold":1.899122807017544,"default_left":true,"left_child":{"leaf_value":0.0042406878557700025},"right_child":{"leaf_value":-0.02299015309691478}},"right_child":{"leaf_value":-0.012413512976578398}}},"right_child":{"split_feature":1,"threshold":91.00000000000001,"default_left":true,"left_child":{"split_feature":24,"threshold":3.2250000000000005,"default_left":false,"left_child":{"split_feature":29,"threshold":55.00000000000001,"default_left":false,"left_child":{"leaf_value":0.0005082523713073034},"right_child":{"split_feature":2,"threshold":1.9712171052631582,"default_left":true,"left_child":{"leaf_value":0.00672478257472975},"right_child":{"leaf_value":0.06185424878141895}}},"right_child":{"split_feature":3,"threshold":0.8464912280701754,"default_left":true,"left_child":{"split_feature":29,"threshold":63.333333333333336,"default_left":true,"left_child":{"leaf_value":0.020413663245025814},"right_child":{"leaf_value":-0.020160450574550223}},"right_child":{"split_feature":1,"threshold":83.00000000000001,"default_left":true,"left_child":{"leaf_value":0.0004795228943905873},"right_child":{"split_feature":15,"threshold":1355.1800000000003,"default_left":true,"left_child":{"leaf_value":-0.014501397010442417},"right_child":{"split_feature":24,"threshold":4.366666666666668,"default_left":true,"left_child":{"leaf_value":0.021789403389289613},"right_child":{"leaf_value":-0.0008704027098532649}}}}}},"right_child":{"split_feature":29,"threshold":1.0000000180025095e-35,"default_left":true,"left_child":{"split_feature":9,"threshold":1.9500000000000002,"default_left":true,"left_child":{"split_feature":7,"threshold":0.7321428571428573,"default_left":true,"left_child":{"split_feature":27,"threshold":4.500000000000001,"default_left":true,"left_child":{"leaf_value":-0.0010629516151815202},"right_child":{"split_feature":2,"threshold":2.4220647773279356,"default_left":true,"left_child":{"leaf_value":0.027831555966850073},"right_child":{"leaf_value":-0.00564195137677467}}},"right_child":{"split_feature":24,"threshold":3.2250000000000005,"default_left":true,"left_child":{"leaf_value":-0.004536903274765276},"right_child":{"leaf_value":0.004529632298548699}}},"right_child":{"split_feature":6,"threshold":1.4722222222222225,"default_left":true,"left_child":{"leaf_value":0.0007655922576564859},"right_child":{"leaf_value":0.019321148952976125}}},"right_child":{"leaf_value":-0.005570612050374109}}}}},"right_child":{"split_feature":7,"threshold":1.267857142857143,"default_left":true,"left_child":{"split_feature":15,"threshold":1658.2150000000004,"default_left":true,"left_child":{"split_feature":4,"threshold":1.4722222222222225,"default_left":true,"left_child":{"leaf_value":-0.004531515547975068},"right_child":{"split_feature":1,"threshold":69.50000000000001,"default_left":true,"left_child":{"leaf_value":-0.007548746939976376},"right_child":{"split_feature":24,"threshold":3.7083333333333335,"default_left":true,"left_child":{"leaf_value":0.020241664860340396},"right_child":{"leaf_value":-0.005784626304269054}}}},"right_child":{"split_feature":24,"threshold":3.6333333333333337,"default_left":true,"left_child":{"leaf_value":-0.005042726379982905},"right_child":{"split_feature":2,"threshold":1.5043859649122808,"default_left":true,"left_child":{"leaf_value":-0.004818546789794632},"right_child":{"split_feature":30,"threshold":1.0000000180025095e-35,"default_left":false,"left_child":{"leaf_value":-0.002962297360697287},"right_child":{"leaf_value":0.03218132360513339}}}}},"right_child":{"split_feature":24,"threshold":2.5500000000000003,"default_left":false,"left_child":{"leaf_value":-0.0006754103019597157},"right_child":{"split_feature":8,"threshold":2.2678571428571432,"default_left":true,"left_child":{"split_feature":25,"threshold":63.333333333333336,"default_left":true,"left_child":{"split_feature":1,"threshold":91.00000000000001,"default_left":true,"left_child":{"leaf_value":0.012168698437245001},"right_child":{"split_feature":1,"threshold":137.50000000000003,"default_left":true,"left_child":{"leaf_value":-0.0035948507159938017},"right_child":{"leaf_value":0.01192050251812515}}},"right_child":{"split_feature":27,"threshold":2.5000000000000004,"default_left":true,"left_child":{"leaf_value":-0.008360895875640921},"right_child":{"leaf_value":0.0035216653395333873}}},"right_child":{"split_feature":24,"threshold":4.1000000000000005,"default_left":true,"left_child":{"split_feature":2,"threshold":0.2645576707726764,"default_left":true,"left_child":{"leaf_value":0.04548606675985114},"right_child":{"leaf_value":0.009230565559668752}},"right_child":{"split_feature":29,"threshold":63.333333333333336,"default_left":true,"left_child":{"leaf_value":0.01382863773498711},"right_child":{"leaf_value":0.046362734392452414}}}}}}},"right_child":{"split_feature":6,"threshold":2.4142857142857146,"default_left":true,"left_child":{"split_feature":9,"threshold":2.7250000000000005,"default_left":true,"left_child":{"split_feature":6,"threshold":2.183333333333334,"default_left":true,"left_child":{"split_feature":15,"threshold":1387.575,"default_left":true,