{"metadata":{"market":"ou_0_5","num_trees":100,"num_class":1,"feature_names":["season","leagueId","homeFormScore","awayFormScore","homePPG10","awayPPG10","homeGF10","homeGA10","awayGF10","awayGA10","homeDaysSince","awayDaysSince","homeHomeFormScore","awayAwayFormScore","homeElo","awayElo","eloDiff","homeTier","awayTier","tierGap","h2h_overall_matches","h2h_overall_home_win_pct","h2h_overall_away_win_pct","h2h_overall_draw_pct","h2h_overall_avg_goals","h2h_overall_btts_pct","h2h_overall_over_2_5_pct","h2h_venue_matches","h2h_venue_home_win_pct","h2h_venue_away_win_pct","h2h_venue_draw_pct","h2h_venue_avg_goals","h2h_venue_btts_pct","h2h_venue_over_2_5_pct"],"objective":"binary sigmoid:1"},"tree_info":[{"tree_index":0,"shrinkage":1,"tree_structure":{"split_feature":6,"threshold":1.7071428571428573,"default_left":true,"left_child":{"split_feature":24,"threshold":2.9000000000000004,"default_left":true,"left_child":{"split_feature":9,"threshold":1.3541666666666667,"default_left":true,"left_child":{"split_feature":8,"threshold":1.3875000000000002,"default_left":true,"left_child":{"split_feature":14,"threshold":1684.8350000000003,"default_left":true,"left_child":{"split_feature":27,"threshold":1.5000000000000002,"default_left":true,"left_child":{"split_feature":1,"threshold":69.50000000000001,"default_left":true,"left_child":{"split_feature":25,"threshold":29.166666666666668,"default_left":false,"left_child":{"split_feature":20,"threshold":2.5000000000000004,"default_left":true,"left_child":{"split_feature":0,"threshold":2003.5000000000002,"default_left":true,"left_child":{"leaf_value":2.50523928137886},"right_child":{"split_feature":14,"threshold":1574.9950000000001,"default_left":true,"left_child":{"leaf_value":2.5054672678696805},"right_child":{"split_feature":1,"threshold":50.00000000000001,"default_left":true,"left_child":{"leaf_value":2.4831294356800173},"right_child":{"leaf_value":2.313690341116601}}}},"right_child":{"leaf_value":2.311126260380191}},"right_child":{"split_feature":14,"threshold":1649.1250000000002,"default_left":true,"left_child":{"split_feature":12,"threshold":0.6848958333333334,"default_left":true,"left_child":{"leaf_value":2.527837633920082},"right_child":{"leaf_value":2.449019354037088}},"right_child":{"leaf_value":2.5234302752056132}}},"right_child":{"split_feature":22,"threshold":36.66666666666667,"default_left":false,"left_child":{"split_feature":11,"threshold":12.500000000000002,"default_left":true,"left_child":{"split_feature":15,"threshold":1471.9850000000004,"default_left":true,"left_child":{"leaf_value":2.502758213573868},"right_child":{"split_feature":15,"threshold":1539.805,"default_left":true,"left_child":{"leaf_value":2.3692332652415087},"right_child":{"leaf_value":2.4617335404733525}}},"right_child":{"leaf_value":2.5475778280917925}},"right_child":{"leaf_value":2.5074130218227455}}},"right_child":{"split_feature":2,"threshold":1.904457088667615,"default_left":true,"left_child":{"leaf_value":2.4956295224359812},"right_child":{"split_feature":12,"threshold":2.3046875,"default_left":true,"left_child":{"leaf_value":2.5132908457306855},"right_child":{"leaf_value":2.3839084704164835}}}},"right_child":{"split_feature":9,"threshold":0.6458333333333334,"default_left":true,"left_child":{"split_feature":2,"threshold":1.7294197031039136,"default_left":true,"left_child":{"split_feature":6,"threshold":1.0500000000000003,"default_left":true,"left_child":{"leaf_value":2.434342324392213},"right_child":{"leaf_value":2.533440836449842}},"right_child":{"leaf_value":2.381243622854985}},"right_child":{"leaf_value":2.508595522472944}}},"right_child":{"split_feature":0,"threshold":2008.5000000000002,"default_left":true,"left_child":{"split_feature":12,"threshold":0.40625000000000006,"default_left":true,"left_child":{"split_feature":22,"threshold":29.166666666666668,"default_left":true,"left_child":{"leaf_value":2.387336136259804},"right_child":{"leaf_value":2.5024277459121045}},"right_child":{"leaf_value":2.500046141705349}},"right_child":{"leaf_value":2.5123233367106925}}},"right_child":{"split_feature":14,"threshold":1733.4650000000004,"default_left":true,"left_child":{"split_feature":15,"threshold":1751.0250000000003,"default_left":true,"left_child":{"split_feature":14,"threshold":1453.5050000000003,"default_left":true,"left_child":{"leaf_value":2.5217760298106557},"right_child":{"split_feature":31,"threshold":3.9000000000000004,"default_left":true,"left_child":{"split_feature":30,"threshold":22.500000000000004,"default_left":true,"left_child":{"leaf_value":2.50753050946841},"right_child":{"split_feature":9,"threshold":1.8944444444444446,"default_left":true,"left_child":{"split_feature":31,"threshold":1.366666666666667,"default_left":true,"left_child":{"leaf_value":2.5182866391238368},"right_child":{"split_feature":14,"threshold":1485.1300000000003,"default_left":true,"left_child":{"split_feature":0,"threshold":2018.5000000000002,"default_left":true,"left_child":{"leaf_value":2.4018003214224457},"right_child":{"leaf_value":2.5126100869603034}},"right_child":{"split_feature":2,"threshold":1.8533232118758434,"default_left":true,"left_child":{"split_feature":14,"threshold":1712.8950000000002,"default_left":true,"left_child":{"split_feature":31,"threshold":2.1000000000000005,"default_left":true,"left_child":{"split_feature":5,"threshold":1.0500000000000003,"default_left":true,"left_child":{"split_feature":30,"threshold":90.00000000000001,"default_left":true,"left_child":{"split_feature":15,"threshold":1590.2750000000003,"default_left":true,"left_child":{"split_feature":22,"threshold":29.166666666666668,"default_left":false,"left_child":{"leaf_value":2.4333687642063766},"right_child":{"leaf_value":2.5272205414777007}},"right_child":{"split_feature":10,"threshold":7.500000000000001,"default_left":true,"left_child":{"leaf_value":2.364112219917247},"right_child":{"leaf_value":2.474227784820411}}},"right_child":{"leaf_value":2.5184415416793233}},"right_child":{"split_feature":27,"threshold":4.500000000000001,"default_left":true,"left_child":{"split_feature":2,"threshold":1.3026315789473688,"default_left":true,"left_child":{"leaf_value":2.4477391758625116},"right_child":{"leaf_value":2.5246310274781116}},"right_child":{"leaf_value":2.528887500759142}}},"right_child":{"split_feature":13,"threshold":1.4843750000000002,"default_left":true,"left_child":{"leaf_value":2.5050901392834},"right_child":{"split_feature":14,"threshold":1615.5700000000002,"default_left":true,"left_child":{"leaf_value":2.5132908457306855},"right_child":{"leaf_value":2.3908567376936185}}}},"right_child":{"leaf_value":2.5357773566212622}},"right_child":{"leaf_value":2.4302155243187658}}}},"right_child":{"leaf_value":2.510930823486558}}},"right_child":{"leaf_value":2.5379049432919287}}},"right_child":{"leaf_value":2.5344148742683212}},"right_child":{"leaf_value":2.5286633169242254}}},"right_child":{"split_feature":8,"threshold":2.154761904761905,"default_left":true,"left_child":{"split_feature":6,"threshold":1.0500000000000003,"default_left":true,"left_child":{"split_feature":0,"threshold":2007.5000000000002,"default_left":true,"left_child":{"split_feature":11,"threshold":69.50000000000001,"default_left":true,"left_child":{"split_feature":8,"threshold":1.585714285714286,"default_left":true,"left_child":{"split_feature":11,"threshold":7.500000000000001,"default_left":true,"left_child":{"split_feature":32,"threshold":77.50000000000001,"default_left":false,"left_child":{"split_feature":8,"threshold":1.3875000000000002,"default_left":true,"left_child":{"split_feature":23,"threshold":29.166666666666668,"default_left":false,"left_child":{"leaf_value":2.4013149955728084},"right_child":{"leaf_value":2.4953567120226423}},"right_child":{"leaf_value":2.514582120317679}},"right_child":{"split_feature":12,"threshold":1.6015625000000002,"default_left":true,"left_child":{"leaf_value":2.5116528316773703},"right_child":{"split_feature":6,"threshold":0.8944444444444445,"default_left":true,"left_child":{"leaf_value":2.512443514082466},"right_child":{"split_feature":12,"threshold":1.9765625000000002,"default_left":true,"left_child":{"leaf_value":2.3335484458933844},"right_child":{"leaf_value":2.4848800292660935}}}}},"right_child":{"leaf_value":2.5129416615427873}},"right_child":{"split_feature":13,"threshold":1.5825892857142858,"default_left":true,"left_child":{"leaf_value":2.542583564766237},"right_child":{"leaf_value":2.4823758231223696}}},"right_child":{"leaf_value":2.3685655618818124}},"right_child":{"split_feature":15,"threshold":1411.2900000000002,"default_left":true,"left_child":{"split_feature":31,"threshold":0.9000000000000001,"default_left":true,"left_child":{"leaf_value":2.3685655618818124},"right_child":{"split_feature":12,"threshold":1.3582589285714286,"default_left":true,"left_child":{"leaf_value":2.5219845019677565},"right_child":{"leaf_value":2.43695753376747}}},"right_child":{"leaf_value":2.5151090109878393}}},"right_child":{"split_feature":31,"threshold":2.7083333333333335,"default_left":false,"left_child":{"leaf_value":2.509133592173268},"right_child":{"leaf_value":2.52276640172606}}},"right_child":{"split_feature":0,"threshold":2014.5000000000002,"default_left":true,"left_child":{"split_feature":9,"threshold":1.2928571428571431,"default_left":true,"left_child":{"leaf_value":2.5337218855550043},"right_child":{"split_feature":15,"threshold":1677.4850000000004,"default_left":true,"left_child":{"leaf_value":2.5394366684390306},"right_child":{"leaf_value":2.4676386053355523}}},"right_child":{"leaf_value":2.5494058803225297}}}},"right_child":{"split_feature":9,"threshold":1.0500000000000003,"default_left":true,"left_child":{"split_feature":31,"threshold":1.9000000000000001,"default_left":true,"left_child":{"split_feature":10,"threshold":6.500000000000001,"default_left":true,"left_child":{"split_feature":30,"threshold":45.00000000000001,"default_left":true,"left_child":{"leaf_value":2.4298328210676843},"right_child":{"leaf_value":2.5417339179884895}},"right_child":{"split_feature":22,"threshold":55.00000000000001,"default_left":true,"left_child":{"leaf_value":2.528506419989993},"right_child":{"split_feature":13,"threshold":1.7282986111111114,"default_left":true,"left_child":{"leaf_value":2.3948596539609994},"right_child":{"leaf_value":2.5288647244915614}}}},"right_child":{"leaf_value":2.5220740415671896}},"right_child":{"split_feature":6,"threshold":2.4142857142857146,"default_left":true,"left_child":{"split_feature":14,"threshold":1942.265,"default_left":true,"left_child":{"leaf_value":2.528889747075136},"right_child":{"leaf_value":2.5570584265786347}},"right_child":{"leaf_value":2.5499810117986104}}}}},{"tree_index":1,"shrinkage":0.0500788,"tree_structure":{"split_feature":16,"threshold":258.3100000000001,"default_left":true,"left_child":{"split_feature":16,"threshold":-112.98,"default_left":true,"left_child":{"leaf_value":0.016399354933743913},"right_child":{"split_feature":16,"threshold":162.61500000000004,"default_left":true,"left_child":{"split_feature":8,"threshold":1.3166666666666669,"default_left":true,"left_child":{"split_feature":9,"threshold":1.9500000000000002,"default_left":true,"left_child":{"split_feature":26,"threshold":45.00000000000001,"default_left":true,"left_child":{"split_feature":2,"threshold":0.7386133603238868,"default_left":true,"left_child":{"leaf_value":-0.0037758419358636243},"right_child":{"split_feature":14,"threshold":1685.845,"default_left":true,"left_child":{"split_feature":12,"threshold":0.9409722222222223,"default_left":true,"left_child":{"split_feature":15,"threshold":1432.0800000000002,"default_left":true,"left_child":{"leaf_value":0.018342022770908892},"right_child":{"split_feature":0,"threshold":2003.5000000000002,"default_left":true,"left_child":{"leaf_value":0.0072476696237833175},"right_child":{"split_feature":14,"threshold":1428.7700000000002,"default_left":true,"left_child":{"leaf_value":-0.15336500951943718},"right_child":{"split_feature":14,"threshold":1568.2700000000002,"default_left":true,"left_child":{"split_feature":32,"threshold":22.500000000000004,"default_left":true,"left_child":{"leaf_value":0.01790706377792671},"right_child":{"leaf_value":-0.0570609269912462}},"right_child":{"split_feature":15,"threshold":1623.575,"default_left":true,"left_child":{"split_feature":0,"threshold":2014.5000000000002,"default_left":true,"left_child":{"leaf_value":-0.18283958069371278},"right_child":{"leaf_value":-0.024836944007545714}},"right_child":{"split_feature":11,"threshold":5.500000000000001,"default_left":true,"left_child":{"leaf_value":-0.12810017221128303},"right_child":{"split_feature":3,"threshold":1.004385964912281,"default_left":true,"left_child":{"leaf_value":-0.0898837271344457},"right_child":{"leaf_value":-0.004399200330513078}}}}}}}},"right_child":{"split_feature":1,"threshold":69.50000000000001,"default_left":true,"left_child":{"split_feature":5,"threshold":1.585714285714286,"default_left":true,"left_child":{"split_feature":16,"threshold":13.575000000000047,"default_left":true,"left_child":{"leaf_value":0.014741039683233963},"right_child":{"split_feature":16,"threshold":84.56500000000007,"default_left":true,"left_child":{"split_feature":33,"threshold":36.66666666666667,"default_left":true,"left_child":{"split_feature":28,"threshold":55.00000000000001,"default_left":true,"left_child":{"split_feature":22,"threshold":63.333333333333336,"default_left":true,"left_child":{"leaf_value":-0.03273050931860027},"right_child":{"leaf_value":-0.1309507461985656}},"right_child":{"split_feature":0,"threshold":2009.5000000000002,"default_left":true,"left_child":{"leaf_value":-0.22347050116927436},"right_child":{"leaf_value":-0.03881939173686817}}},"right_child":{"leaf_value":0.00069501616296947}},"right_child":{"split_feature":21,"threshold":22.500000000000004,"default_left":false,"left_child":{"leaf_value":-0.047323506684567376},"right_child":{"leaf_value":-0.0015497379175263084}}}},"right_child":{"split_feature":14,"threshold":1664.2150000000004,"default_left":true,"left_child":{"split_feature":21,"threshold":1.0000000180025095e-35,"default_left":true,"left_child":{"split_feature":12,"threshold":1.4487847222222225,"default_left":true,"left_child":{"leaf_value":-0.018030957144815153},"right_child":{"leaf_value":-0.13960701755543545}},"right_child":{"split_feature":28,"threshold":77.50000000000001,"default_left":true,"left_child":{"leaf_value":0.012248286449667254},"right_child":{"leaf_value":-0.09045475666535412}}},"right_child":{"split_feature":3,"threshold":1.6684397163120568,"default_left":true,"left_child":{"leaf_value":-0.04285897614081009},"right_child":{"leaf_value":-0.18615504818827683}}}},"right_child":{"split_feature":14,"threshold":1579.9550000000002,"default_left":true,"left_child":{"split_feature":15,"threshold":1482.1100000000004,"default_left":true,"left_child":{"split_feature":0,"threshold":2012.5000000000002,"default_left":true,"left_child":{"leaf_value":0.024508098224489412},"right_child":{"split_feature":12,"threshold":1.279513888888889,"default_left":true,"left_child":{"leaf_value":0.007850594367669038},"right_child":{"split_feature":12,"threshold":1.4252232142857144,"default_left":true,"left_child":{"leaf_value":-0.13549915748896},"right_child":{"split_feature":0,"threshold":2014.5000000000002,"default_left":true,"left_child":{"leaf_value":-0.10568948274601767},"right_child":{"leaf_value":-0.007084320974870327}}}}},"right_child":{"split_feature":16,"threshold":122.07499999999995,"default_left":true,"left_child":{"split_feature":25,"threshold":22.500000000000004,"default_left":false,"left_child":{"split_feature":2,"threshold":1.2019410227696905,"default_left":true,"left_child":{"leaf_value":0.03638858988229769},"right_child":{"split_feature":12,"threshold":1.4843750000000002,"default_left":true,"left_child":{"leaf_value":-0.11062358598455395},"right_child":{"leaf_value":-0.000636442543629022}}},"right_child":{"split_feature":21,"threshold":1.0000000180025095e-35,"default_left":false,"left_child":{"split_feature":14,"threshold":1524.2750000000003,"default_left":true,"left_child":{"leaf_value":-0.04510587750457376},"right_child":{"leaf_value":-0.17115239717603567}},"right_child":{"split_feature":13,"threshold":1.1180555555555556,"default_left":true,"left_child":{"split_feature":2,"threshold":0.9311284969179706,"default_left":true,"left_child":{"leaf_value":-0.06304287197928445},"right_child":{"leaf_value":0.01327786468634887}},"right_child":{"split_feature":14,"threshold":1521.6250000000002,"default_left":true,"left_child":{"leaf_value":-0.12579950734773562},"right_child":{"leaf_value":0}}}}},"right_child":{"split_feature":28,"threshold":36.66666666666667,"default_left":true,"left_child":{"leaf_value":-0.021476631699953164},"right_child":{"leaf_value":-0.1574131814639749}}}},"right_child":{"split_feature":5,"threshold":1.1833333333333336,"default_left":true,"left_child":{"split_feature":1,"threshold":114.50000000000001,"default_left":true,"left_child":{"leaf_value":0.01772441775107955},"right_child":{"split_feature":33,"threshold":90.00000000000001,"default_left":false,"left_child":{"leaf_value":-0.05501822294952308},"right_child":{"leaf_value":0.0019018145824011429}}},"right_child":{"split_feature":15,"threshold":1600.575,"default_left":true,"left_child":{"leaf_value":-0.042666889769395186},"right_child":{"leaf_value":0.019754125488176705}}}}}},"right_child":{"leaf_value":-0.006576417977093797}}},"right_child":{"split_feature":25,"threshold":22.500000000000004,"default_left":true,"left_child":{"split_feature":13,"threshold":0.7578125000000001,"default_left":true,"left_child":{"split_feature":4,"threshold":1.4722222222222225,"default_left":true,"left_child":{"split_feature":13,"threshold":0.36607142857142855,"default_left":true,"left_child":{"leaf_value":0.017935958219712982},"right_child":{"split_feature":2,"threshold":0.9664986935423666,"default_left":true,"left_child":{"leaf_value":-0.0033469959339410653},"right_child":{"leaf_value":-0.13800563596043092}}},"right_child":{"leaf_value":-0.19860198404733342}},"right_child":{"leaf_value":-0.014876722714600648}},"right_child":{"split_feature":12,"threshold":2.590277777777778,"default_left":true,"left_child":{"leaf_value":-0.00490197030309801},"right_child":{"split_feature":29,"threshold":1.0000000180025095e-35,"default_left":true,"left_child":{"split_feature":28,"threshold":77.50000000000001,"default_left":true,"left_child":{"leaf_value":-0.1609046266609952},"right_child":{"leaf_value":-0.01635418071143674}},"right_child":{"leaf_value":-0.008873172507309617}}}}},"right_child":{"split_feature":24,"threshold":4.550000000000001,"default_left":false,"left_child":{"leaf_value":0.011055437938459067},"right_child":{"split_feature":8,"threshold":0.8944444444444445,"default_left":true,"left_child":{"leaf_value":0.03818491290935832},"right_child":{"split_feature":11,"threshold":11.500000000000002,"default_left":true,"left_child":{"split_feature":14,"threshold":1629.785,"default_left":true,"left_child":{"leaf_value":-0.06133943580206061},"right_child":{"leaf_value":0.04363437847049708}},"right_child":{"leaf_value":-0.14488582132204775}}}}},"right_child":{"split_feature":0,"threshold":2006.5000000000002,"default_left":true,"left_child":{"leaf_value":-0.01131133582030041},"right_child":{"split_feature":1,"threshold":91.00000000000001,"default_left":true,"left_child":{"split_feature":1,"threshold":69.50000000000001,"default_left":true,"left_child":{"split_feature":3,"threshold":1.7645576707726767,"default_left":true,"left_child":{"leaf_value":0.0068460019821957015},"right_child":{"split_feature":14,"threshold":1608.7600000000002,"default_left":true,"left_child":{"split_feature":14,"threshold":1568.2700000000002,"default_left":true,"left_child":{"split_feature":29,"threshold":63.333333333333336,"default_left":true,"left_child":{"leaf_value":0.010529797771928057},"right_child":{"leaf_value":-0.09211165882564999}},"right_child":{"split_feature":28,"threshold":22.500000000000004,"default_left":true,"left_child":{"leaf_value":-0.021111520624421124},"right_child":{"split_feature":21,"threshold":36.66666666666667,"default_left":false,"left_child":{"leaf_value":-0.1623222192399462},"right_child":{"leaf_value":-0.053939742028521774}}}},"right_child":{"leaf_value":-0.0018406824830411513}}},"right_child":{"leaf_value":0.011883194963573944}},"right_child":{"leaf_value":-0.005962267277440319}}}},"right_child":{"leaf_value":0.004690298576967443}}},"right_child":{"split_feature":16,"threshold":361.37000000000006,"default_left":true,"left_child":{"leaf_value":0.015311512003891478},"right_child":{"split_feature":0,"threshold":2001.5000000000002,"default_left":true,"left_child":{"leaf_value":-0.025561618022838174},"right_child":{"leaf_value":0.035675315573261514}}}}},{"tree_index":2,"shrinkage":0.0500788,"tree_structure":{"split_feature":6,"threshold":1.7071428571428573,"default_left":true,"left_child":{"split_feature":24,"threshold":2.9000000000000004,"default_left":true,"left_child":{"split_feature":9,"threshold":1.3541666666666667,"default_left":true,"left_child":{"split_feature":8,"threshold":1.3875000000000002,"default_left":true,"left_child":{"split_feature":14,"threshold":1714.3950000000002,"default_left":true,"left_child":{"split_feature":27,"threshold":1.5000000000000002,"default_left":true,"left_child":{"split_feature":1,"threshold":69.50000000000001,"default_left":true,"left_child":{"split_feature":25,"threshold":29.166666666666668,"default_left":false,"left_child":{"split_feature":20,"threshold":2.5000000000000004,"default_left":true,"left_child":{"split_feature":0,"threshold":2003.5000000000002,"default_left":true,"left_child":{"split_feature":8,"threshold":1.0500000000000003,"default_left":true,"left_child":{"leaf_value":0.0377991942253186},"right_child":{"leaf_value":-0.0739232826765079}},"right_child":{"split_feature":14,"threshold":1574.9950000000001,"default_left":true,"left_child":{"leaf_value":-0.006343114917110673},"right_child":{"split_feature":1,"threshold":50.00000000000001,"default_left":true,"left_child":{"leaf_value":-0.015635706365250263},"right_child":{"leaf_value":-0.15823431029818769}}}},"right_child":{"leaf_value":-0.14708746192649208}},"right_child":{"split_feature":14,"threshold":1649.1250000000002,"default_left":true,"left_child":{"leaf_value":-0.046149067171282844},"right_child":{"leaf_value":0.004415728158926505}}},"right_child":{"split_feature":3,"threshold":1.3165485829959516,"default_left":true,"left_child":{"split_feature":12,"threshold":0.36607142857142855,"default_left":true,"left_child":{"leaf_value":-0.08226901068400631},"right_child":{"leaf_value":0.006050117662753158}},"right_child":{"leaf_value":-0.0367662568043609}}},"right_child":{"split_feature":11,"threshold":6.500000000000001,"default_left":true,"left_child":{"split_feature":7,"threshold":0.9500000000000001,"default_left":true,"left_child":{"split_feature":31,"threshold":2.9000000000000004,"default_left":true,"left_child":{"split_feature":13,"threshold":1.1796875000000002,"default_left":true,"left_child":{"split_feature":0,"threshold":2011.5000000000002,"default_left":true,"left_child":{"leaf_value":-0.1303462893078616},"right_child":{"leaf_value":-0.0017105682940358627}},"right_child":{"leaf_value":0.008319811364992612}},"right_child":{"leaf_value":-0.1795397313124306}},"right_child":{"split_feature":12,"threshold":0.9921875000000001,"default_left":true,"left_child":{"split_feature":2,"threshold":0.9038820455393805,"default_left":true,"left_child":{"split_feature":21,"threshold":36.66666666666667,"default_left":false,"left_child":{"leaf_value":0.013002290347379005},"right_child":{"split_feature":30,"threshold":1.0000000180025095e-35,"default_left":true,"left_child":{"leaf_value":0.0161622118520906},"right_child":{"leaf_value":-0.1157938181445449}}},"right_child":{"split_feature":28,"threshold":55.00000000000001,"default_left":true,"left_child":{"leaf_value":-0.13705508200614167},"right_child":{"leaf_value":-0.01359567389910909}}},"right_child":{"split_feature":8,"threshold":1.0500000000000003,"default_left":true,"left_child":{"leaf_value":-0.028130232039317454},"right_child":{"leaf_value":0.009641650747477838}}}},"right_child":{"split_feature":11,"threshold":13.500000000000002,"default_left":true,"left_child":{"leaf_value":-0.003793064129094432},"right_child":{"split_feature":33,"threshold":1.0000000180025095e-35,"default_left":true,"left_child":{"leaf_value":0.03173302787099367},"right_child":{"split_feature":0,"threshold":2019.5000000000002,"default_left":true,"left_child":{"leaf_value":-0.03064709124900925},"right_child":{"split_feature":33,"threshold":55.00000000000001,"default_left":true,"left_child":{"leaf_value":-0.0436614771529767},"right_child":{"leaf_value":-0.17774026878765997}}}}}}},"right_child":{"split_feature":2,"threshold":1.486842105263158,"default_left":true,"left_child":{"split_feature":11,"threshold":3.5000000000000004,"default_left":true,"left_child":{"split_feature":2,"threshold":1.2400426742532005,"default_left":true,"left_child":{"leaf_value":-0.12484653222816625},"right_child":{"leaf_value":0.02665445567659271}},"right_child":{"leaf_value":0.01887850193276241}},"right_child":{"split_feature":13,"threshold":1.0747767857142858,"default_left":true,"left_child":{"split_feature":6,"threshold":1.4722222222222225,"default_left":true,"left_child":{"split_feature":25,"threshold":45.00000000000001,"default_left":false,"left_child":{"leaf_value":-0.02380871515511593},"right_child":{"split_feature":29,"threshold":29.166666666666668,"default_left":false,"left_child":{"leaf_value":-0.1643080000651061},"right_child":{"leaf_value":-0.030948190995826203}}},"right_child":{"leaf_value":-0.00493432990913927}},"right_child":{"leaf_value":0.0044873924869963475}}}},"right_child":{"leaf_value":-0.006195598130377242}},"right_child":{"split_feature":14,"threshold":1733.4650000000004,"default_left":true,"left_child":{"split_feature":15,"threshold":1751.0250000000003,"default_left":true,"left_child":{"split_feature":29,"threshold":90.00000000000001,"default_left":true,"left_child":{"split_feature":15,"threshold":1611.4750000000001,"default_left":true,"left_child":{"split_feature":1,"threshold":91.00000000000001,"default_left":true,"left_child":{"split_feature":15,"threshold":1563.8150000000003,"default_left":true,"left_child":{"leaf_value":0.014590525954608281},"right_child":{"split_feature":24,"threshold":0.2916666666666667,"default_left":true,"left_child":{"split_feature":10,"threshold":6.500000000000001,"default_left":true,"left_child":{"leaf_value":-0.11553118734532958},"right_child":{"leaf_value":-0.027382239779643908}},"right_child":{"split_feature":2,"threshold":0.4844713134186818,"default_left":true,"left_child":{"leaf_value":-0.0806793416220022},"right_child":{"leaf_value":0.00542412002902996}}}},"right_child":{"split_feature":28,"threshold":77.50000000000001,"default_left":false,"left_child":{"split_feature":15,"threshold":1549.3400000000001,"default_left":true,"left_child":{"split_feature":0,"threshold":2021.5000000000002,"default_left":true,"left_child":{"split_feature":9,"threshold":1.8944444444444446,"default_left":true,"left_child":{"split_feature":31,"threshold":0.7750000000000001,"default_left":true,"left_child":{"leaf_value":0.044105497130619675},"right_child":{"split_feature":8,"threshold":0.9500000000000001,"default_left":true,"left_child":{"split_feature":0,"threshold":2007.5000000000002,"default_left":true,"left_child":{"leaf_value":-0.01260283650248548},"right_child":{"split_feature":13,"threshold":0.9487847222222223,"default_left":true,"left_child":{"split_feature":15,"threshold":1436.515,"default_left":true,"left_child":{"split_feature":21,"threshold":29.166666666666668,"default_left":true,"left_child":{"leaf_value":-0.1405143284027377},"right_child":{"leaf_value":0.004956219351070478}},"right_child":{"split_feature":32,"threshold":55.00000000000001,"default_left":true,"left_child":{"leaf_value":-0.24150860305699853},"right_child":{"leaf_value":-0.09226111544425657}}},"right_child":{"leaf_value":-0.0064446576787099245}}},"right_child":{"split_feature":10,"threshold":7.500000000000001,"default_left":true,"left_child":{"leaf_value":-0.009941398120019247},"right_child":{"split_feature":32,"threshold":45.00000000000001,"default_left":false,"left_child":{"leaf_value":-0.14079459731483268},"right_child":{"leaf_value":-0.024437991945510638}}}}},"right_child":{"leaf_value":-0.006699101989035069}},"right_child":{"leaf_value":0.032456200871380736}},"right_child":{"leaf_value":-0.0013126466616373755}},"right_child":{"leaf_value":-0.0015070938368766144}}},"right_child":{"split_feature":1,"threshold":69.50000000000001,"default_left":true,"left_child":{"split_feature":15,"threshold":1637.0850000000003,"default_left":true,"left_child":{"split_feature":8,"threshold":1.1339285714285716,"default_left":true,"left_child":{"split_feature":3,"threshold":0.870380739081747,"default_left":true,"left_child":{"split_feature":14,"threshold":1677.6350000000004,"default_left":true,"left_child":{"leaf_value":-0.0041325785284995935},"right_child":{"leaf_value":-0.09849508673227253}},"right_child":{"split_feature":33,"threshold":22.500000000000004,"default_left":true,"left_child":{"leaf_value":-0.040398915583038694},"right_child":{"leaf_value":-0.2101828236295019}}},"right_child":{"leaf_value":-0.009506149035812898}},"right_child":{"split_feature":0,"threshold":2016.5000000000002,"default_left":true,"left_child":{"leaf_value":-0.027667123849468216},"right_child":{"leaf_value":0.013386620318048409}}},"right_child":{"split_feature":0,"threshold":2010.5000000000002,"default_left":true,"left_child":{"leaf_value":0.005808698844486739},"right_child":{"leaf_value":-0.01736733107436561}}}},"right_child":{"leaf_value":0.021994599528031566}},"right_child":{"leaf_value":0.020431377141362443}},"right_child":{"leaf_value":0.014523446537944835}}},"right_child":{"split_feature":8,"threshold":2.154761904761905,"default_left":true,"left_child":{"split_feature":6,"threshold":1.0500000000000003,"default_left":true,"left_child":{"split_feature":0,"threshold":2007.5000000000002,"default_left":true,"left_child":{"split_feature":11,"threshold":69.50000000000001,"default_left":true,"left_child":{"leaf_value":-0.0194250978201066},"right_child":{"leaf_value":-0.1249678256924046}},"right_child":{"leaf_value":-0.0009248968322712438}},"right_child":{"leaf_value":0.005737267476308589}},"right_child":{"split_feature":0,"threshold":2014.5000000000002,"default_left":true,"left_child":{"leaf_value":0.008702145934661273},"right_child":{"leaf_value":0.03519651396094}}}},"right_child":{"split_feature":9,"threshold":1.0500000000000003,"default_left":true,"left_child":{"leaf_value":0.0029597190417048115},"right_child":{"split_feature":6,"threshold":2.4142857142857146,"default_left":true,"left_child":{"leaf_value":0.016349279432460513},"right_child":{"leaf_value":0.035571829752249526}}}}},{"tree_index":3,"shrinkage":0.0500788,"tree_structure":{"split_feature":16,"threshold":258.3100000000001,"default_left":true,"left_child":{"split_feature":16,"threshold":-112.98,"default_left":true,"left_child":{"leaf_value":0.015661206603162798},"right_child":{"split_feature":6,"threshold":1.2111111111111115,"default_left":true,"left_child":{"split_feature":9,"threshold":1.2111111111111115,"default_left":true,"left_child":{"split_feature":24,"threshold":3.1000000000000005,"default_left":true,"left_child":{"split_feature":0,"threshold":2000.5000000000002,"default_left":true,"left_child":{"leaf_value":0.020205788453056362},"right_child":{"split_feature":30,"threshold":22.500000000000004,"default_left":true,"left_child":{"split_feature":6,"threshold":1.1055555555555558,"default_left":true,"left_child":{"split_feature":2,"threshold":1.0811403508771933,"default_left":true,"left_child":{"split_feature":16,"threshold":48.05499999999996,"default_left":true,"left_child":{"split_feature":24,"threshold":2.4500000000000006,"default_left":true,"left_child":{"split_feature":6,"threshold":0.6125000000000002,"default_left":true,"left_child":{"leaf_value":-0.005189999482867085},"right_child":{"split_feature":3,"threshold":1.1514844804318491,"default_left":true,"left_child":{"leaf_value":0.0034287140198621473},"right_child":{"split_feature":0,"threshold":2008.5000000000002,"default_left":true,"left_child":{"split_feature":6,"threshold":1.0500000000000003,"default_left":true,"left_child":{"split_feature":25,"threshold":29.166666666666668,"default_left":true,"left_child":{"split_feature":14,"threshold":1626.0850000000003,"default_left":true,"left_child":{"leaf_value":-0.15061827360855068},"right_child":{"leaf_value":-0.002053165297355381}},"right_child":{"leaf_value":-0.01725047256839972}},"right_child":{"leaf_value":-0.22606211060084555}},"right_child":{"split_feature":13,"threshold":1.0390625000000002,"default_left":true,"left_child":{"split_feature":0,"threshold":2014.5000000000002,"default_left":true,"left_child":{"leaf_value":-0.1882038584829419},"right_child":{"leaf_value":-0.028148107814252712}},"right_child":{"leaf_value":-0.027707778890354584}}}}},"right_child":{"leaf_value":-0.004597647347292906}},"right_child":{"leaf_value":-0.0036597014258756065}},"right_child":{"split_feature":8,"threshold":1.3875000000000002,"default_left":true,"left_child":{"split_feature":4,"threshold":1.1833333333333336,"default_left":true,"left_child":{"split_feature":25,"threshold":36.66666666666667,"default_left":false,"left_child":{"leaf_value":-0.028140697494224994},"right_child":{"split_feature":33,"threshold":36.66666666666667,"default_left":true,"left_child":{"leaf_value":-0.2043608383462423},"right_child":{"leaf_value":-0.06876271908727517}}},"right_child":{"split_feature":23,"threshold":1.0000000180025095e-35,"default_left":false,"left_child":{"split_feature":0,"threshold":2018.5000000000002,"default_left":true,"left_child":{"split_feature":9,"threshold":1.1833333333333336,"default_left":true,"left_child":{"leaf_value":-0.11605426469663079},"right_child":{"leaf_value":-0.023911581827622222}},"right_child":{"leaf_value":0.0072125460187027}},"right_child":{"split_feature":2,"threshold":1.4496457489878545,"default_left":true,"left_child":{"leaf_value":0.0032939734143128743},"right_child":{"leaf_value":-0.05909406616229379}}}},"right_child":{"split_feature":28,"threshold":63.333333333333336,"default_left":false,"left_child":{"split_feature":6,"threshold":1.0500000000000003,"default_left":true,"left_child":{"split_feature":14,"threshold":1549.8000000000002,"default_left":true,"left_child":{"leaf_value":-0.08472915339703097},"right_child":{"leaf_value":-0.0015202189265626227}},"right_child":{"split_feature":14,"threshold":1633.4150000000002,"default_left":true,"left_child":{"leaf_value":-0.0013126141963630698},"right_child":{"leaf_value":-0.13252360406993474}}},"right_child":{"leaf_value":0.010487085653067454}}}},"right_child":{"leaf_value":-0.0071021203615829155}},"right_child":{"split_feature":9,"threshold":0.5857142857142857,"default_left":true,"left_child":{"split_feature":7,"threshold":1.4722222222222225,"default_left":true,"left_child":{"leaf_value":-0.026981814011305106},"right_child":{"leaf_value":-0.1325892904019403}},"right_child":{"leaf_value":-0.009298491962625261}}}},"right_child":{"split_feature":20,"threshold":1.5000000000000002,"default_left":true,"left_child":{"split_feature":16,"threshold":9.975000000000025,"default_left":true,"left_child":{"leaf_value":-0.10285760135424327},"right_child":{"leaf_value":0.0003669767875730821}},"right_child":{"split_feature":12,"threshold":1.4140625000000002,"default_left":true,"left_child":{"split_feature":14,"threshold":1596.5850000000003,"default_left":true,"left_child":{"leaf_value":0.013308333116988313},"right_child":{"split_feature":14,"threshold":1624.7750000000003,"default_left":true,"left_child":{"split_feature":11,"threshold":6.500000000000001,"default_left":true,"left_child":{"leaf_value":-0.0011570249516409472},"right_child":{"leaf_value":-0.11737958188722362}},"right_child":{"split_feature":28,"threshold":1.0000000180025095e-35,"default_left":true,"left_child":{"leaf_value":-0.0602103607721426},"right_child":{"leaf_value":0.0027456850514766037}}}},"right_child":{"leaf_value":0.020294712625258}}}},"right_child":{"split_feature":0,"threshold":2014.5000000000002,"default_left":true,"left_child":{"split_feature":14,"threshold":1644.2550000000003,"default_left":true,"left_child":{"split_feature":14,"threshold":1387.4550000000002,"default_left":true,"left_child":{"leaf_value":0.01798553530020913},"right_child":{"split_feature":21,"threshold":63.333333333333336,"default_left":true,"left_child":{"split_feature":2,"threshold":0.7386133603238868,"default_left":true,"left_child":{"leaf_value":-0.004916131107786751},"right_child":{"split_feature":24,"threshold":3.1000000000000005,"default_left":true,"left_child":{"split_feature":8,"threshold":1.3166666666666669,"default_left":true,"left_child":{"split_feature":0,"threshold":2008.5000000000002,"default_left":true,"left_child":{"split_feature":1,"threshold":69.50000000000001,"default_left":true,"left_child":{"split_feature":0,"threshold":2002.5000000000002,"default_left":true,"left_child":{"leaf_value":-0.011877966008851324},"right_child":{"leaf_value":-0.08988548969211392}},"right_child":{"split_feature":14,"threshold":1607.4350000000002,"default_left":true,"left_child":{"split_feature":25,"threshold":90.00000000000001,"default_left":true,"left_child":{"split_feature":33,"threshold":1.0000000180025095e-35,"default_left":false,"left_child":{"leaf_value":-0.05579117281477675},"right_child":{"leaf_value":0.004170640411964948}},"right_child":{"leaf_value":-0.11569114536852544}},"right_child":{"leaf_value":0.03628499637309476}}},"right_child":{"split_feature":28,"threshold":63.333333333333336,"default_left":true,"left_child":{"split_feature":16,"threshold":124.70499999999994,"default_left":true,"left_child":{"split_feature":3,"threshold":0.9232922732362822,"default_left":true,"left_child":{"split_feature":16,"threshold":109.44499999999995,"default_left":true,"left_child":{"split_feature":16,"threshold":43.69999999999994,"default_left":true,"left_child":{"leaf_value":-0.19770866412632931},"right_child":{"leaf_value":-0.042058606579933176}},"right_child":{"leaf_value":-0.24126819804273392}},"right_child":{"split_feature":16,"threshold":108.2850000000001,"default_left":true,"left_child":{"leaf_value":-0.07199406317078096},"right_child":{"leaf_value":0.02680665114020968}}},"right_child":{"leaf_value":-0.022210840875723215}},"right_child":{"leaf_value":0.019813392201515276}}},"right_child":{"split_feature":33,"threshold":77.50000000000001,"default_left":true,"left_child":{"split_feature":5,"threshold":1.788888888888889,"default_left":true,"left_child":{"leaf_value":0.0018719703573657294},"right_child":{"split_feature":23,"threshold":45.00000000000001,"default_left":false,"left_child":{"leaf_value":-0.10349226693851328},"right_child":{"leaf_value":0.02826915512319768}}},"right_child":{"split_feature":3,"threshold":1.4128711201079625,"default_left":true,"left_child":{"leaf_value":-0.14575534358443276},"right_child":{"leaf_value":-0.008637405923228954}}}},"right_child":{"leaf_value":-0.003690568512197165}}},"right_child":{"leaf_value":0.012180890376046942}}},"right_child":{"leaf_value":-0.0019344715094296546}},"right_child":{"split_feature":3,"threshold":1.3257422402159247,"default_left":true,"left_child":{"leaf_value":-0.003730594698801829},"right_child":{"split_feature":5,"threshold":1.6833333333333336,"default_left":true,"left_child":{"leaf_value":0.024569496150552133},"right_child":{"split_feature":8,"threshold":1.6833333333333336,"default_left":true,"left_child":{"leaf_value":-0.05542799921411218},"right_child":{"leaf_value":0.008672039496716775}}}}}},"right_child":{"split_feature":33,"threshold":55.00000000000001,"default_left":true,"left_child":{"split_feature":9,"threshold":1.1055555555555558,"default_left":true,"left_child":{"split_feature":13,"threshold":1.3229166666666667,"default_left":true,"left_child":{"split_feature":0,"threshold":2020.5000000000002,"default_left":true,"left_child":{"leaf_value":-0.026684619323238967},"right_child":{"leaf_value":0.02588169383395181}},"right_child":{"leaf_value":-0.0024948566123811026}},"right_child":{"split_feature":8,"threshold":0.5857142857142857,"default_left":true,"left_child":{"split_feature":12,"threshold":1.9531250000000002,"default_left":true,"left_child":{"split_feature":30,"threshold":29.166666666666668,"default_left":true,"left_child":{"leaf_value":0.033866149240141925},"right_child":{"leaf_value":-0.0761565857954088}},"right_child":{"split_feature":30,"threshold":45.00000000000001,"default_left":false,"left_child":{"leaf_value":-0.16331033677612994},"right_child":{"leaf_value":-0.027428448531910093}}},"right_child":{"leaf_value":0.0014205699510293252}}},"right_child":{"leaf_value":0.006768396855686494}}}},"right_child":{"split_feature":16,"threshold":361.37000000000006,"default_left":true,"left_child":{"leaf_value":0.014329659929614358},"right_child":{"leaf_value":0.03268863930697665}}}},{"tree_index":4,"shrinkage":0.0500788,"tree_structure":{"split_feature":16,"threshold":289.39000000000016,"default_left":true,"left_child":{"split_feature":16,"threshold":-112.98,"default_left":true,"left_child":{"leaf_value":0.01508359895656067},"right_child":{"split_feature":16,"threshold":162.61500000000004,"default_left":true,"left_child":{"split_feature":8,"threshold":1.2361111111111114,"default_left":true,"left_child":{"split_feature":2,"threshold":1.0723217618514373,"default_left":true,"left_child":{"split_feature":0,"threshold":2001.5000000000002,"default_left":true,"left_child":{"leaf_value":0.018971265872358662},"right_child":{"split_feature":21,"threshold":55.00000000000001,"default_left":true,"left_child":{"split_feature":9,"threshold":1.9500000000000002,"default_left":true,"left_child":{"leaf_value":-0.014799727821993701},"right_child":{"split_feature":2,"threshold":0.8026315789473685,"default_left":true,"left_child":{"leaf_value":-0.010302578179915822},"right_child":{"leaf_value":0.03099347572579726}}},"right_child":{"split_feature":24,"threshold":1.7083333333333337,"default_left":true,"left_child":{"split_feature":9,"threshold":1.2928571428571431,"default_left":true,"left_child":{"leaf_value":-0.09227778592417517},"right_child":{"leaf_value":0.011716480694183242}},"right_child":{"leaf_value":0.01437846019797089}}}},"right_child":{"split_feature":31,"threshold":1.9000000000000001,"default_left":true,"left_child":{"split_feature":9,"threshold":0.7071428571428572,"default_left":true,"left_child":{"split_feature":28,"threshold":1.0000000180025095e-35,"default_left":false,"left_child":{"leaf_value":0.013256329000684526},"right_child":{"split_feature":26,"threshold":55.00000000000001,"default_left":true,"left_child":{"split_feature":9,"threshold":0.5857142857142857,"default_left":true,"left_child":{"leaf_value":-0.023790621719149082},"right_child":{"split_feature":2,"threshold":1.3289473684210529,"default_left":true,"left_child":{"leaf_value":-0.047686839106323806},"right_child":{"leaf_value":-0.1744018359764209}}},"right_child":{"leaf_value":-0.0012717880636136797}}},"right_child":{"split_feature":21,"threshold":36.66666666666667,"default_left":false,"left_child":{"split_feature":31,"threshold":1.6333333333333335,"default_left":true,"left_child":{"split_feature":13,"threshold":0.8897569444444445,"default_left":true,"left_child":{"split_feature":31,"threshold":1.1000000000000003,"default_left":true,"left_child":{"split_feature":11,"threshold":7.500000000000001,"default_left":true,"left_child":{"leaf_value":-0.014540613755548305},"right_child":{"split_feature":23,"threshold":63.333333333333336,"default_left":false,"left_child":{"split_feature":23,"threshold":22.500000000000004,"default_left":true,"left_child":{"leaf_value":-0.06403686365225435},"right_child":{"leaf_value":-0.1945218064160423}},"right_child":{"leaf_value":0.018011539619053572}}},"right_child":{"split_feature":9,"threshold":1.6833333333333336,"default_left":true,"left_child":{"leaf_value":-0.1154996335303909},"right_child":{"leaf_value":-0.008546887898567335}}},"right_child":{"split_feature":26,"threshold":1.0000000180025095e-35,"default_left":true,"left_child":{"split_feature":3,"threshold":1.1973684210526316,"default_left":true,"left_child":{"leaf_value":0.017702829139884625},"right_child":{"split_feature":10,"threshold":6.500000000000001,"default_left":true,"left_child":{"leaf_value":-0.16260725648313795},"right_child":{"leaf_value":-0.03625100895249013}}},"right_child":{"leaf_value":0.010380225109111098}}},"right_child":{"split_feature":0,"threshold":2007.5000000000002,"default_left":true,"left_child":{"leaf_value":-0.16941238994387742},"right_child":{"split_feature":28,"threshold":36.66666666666667,"default_left":false,"left_child":{"leaf_value":-0.08608979406756545},"right_child":{"leaf_value":0.012185570127129428}}}},"right_child":{"split_feature":28,"threshold":36.66666666666667,"default_left":false,"left_child":{"leaf_value":0.02716876156894},"right_child":{"split_feature":3,"threshold":1.175557136083452,"default_left":true,"left_child":{"leaf_value":-0.007099414080589664},"right_child":{"split_feature":2,"threshold":1.2124060150375942,"default_left":true,"left_child":{"leaf_value":-0.11213355991121328},"right_child":{"leaf_value":-0.01925070989107944}}}}}},"right_child":{"split_feature":12,"threshold":2.590277777777778,"default_left":true,"left_child":{"split_feature":11,"threshold":13.500000000000002,"default_left":true,"left_child":{"split_feature":9,"threshold":0.5857142857142857,"default_left":true,"left_child":{"split_feature":32,"threshold":55.00000000000001,"default_left":true,"left_child":{"leaf_value":0.0074417709793174235},"right_child":{"leaf_value":-0.11560756873637489}},"right_child":{"split_feature":21,"threshold":45.00000000000001,"default_left":true,"left_child":{"leaf_value":-0.00019049768624822435},"right_child":{"split_feature":2,"threshold":1.5043859649122808,"default_left":true,"left_child":{"split_feature":15,"threshold":1712.6850000000002,"default_left":true,"left_child":{"split_feature":8,"threshold":1.0500000000000003,"default_left":true,"left_child":{"split_feature":3,"threshold":1.3165485829959516,"default_left":true,"left_child":{"split_feature":5,"threshold":1.0500000000000003,"default_left":true,"left_child":{"split_feature":15,"threshold":1471.9850000000004,"default_left":true,"left_child":{"leaf_value":-0.10234056826523741},"right_child":{"leaf_value":-0.00513790883652917}},"right_child":{"leaf_value":-0.09409456516275454}},"right_child":{"leaf_value":0.036741652157751645}},"right_child":{"split_feature":0,"threshold":2017.5000000000002,"default_left":true,"left_child":{"split_feature":31,"threshold":2.5500000000000003,"default_left":false,"left_child":{"leaf_value":-0.19337336679878522},"right_child":{"split_feature":16,"threshold":124.70499999999994,"default_left":true,"left_child":{"leaf_value":-0.1122069016236481},"right_child":{"leaf_value":0.01541821693453156}}},"right_child":{"leaf_value":0.028810043528207683}}},"right_child":{"leaf_value":0.02945148096742971}},"right_child":{"split_feature":26,"threshold":29.166666666666668,"default_left":true,"left_child":{"leaf_value":-0.06561450177910476},"right_child":{"leaf_value":0.021993803800768923}}}}},"right_child":{"split_feature":24,"threshold":3.366666666666667,"default_left":false,"left_child":{"split_feature":3,"threshold":1.6514844804318491,"default_left":true,"left_child":{"leaf_value":-0.05120400639455324},"right_child":{"leaf_value":0.022716898638271102}},"right_child":{"leaf_value":0.02622080865489769}}},"right_child":{"split_feature":29,"threshold":36.66666666666667,"default_left":true,"left_child":{"split_feature":26,"threshold":36.66666666666667,"default_left":true,"left_child":{"leaf_value":0.013678066017747716},"right_child":{"leaf_value":-0.10553827788235348}},"right_child":{"leaf_value":0.0036022233984866767}}}}},"right_child":{"split_feature":0,"threshold":2009.5000000000002,"default_left":true,"left_child":{"split_feature":2,"threshold":1.1973684210526316,"default_left":true,"left_child":{"split_feature":13,"threshold":2.086805555555556,"default_left":true,"left_child":{"leaf_value":-0.013867844339977977},"right_child":{"split_feature":15,"threshold":1615.6350000000004,"default_left":true,"left_child":{"leaf_value":-0.1499100479606528},"right_child":{"split_feature":12,"threshold":0.9921875000000001,"default_left":true,"left_child":{"split_feature":1,"threshold":83.00000000000001,"default_left":true,"left_child":{"leaf_value":-0.00882240426589776},"right_child":{"leaf_value":-0.1824124956302653}},"right_child":{"split_feature":20,"threshold":2.5000000000000004,"default_left":true,"left_child":{"leaf_value":-0.08549026984284885},"right_child":{"leaf_value":0.019494228145039757}}}}},"right_child":{"split_feature":1,"threshold":137.50000000000003,"default_left":true,"left_child":{"split_feature":9,"threshold":1.527777777777778,"default_left":true,"left_child":{"split_feature":31,"threshold":2.1000000000000005,"default_left":false,"left_child":{"split_feature":15,"threshold":1664.1300000000003,"default_left":true,"left_child":{"leaf_value":0.007823847241963208},"right_child":{"split_feature":21,"threshold":55.00000000000001,"default_left":true,"left_child":{"leaf_value":-0.04761169557328137},"right_child":{"leaf_value":0.025943827936862607}}},"right_child":{"leaf_value":-0.006145825878483208}},"right_child":{"leaf_value":0.01487461035239002}},"right_child":{"leaf_value":0.01783301511342708}}},"right_child":{"split_feature":1,"threshold":91.00000000000001,"default_left":true,"left_child":{"split_feature":1,"threshold":69.50000000000001,"default_left":true,"left_child":{"leaf_value":0.0007363853827866713},"right_child":{"leaf_value":0.01355111103210167}},"right_child":{"split_feature":3,"threshold":1.0643556005398114,"default_left":true,"left_child":{"split_feature":31,"threshold":2.9000000000000004,"default_left":false,"left_child":{"split_feature":16,"threshold":74.20499999999994,"default_left":true,"left_child":{"leaf_value":-0.015167738320342745},"right_child":{"split_feature":16,"threshold":124.70499999999994,"default_left":true,"left_child":{"leaf_value":-0.15704913820515662},"right_child":{"leaf_value":-0.025366979455596548}}},"right_child":{"leaf_value":0.022285543110437955}},"right_child":{"split_feature":31,"threshold":1.9000000000000001,"default_left":false,"left_child":{"split_feature":2,"threshold":0.8026315789473685,"default_left":true,"left_child":{"split_feature":0,"threshold":2017.5000000000002,"default_left":true,"left_child":{"leaf_value":0.01552495407129269},"right_child":{"leaf_value":-0.07434491243240927}},"right_child":{"leaf_value":0.027403971225009708}},"right_child":{"leaf_value":-0.00928540737343733}}}}}},"right_child":{"leaf_value":0.005181112773701901}}},"right_child":{"split_feature":12,"threshold":0.8897569444444445,"default_left":true,"left_child":{"leaf_value":-0.0654221212578683},"right_child":{"split_feature":16,"threshold":402.87000000000006,"default_left":true,"left_child":{"leaf_value":0.019893057139990955},"right_child":{"leaf_value":0.036531495438686945}}}}},{"tree_index":5,"shrinkage":0.0500788,"tree_structure":{"split_feature":16,"threshold":289.39000000000016,"default_left":true,"left_child":{"split_feature":16,"threshold":-117.97000000000001,"default_left":true,"left_child":{"split_feature":24,"threshold":1.9000000000000001,"default_left":false,"left_child":{"split_feature":29,"threshold":45.00000000000001,"default_left":false,"left_child":{"split_feature":2,"threshold":0.8349358974358975,"default_left":true,"left_child":{"leaf_value":0.0002521927284507125},"right_child":{"split_feature":12,"threshold":1.2968750000000002,"default_left":true,"left_child":{"leaf_value":-0.1690784972389065},"right_child":{"leaf_value":-0.017516665768197014}}},"right_child":{"leaf_value":0.013367199216368107}},"right_child":{"leaf_value":0.017484407967186956}},"right_child":{"split_feature":16,"threshold":162.61500000000004,"default_left":true,"left_child":{"split_feature":8,"threshold":1.2361111111111114,"default_left":true,"left_child":{"split_feature":7,"threshold":0.9500000000000001,"default_left":true,"left_child":{"split_feature":32,"threshold":1.0000000180025095e-35,"default_left":false,"left_child":{"split_feature":29,"threshold":36.66666666666667,"default_left":false,"left_child":{"split_feature":25,"threshold":45.00000000000001,"default_left":true,"left_child":{"split_feature":13,"threshold":0.6495535714285715,"default_left":true,"left_child":{"leaf_value":-0.07362927861939296},"right_child":{"leaf_value":0.015908350593508917}},"right_child":{"leaf_value":-0.1564393397938721}},"right_child":{"split_feature":13,"threshold":0.8897569444444445,"default_left":true,"left_child":{"leaf_value":-0.20140279880494708},"right_child":{"leaf_value":-0.05439421025214775}}},"right_child":{"split_feature":16,"threshold":84.56500000000007,"default_left":true,"left_child":{"split_feature":13,"threshold":0.5590277777777778,"default_left":true,"left_child":{"leaf_value":0.032352824962264035},"right_child":{"split_feature":32,"threshold":55.00000000000001,"default_left":false,"left_child":{"leaf_value":-0.007776993274485158},"right_child":{"split_feature":33,"threshold":77.50000000000001,"default_left":true,"left_child":{"split_feature":29,"threshold":29.166666666666668,"default_left":true,"left_child":{"split_feature":2,"threshold":1.4128711201079625,"default_left":true,"left_child":{"leaf_value":-0.2182680417629404},"right_child":{"split_feature":2,"threshold":1.6165413533834587,"default_left":true,"left_child":{"leaf_value":0.011551197006081404},"right_child":{"leaf_value":-0.1370920492430413}}},"right_child":{"leaf_value":-0.025847195736974464}},"right_child":{"leaf_value":0.02603891200090153}}}},"right_child":{"split_feature":2,"threshold":1.7645576707726767,"default_left":true,"left_child":{"split_feature":0,"threshold":2017.5000000000002,"default_left":true,"left_child":{"split_feature":24,"threshold":3.9000000000000004,"default_left":false,"left_child":{"split_feature":15,"threshold":1607.535,"default_left":true,"left_child":{"leaf_value":-0.007812765938022027},"right_child":{"split_feature":0,"threshold":2004.5000000000002,"default_left":true,"left_child":{"leaf_value":0.02264908120565792},"right_child":{"split_feature":3,"threshold":1.160678137651822,"default_left":true,"left_child":{"leaf_value":-0.0447995082430712},"right_child":{"leaf_value":-0.12413925067902523}}}},"right_child":{"leaf_value":0.024749753569881138}},"right_child":{"leaf_value":0.024559780348037203}},"right_child":{"leaf_value":0.017622870823081057}}}},"right_child":{"split_feature":5,"threshold":1.585714285714286,"default_left":true,"left_child":{"split_feature":15,"threshold":1718.4250000000004,"default_left":true,"left_child":{"split_feature":14,"threshold":1387.4550000000002,"default_left":true,"left_child":{"leaf_value":0.011869519578891558},"right_child":{"split_feature":14,"threshold":1714.3950000000002,"default_left":true,"left_child":{"split_feature":11,"threshold":81.50000000000001,"default_left":true,"left_child":{"split_feature":24,"threshold":1.7083333333333337,"default_left":true,"left_child":{"split_feature":0,"threshold":2003.5000000000002,"default_left":true,"left_child":{"split_feature":1,"threshold":50.00000000000001,"default_left":true,"left_child":{"split_feature":5,"threshold":1.0500000000000003,"default_left":true,"left_child":{"leaf_value":0.005080514339397505},"right_child":{"leaf_value":-0.09959713517564481}},"right_child":{"leaf_value":0.01933171382888713}},"right_child":{"split_feature":2,"threshold":1.545367324561404,"default_left":true,"left_child":{"leaf_value":-0.02196258981261185},"right_child":{"split_feature":32,"threshold":22.500000000000004,"default_left":false,"left_child":{"leaf_value":-0.15073545751530618},"right_child":{"leaf_value":-0.03264617391068307}}}},"right_child":{"split_feature":16,"threshold":124.70499999999994,"default_left":true,"left_child":{"split_feature":15,"threshold":1457.5450000000003,"default_left":true,"left_child":{"split_feature":13,"threshold":0.787326388888889,"default_left":true,"left_child":{"leaf_value":-0.004144749934825856},"right_child":{"split_feature":13,"threshold":1.3906250000000002,"default_left":true,"left_child":{"split_feature":28,"threshold":77.50000000000001,"default_left":false,"left_child":{"split_feature":6,"threshold":0.9500000000000001,"default_left":true,"left_child":{"leaf_value":-0.2025882318442526},"right_child":{"leaf_value":-0.047804104792736314}},"right_child":{"leaf_value":-0.031040001496654868}},"right_child":{"leaf_value":0.008926752299049032}}},"right_child":{"split_feature":15,"threshold":1623.575,"default_left":true,"left_child":{"leaf_value":-0.002615971779185269},"right_child":{"split_feature":3,"threshold":1.3717105263157896,"default_left":true,"left_child":{"split_feature":3,"threshold":1.2386133603238867,"default_left":true,"left_child":{"leaf_value":-0.017316133776008262},"right_child":{"leaf_value":-0.05032570947176821}},"right_child":{"leaf_value":0.008768624384392546}}}},"right_child":{"split_feature":28,"threshold":45.00000000000001,"default_left":false,"left_child":{"leaf_value":0.017834134984905964},"right_child":{"leaf_value":-0.009375849605470797}}}},"right_child":{"split_feature":4,"threshold":0.9500000000000001,"default_left":true,"left_child":{"leaf_value":0.011207829109359971},"right_child":{"split_feature":7,"threshold":1.585714285714286,"default_left":true,"left_child":{"split_feature":2,"threshold":1.3889284020862969,"default_left":true,"left_child":{"leaf_value":-0.17297719963706493},"right_child":{"leaf_value":-0.026350602889919087}},"right_child":{"leaf_value":0.00040491049817397996}}}},"right_child":{"split_feature":12,"threshold":2.1927083333333335,"default_left":true,"left_child":{"leaf_value":0.02570829692738143},"right_child":{"leaf_value":-0.051194221682595006}}}},"right_child":{"leaf_value":0.0064620976962529355}},"right_child":{"split_feature":3,"threshold":1.548245614035088,"default_left":true,"left_child":{"split_feature":15,"threshold":1630.7600000000002,"default_left":true,"left_child":{"leaf_value":0.010014861741927573},"right_child":{"leaf_value":-0.10485436671921172}},"right_child":{"split_feature":16,"threshold":105.56999999999995,"default_left":true,"left_child":{"split_feature":23,"threshold":55.00000000000001,"default_left":true,"left_child":{"split_feature":7,"threshold":1.1547619047619049,"default_left":true,"left_child":{"split_feature":22,"threshold":36.66666666666667,"default_left":true,"left_child":{"leaf_value":-0.13961267657214774},"right_child":{"leaf_value":-0.02147079070138464}},"right_child":{"split_feature":7,"threshold":2.183333333333334,"default_left":true,"left_child":{"leaf_value":-0.006648073304388292},"right_child":{"leaf_value":-0.07573256892349466}}},"right_child":{"split_feature":14,"threshold":1529.9250000000004,"default_left":true,"left_child":{"leaf_value":0.008956529297163819},"right_child":{"leaf_value":-0.09913809588271755}}},"right_child":{"leaf_value":0.007188383315737846}}}}},"right_child":{"split_feature":0,"threshold":2012.5000000000002,"default_left":true,"left_child":{"split_feature":6,"threshold":1.7071428571428573,"default_left":true,"left_child":{"leaf_value":-0.009806773848605331},"right_child":{"leaf_value":0.007366160866238728}},"right_child":{"leaf_value":0.003043179469383979}}},"right_child":{"split_feature":7,"threshold":2.183333333333334,"default_left":true,"left_child":{"split_feature":7,"threshold":1.1833333333333336,"default_left":true,"left_child":{"split_feature":14,"threshold":1461.515,"default_left":true,"left_child":{"leaf_value":-0.07229114714763263},"right_child":{"split_feature":24,"threshold":2.4500000000000006,"default_left":false,"left_child":{"leaf_value":-0.007785816107010961},"right_child":{"leaf_value":0.007703305147608222}}},"right_child":{"split_feature":15,"threshold":1810.1850000000002,"default_left":true,"left_child":{"split_feature":8,"threshold":1.527777777777778,"default_left":true,"left_child":{"leaf_value":0.00853291484997074},"right_child":{"leaf_value":0.031692208493731285}},"right_child":{"leaf_value":-0.07185240755393571}}},"right_child":{"split_feature":16,"threshold":180.52000000000012,"default_left":true,"left_child":{"leaf_value":0.03591341559628825},"right_child":{"leaf_value":-0.0578853684814639}}}}},"right_child":{"split_feature":6,"threshold":1.8660714285714288,"default_left":true,"left_child":{"split_feature":12,"threshold":0.8897569444444445,"default_left":true,"left_child":{"leaf_value":-0.06397382501569035},"right_child":{"split_feature":32,"threshold":45.00000000000001,"default_left":false,"left_child":{"leaf_value":0.02781387410220375},"right_child":{"split_feature":26,"threshold":70.83333333333334,"default_left":true,"left_child":{"split_feature":24,"threshold":3.2916666666666674,"default_left":true,"left_child":{"leaf_value":-0.00031930221473217983},"right_child":{"split_feature":24,"threshold":3.5500000000000003,"default_left":true,"left_child":{"leaf_value":-0.11925861383718428},"right_child":{"leaf_value":0.017381978338137802}}},"right_child":{"leaf_value":0.0288755020329355}}}},"right_child":{"leaf_value":0.02988612258823697}}}},{"tree_index":6,"shrinkage":0.0500788,"tree_structure":{"split_feature":6,"threshold":1.7071428571428573,"default_left":true,"left_child":{"split_feature":24,"threshold":2.9000000000000004,"default_left":true,"left_child":{"split_feature":9,"threshold":1.3541666666666667,"default_left":true,"left_child":{"split_feature":15,"threshold":1911.5700000000002,"default_left":true,"left_child":{"split_feature":1,"threshold":69.50000000000001,"default_left":true,"left_child":{"split_feature":0,"threshold":2009.5000000000002,"default_left":true,"left_child":{"split_feature":12,"threshold":1.8359375000000002,"default_left":true,"left_child":{"split_feature":23,"threshold":36.66666666666667,"default_left":false,"left_child":{"split_feature":7,"threshold":0.7888888888888891,"default_left":true,"left_child":{"leaf_value":-0.10662366657847255},"right_child":{"split_feature":12,"threshold":1.279513888888889,"default_left":true,"left_child":{"split_feature":14,"threshold":1615.5700000000002,"default_left":true,"left_child":{"split_feature":2,"threshold":0.5741502192982457,"default_left":true,"left_child":{"leaf_value":-0.0017827646115457832},"right_child":{"split_feature":15,"threshold":1674.9050000000004,"default_left":true,"left_child":{"leaf_value":-0.029506230429172504},"right_child":{"leaf_value":-0.15699376884181326}}},"right_child":{"leaf_value":-0.019884998877704677}},"right_child":{"split_feature":10,"threshold":14.500000000000002,"default_left":true,"left_child":{"leaf_value":0.0012189667458455734},"right_child":{"leaf_value":-0.08693263895012819}}}},"right_child":{"leaf_value":-0.0019487228166119978}},"right_child":{"split_feature":9,"threshold":0.6833333333333335,"default_left":true,"left_child":{"split_feature":30,"threshold":36.66666666666667,"default_left":true,"left_child":{"split_feature":15,"threshold":1748.9900000000002,"default_left":true,"left_child":{"leaf_value":-0.1759945918192615},"right_child":{"leaf_value":-0.04335545929700769}},"right_child":{"leaf_value":-0.015774101749184016}},"right_child":{"split_feature":21,"threshold":77.50000000000001,"default_left":false,"left_child":{"split_feature":32,"threshold":22.500000000000004,"default_left":true,"left_child":{"split_feature":10,"threshold":9.500000000000002,"default_left":true,"left_child":{"split_feature":31,"threshold":1.6333333333333335,"default_left":true,"left_child":{"split_feature":30,"threshold":29.166666666666668,"default_left":true,"left_child":{"leaf_value":-0.14680585625555834},"right_child":{"leaf_value":-0.03042308483327643}},"right_child":{"leaf_value":-0.033005918581930686}},"right_child":{"leaf_value":-0.008731764598221359}},"right_child":{"leaf_value":-0.029272861066352924}},"right_child":{"leaf_value":0.0017924475974317117}}}},"right_child":{"split_feature":21,"threshold":36.66666666666667,"default_left":false,"left_child":{"split_feature":15,"threshold":1576.2450000000001,"default_left":true,"left_child":{"split_feature":13,"threshold":1.0156250000000002,"default_left":true,"left_child":{"split_feature":31,"threshold":1.6333333333333335,"default_left":false,"left_child":{"leaf_value":0.046125585958936934},"right_child":{"leaf_value":-0.05428012706101013}},"right_child":{"split_feature":13,"threshold":1.3582589285714286,"default_left":true,"left_child":{"leaf_value":-0.21621631920796971},"right_child":{"leaf_value":-0.03294907209183337}}},"right_child":{"leaf_value":-0.011114346045086678}},"right_child":{"leaf_value":0.0035675805147664494}}},"right_child":{"split_feature":13,"threshold":0.8984375000000001,"default_left":true,"left_child":{"split_feature":4,"threshold":1.585714285714286,"default_left":true,"left_child":{"split_feature":14,"threshold":1717.2550000000003,"default_left":true,"left_child":{"split_feature":1,"threshold":91.00000000000001,"default_left":true,"left_child":{"split_feature":13,"threshold":0.7578125000000001,"default_left":true,"left_child":{"leaf_value":0.02723567129172041},"right_child":{"leaf_value":-0.030430307964369307}},"right_child":{"leaf_value":-0.02380593712541994}},"right_child":{"leaf_value":0.021975328897517146}},"right_child":{"split_feature":7,"threshold":1.4722222222222225,"default_left":true,"left_child":{"split_feature":12,"threshold":2.590277777777778,"default_left":true,"left_child":{"split_feature":15,"threshold":1736.8600000000001,"default_left":true,"left_child":{"leaf_value":-0.004721719614238993},"right_child":{"leaf_value":-0.08007869519639715}},"right_child":{"leaf_value":-0.08717237984415072}},"right_child":{"leaf_value":-0.11903202025340058}}},"right_child":{"split_feature":15,"threshold":1889.5050000000003,"default_left":true,"left_child":{"split_feature":6,"threshold":1.1055555555555558,"default_left":true,"left_child":{"split_feature":15,"threshold":1657.1750000000004,"default_left":true,"left_child":{"leaf_value":-0.02334957690792748},"right_child":{"leaf_value":-0.0007422382676203339}},"right_child":{"split_feature":4,"threshold":0.6833333333333335,"default_left":true,"left_child":{"leaf_value":-0.08020514028421852},"right_child":{"leaf_value":0.006782108290917163}}},"right_child":{"leaf_value":-0.05396893714317035}}}},"right_child":{"split_feature":3,"threshold":2.1239035087719302,"default_left":true,"left_child":{"split_feature":23,"threshold":36.66666666666667,"default_left":true,"left_child":{"leaf_value":0.015941446718490276},"right_child":{"leaf_value":-0.08332358245762783}},"right_child":{"leaf_value":0.025658859924291753}}},"right_child":{"split_feature":14,"threshold":1733.4650000000004,"default_left":true,"left_child":{"split_feature":15,"threshold":1751.0250000000003,"default_left":true,"left_child":{"split_feature":29,"threshold":90.00000000000001,"default_left":true,"left_child":{"split_feature":15,"threshold":1611.4750000000001,"default_left":true,"left_child":{"split_feature":1,"threshold":91.00000000000001,"default_left":true,"left_child":{"split_feature":15,"threshold":1563.8150000000003,"default_left":true,"left_child":{"leaf_value":0.013965779311666286},"right_child":{"split_feature":24,"threshold":0.2916666666666667,"default_left":true,"left_child":{"leaf_value":-0.050069195387631264},"right_child":{"split_feature":6,"threshold":0.5857142857142857,"default_left":true,"left_child":{"leaf_value":-0.08784195765985678},"right_child":{"leaf_value":0.005350549461824438}}}},"right_child":{"leaf_value":-0.012886801225088739}},"right_child":{"split_feature":14,"threshold":1568.2700000000002,"default_left":true,"left_child":{"leaf_value":0.012347329931249101},"right_child":{"split_feature":9,"threshold":1.9500000000000002,"default_left":true,"left_child":{"split_feature":30,"threshold":90.00000000000001,"default_left":true,"left_child":{"split_feature":24,"threshold":1.5500000000000003,"default_left":false,"left_child":{"split_feature":14,"threshold":1657.2350000000004,"default_left":true,"left_child":{"leaf_value":-0.015816204839246856},"right_child":{"split_feature":14,"threshold":1679.765,"default_left":true,"left_child":{"leaf_value":-0.14552968179719628},"right_child":{"leaf_value":-0.057773283805906364}}},"right_child":{"split_feature":14,"threshold":1683.6050000000002,"default_left":true,"left_child":{"split_feature":28,"threshold":70.83333333333334,"default_left":true,"left_child":{"split_feature":3,"threshold":0.9404520917678812,"default_left":true,"left_child":{"split_feature":14,"threshold":1607.4350000000002,"default_left":true,"left_child":{"leaf_value":-0.12353241041178006},"right_child":{"split_feature":31,"threshold":1.7083333333333337,"default_left":false,"left_child":{"leaf_value":0.025001557947623515},"right_child":{"leaf_value":-0.048523788358447825}}},"right_child":{"split_feature":15,"threshold":1641.8150000000003,"default_left":true,"left_child":{"split_feature":32,"threshold":55.00000000000001,"default_left":true,"left_child":{"split_feature":6,"threshold":0.9500000000000001,"default_left":true,"left_child":{"leaf_value":0.031854888735998475},"right_child":{"split_feature":21,"threshold":22.500000000000004,"default_left":true,"left_child":{"leaf_value":-0.09770160378765497},"right_child":{"leaf_value":0.013781061005671487}}},"right_child":{"split_feature":21,"threshold":36.66666666666667,"default_left":true,"left_child":{"leaf_value":-0.04554417622662362},"right_child":{"leaf_value":-0.18901369075937519}}},"right_child":{"leaf_value":-0.01061505892564877}}},"right_child":{"leaf_value":0.009835026750965}},"right_child":{"leaf_value":0.0006183133119477449}}},"right_child":{"leaf_value":0.018687608999193434}},"right_child":{"leaf_value":0.004564905238076315}}}},"right_child":{"leaf_value":0.021809428927275786}},"right_child":{"leaf_value":0.019709261824529662}},"right_child":{"leaf_value":0.013307110309151823}}},"right_child":{"split_feature":8,"threshold":2.154761904761905,"default_left":true,"left_child":{"split_feature":6,"threshold":1.0500000000000003,"default_left":true,"left_child":{"split_feature":0,"threshold":2007.5000000000002,"default_left":true,"left_child":{"split_feature":11,"threshold":69.50000000000001,"default_left":true,"left_child":{"leaf_value":-0.017045981917524353},"right_child":{"leaf_value":-0.10568643937943714}},"right_child":{"split_feature":15,"threshold":1411.2900000000002,"default_left":true,"left_child":{"split_feature":31,"threshold":0.9000000000000001,"default_left":true,"left_child":{"leaf_value":-0.12062050053111628},"right_child":{"leaf_value":-0.015123339228292353}},"right_child":{"leaf_value":0.001816472696739305}}},"right_child":{"leaf_value":0.0051697869516894816}},"right_child":{"split_feature":13,"threshold":1.0747767857142858,"default_left":true,"left_child":{"split_feature":0,"threshold":2008.5000000000002,"default_left":true,"left_child":{"leaf_value":-0.10619770184057506},"right_child":{"leaf_value":0.008619319207056605}},"right_child":{"leaf_value":0.02397813308937172}}}},"right_child":{"split_feature":9,"threshold":1.0500000000000003,"default_left":true,"left_child":{"leaf_value":0.0019760916100026167},"right_child":{"split_feature":6,"threshold":2.4142857142857146,"default_left":true,"left_child":{"leaf_value":0.014524354582702686},"right_child":{"leaf_value":0.03358691134493385}}}}},{"tree_index":7,"shrinkage":0.0500788,"tree_structure":{"split_feature":16,"threshold":289.39000000000016,"default_left":true,"left_child":{"split_feature":16,"threshold":-133.90499999999994,"default_left":true,"left_child":{"split_feature":13,"threshold":1.4609375000000002,"default_left":true,"left_child":{"leaf_value":0.03352893062921744},"right_child":{"split_feature":33,"threshold":22.500000000000004,"default_left":true,"left_child":{"split_feature":3,"threshold":1.723684210526316,"default_left":true,"left_child":{"leaf_value":-0.09980078502458298},"right_child":{"leaf_value":-0.002223774473314671}},"right_child":{"split_feature":25,"threshold":1.0000000180025095e-35,"default_left":true,"left_child":{"split_feature":3,"threshold":2.354010025062657,"default_left":true,"left_child":{"leaf_value":0.017091356970747325},"right_child":{"leaf_value":-0.08504599440566118}},"right_child":{"leaf_value":0.02142102776518018}}}},"right_child":{"split_feature":16,"threshold":162.61500000000004,"default_left":true,"left_child":{"split_feature":24,"threshold":3.1000000000000005,"default_left":true,"left_child":{"split_feature":9,"threshold":1.9500000000000002,"default_left":true,"left_child":{"split_feature":15,"threshold":1716.9950000000001,"default_left":true,"left_child":{"split_feature":9,"threshold":0.6833333333333335,"default_left":true,"left_child":{"split_feature":15,"threshold":1562.0650000000003,"default_left":true,"left_child":{"leaf_value":0.030894204298418663},"right_child":{"split_feature":13,"threshold":0.8984375000000001,"default_left":true,"left_child":{"leaf_value":-0.11302241163282412},"right_child":{"split_feature":32,"threshold":90.00000000000001,"default_left":false,"left_child":{"leaf_value":-0.01637288872370604},"right_child":{"leaf_value":-0.07096050023789892}}}},"right_child":{"split_feature":13,"threshold":1.779513888888889,"default_left":true,"left_child":{"split_feature":9,"threshold":1.2361111111111114,"default_left":true,"left_child":{"split_feature":16,"threshold":88.33499999999994,"default_left":true,"left_child":{"split_feature":16,"threshold":74.20499999999994,"default_left":true,"left_child":{"split_feature":15,"threshold":1495.555,"default_left":true,"left_child":{"leaf_value":0.014517351815335726},"right_child":{"split_feature":13,"threshold":1.7282986111111114,"default_left":true,"left_child":{"split_feature":24,"threshold":2.4500000000000006,"default_left":false,"left_child":{"split_feature":30,"threshold":45.00000000000001,"default_left":true,"left_child":{"split_feature":28,"threshold":22.500000000000004,"default_left":false,"left_child":{"split_feature":22,"threshold":77.50000000000001,"default_left":true,"left_child":{"split_feature":15,"threshold":1596.3700000000001,"default_left":true,"left_child":{"leaf_value":-0.104055991016095},"right_child":{"leaf_value":-0.014239731640744567}},"right_child":{"leaf_value":-0.12695395559866968}},"right_child":{"split_feature":31,"threshold":1.1000000000000003,"default_left":false,"left_child":{"leaf_value":-0.09027808552378178},"right_child":{"split_feature":15,"threshold":1693.2350000000004,"default_left":true,"left_child":{"leaf_value":-0.00597795937361277},"right_child":{"split_feature":4,"threshold":1.2928571428571431,"default_left":true,"left_child":{"split_feature":4,"threshold":0.8944444444444445,"default_left":true,"left_child":{"leaf_value":-0.018530811744839774},"right_child":{"leaf_value":-0.1390135730680358}},"right_child":{"leaf_value":-0.006619767563026669}}}}},"right_child":{"split_feature":16,"threshold":56.49500000000001,"default_left":true,"left_child":{"split_feature":15,"threshold":1577.9750000000001,"default_left":true,"left_child":{"leaf_value":-0.049450629610166066},"right_child":{"split_feature":3,"threshold":1.723684210526316,"default_left":true,"left_child":{"leaf_value":0.04165073404245111},"right_child":{"leaf_value":-0.04007099234626191}}},"right_child":{"leaf_value":-0.05650697494975341}}},"right_child":{"split_feature":21,"threshold":1.0000000180025095e-35,"default_left":true,"left_child":{"split_feature":26,"threshold":55.00000000000001,"default_left":true,"left_child":{"leaf_value":-0.010074584371178292},"right_child":{"leaf_value":-0.06738068065003587}},"right_child":{"leaf_value":0.005089262124317088}}},"right_child":{"split_feature":22,"threshold":55.00000000000001,"default_left":true,"left_child":{"leaf_value":-0.12076826083494045},"right_child":{"leaf_value":-0.01673632346032054}}}},"right_child":{"split_feature":7,"threshold":1.0500000000000003,"default_left":true,"left_child":{"split_feature":27,"threshold":4.500000000000001,"default_left":true,"left_child":{"leaf_value":-0.16391362165746587},"right_child":{"leaf_value":-0.0038236762173222685}},"right_child":{"split_feature":26,"threshold":55.00000000000001,"default_left":false,"left_child":{"leaf_value":-0.01482135941851659},"right_child":{"split_feature":10,"threshold":6.500000000000001,"default_left":true,"left_child":{"leaf_value":-0.1539726616092826},"right_child":{"split_feature":33,"threshold":36.66666666666667,"default_left":true,"left_child":{"leaf_value":0.027470110762468428},"right_child":{"leaf_value":-0.10578085461078403}}}}}},"right_child":{"split_feature":7,"threshold":1.9500000000000002,"default_left":true,"left_child":{"split_feature":2,"threshold":1.4762038073908177,"default_left":true,"left_child":{"split_feature":13,"threshold":0.17187499999999997,"default_left":true,"left_child":{"leaf_value":-0.08873881869883044},"right_child":{"split_feature":2,"threshold":1.3991228070175439,"default_left":true,"left_child":{"split_feature":26,"threshold":22.500000000000004,"default_left":true,"left_child":{"leaf_value":0.018069851110448617},"right_child":{"split_feature":4,"threshold":1.3875000000000002,"default_left":true,"left_child":{"split_feature":29,"threshold":22.500000000000004,"default_left":false,"left_child":{"split_feature":24,"threshold":2.5500000000000003,"default_left":true,"left_child":{"leaf_value":-0.011273834974026967},"right_child":{"leaf_value":0.03977836282178089}},"right_child":{"split_feature":16,"threshold":116.92499999999997,"default_left":true,"left_child":{"leaf_value":0.00537563641137706},"right_child":{"split_feature":3,"threshold":1.3777856804172595,"default_left":true,"left_child":{"leaf_value":-0.021467468460446216},"right_child":{"leaf_value":-0.1350354344816707}}}},"right_child":{"leaf_value":-0.08436095352103012}}},"right_child":{"leaf_value":0.04204449296258248}}},"right_child":{"split_feature":23,"threshold":45.00000000000001,"default_left":true,"left_child":{"split_feature":30,"threshold":1.0000000180025095e-35,"default_left":true,"left_child":{"leaf_value":-0.03343174621630482},"right_child":{"split_feature":2,"threshold":1.7294197031039136,"default_left":true,"left_child":{"leaf_value":-0.017536178450499464},"right_child":{"leaf_value":0.04636470438662011}}},"right_child":{"split_feature":11,"threshold":7.500000000000001,"default_left":true,"left_child":{"split_feature":32,"threshold":55.00000000000001,"default_left":true,"left_child":{"leaf_value":-0.12657381997945236},"right_child":{"leaf_value":-0.016134381099039287}},"right_child":{"leaf_value":0.008881253306892434}}}},"right_child":{"split_feature":2,"threshold":0.7386133603238868,"default_left":true,"left_child":{"leaf_value":-0.001276454938934545},"right_child":{"split_feature":21,"threshold":36.66666666666667,"default_left":false,"left_child":{"leaf_value":-0.01888441146751183},"right_child":{"leaf_value":-0.1286843709030541}}}}},"right_child":{"split_feature":16,"threshold":-39.7299999999999,"default_left":true,"left_child":{"leaf_value":0.02508741489943893},"right_child":{"split_feature":29,"threshold":90.00000000000001,"default_left":true,"left_child":{"leaf_value":-0.012160267378986216},"right_child":{"split_feature":16,"threshold":1.0000000180025095e-35,"default_left":true,"left_child":{"leaf_value":-0.061294857354624074},"right_child":{"leaf_value":0.025654111571297135}}}}},"right_child":{"leaf_value":0.0012943686154366454}}},"right_child":{"split_feature":9,"threshold":1.3166666666666669,"default_left":true,"left_child":{"split_feature":2,"threshold":0.3174692049272117,"default_left":true,"left_child":{"leaf_value":-0.08392728377822972},"right_child":{"leaf_value":-0.007679006906552817}},"right_child":{"split_feature":28,"threshold":45.00000000000001,"default_left":true,"left_child":{"leaf_value":0.014949665552556755},"right_child":{"leaf_value":-0.01065461870361918}}}},"right_child":{"split_feature":23,"threshold":45.00000000000001,"default_left":false,"left_child":{"split_feature":7,"threshold":2.535714285714286,"default_left":true,"left_child":{"leaf_value":0.018045459873297125},"right_child":{"leaf_value":-0.05836803493136885}},"right_child":{"leaf_value":-0.009588498501628665}}},"right_child":{"split_feature":31,"threshold":4.900000000000001,"default_left":false,"left_child":{"leaf_value":0.005172995584040038},"right_child":{"split_feature":15,"threshold":1509.7050000000002,"default_left":true,"left_child":{"split_feature":12,"threshold":1.7282986111111114,"default_left":true,"left_child":{"leaf_value":-0.01781358834381165},"right_child":{"split_feature":12,"threshold":2.0312500000000004,"default_left":true,"left_child":{"leaf_value":-0.1895143696312942},"right_child":{"leaf_value":-0.046455570577211794}}},"right_child":{"split_feature":25,"threshold":1.0000000180025095e-35,"default_left":true,"left_child":{"split_feature":2,"threshold":0.9128711201079623,"default_left":true,"left_child":{"leaf_value":0.024798726218322572},"right_child":{"leaf_value":-0.12476219933511874}},"right_child":{"split_feature":24,"threshold":3.366666666666667,"default_left":true,"left_child":{"leaf_value":-0.075841818844272},"right_child":{"leaf_value":0.0005024817081986868}}}}}},"right_child":{"leaf_value":0.0045438807061199335}}},"right_child":{"split_feature":12,"threshold":0.8984375000000001,"default_left":true,"left_child":{"leaf_value":-0.04928369318551962},"right_child":{"split_feature":16,"threshold":402.87000000000006,"default_left":true,"left_child":{"leaf_value":0.01817725121021821},"right_child":{"leaf_value":0.0349924664392293}}}}},{"tree_index":8,"shrinkage":0.0500788,"tree_structure":{"split_feature":16,"threshold":289.39000000000016,"default_left":true,"left_child":{"split_feature":16,"threshold":-112.98,"default_left":true,"left_child":{"split_feature":0,"threshold":2017.5000000000002,"default_left":true,"left_child":{"leaf_value":0.0077470941797102896},"right_child":{"split_feature":24,"threshold":6.450000000000001,"default_left":false,"left_child":{"leaf_value":0.02715914710519353},"right_child":{"leaf_value":-0.06674203381021308}}},"right_child":{"split_feature":16,"threshold":162.61500000000004,"default_left":true,"left_child":{"split_feature":8,"threshold":1.3166666666666669,"default_left":true,"left_child":{"split_feature":14,"threshold":1387.4550000000002,"default_left":true,"left_child":{"leaf_value":0.010950705921566337},"right_child":{"split_feature":7,"threshold":0.9500000000000001,"default_left":true,"left_child":{"split_feature":32,"threshold":1.0000000180025095e-35,"default_left":true,"left_child":{"split_feature":22,"threshold":1.0000000180025095e-35,"default_left":true,"left_child":{"leaf_value":-0.0188218486054753},"right_child":{"split_feature":30,"threshold":29.166666666666668,"default_left":true,"left_child":{"split_feature":15,"threshold":1659.3950000000002,"default_left":true,"left_child":{"split_feature":15,"threshold":1542.2700000000002,"default_left":true,"left_child":{"leaf_value":-0.1127882850572624},"right_child":{"leaf_value":-0.010128983450754463}},"right_child":{"split_feature":21,"threshold":36.66666666666667,"default_left":false,"left_child":{"leaf_value":-0.15038680111813307},"right_child":{"leaf_value":-0.04870696526114937}}},"right_child":{"split_feature":3,"threshold":1.228899952584163,"default_left":true,"left_child":{"leaf_value":-0.0729302044026703},"right_child":{"leaf_value":0.03340090522497341}}}},"right_child":{"split_feature":0,"threshold":2009.5000000000002,"default_left":true,"left_child":{"split_feature":0,"threshold":2003.5000000000002,"default_left":true,"left_child":{"leaf_value":0.016589101639496593},"right_child":{"split_feature":6,"threshold":1.2928571428571431,"default_left":true,"left_child":{"split_feature":22,"threshold":22.500000000000004,"default_left":true,"left_child":{"split_feature":12,"threshold":1.6336805555555556,"default_left":true,"left_child":{"leaf_value":-0.016432033843061685},"right_child":{"leaf_value":-0.12069800320731447}},"right_child":{"leaf_value":-0.02935391163779786}},"right_child":{"leaf_value":0.00035446171109652875}}},"right_child":{"split_feature":12,"threshold":1.4843750000000002,"default_left":true,"left_child":{"split_feature":26,"threshold":63.333333333333336,"default_left":true,"left_child":{"leaf_value":-0.04524901721627841},"right_child":{"leaf_value":0.04431143959133244}},"right_child":{"leaf_value":0.014392153429096236}}}},"right_child":{"split_feature":14,"threshold":1741.9650000000004,"default_left":true,"left_child":{"split_feature":24,"threshold":3.1000000000000005,"default_left":true,"left_child":{"split_feature":14,"threshold":1736.825,"default_left":true,"left_child":{"split_feature":11,"threshold":81.50000000000001,"default_left":true,"left_child":{"split_feature":14,"threshold":1684.8350000000003,"default_left":true,"left_child":{"split_feature":5,"threshold":1.585714285714286,"default_left":true,"left_child":{"split_feature":16,"threshold":-39.7299999999999,"default_left":true,"left_child":{"leaf_value":0.01694472762555867},"right_child":{"split_feature":21,"threshold":90.00000000000001,"default_left":true,"left_child":{"split_feature":12,"threshold":0.9409722222222223,"default_left":true,"left_child":{"split_feature":6,"threshold":1.3875000000000002,"default_left":true,"left_child":{"leaf_value":-0.01933447069660066},"right_child":{"split_feature":32,"threshold":63.333333333333336,"default_left":true,"left_child":{"split_feature":0,"threshold":2015.5000000000002,"default_left":true,"left_child":{"split_feature":28,"threshold":1.0000000180025095e-35,"default_left":true,"left_child":{"leaf_value":-0.11753893059243965},"right_child":{"leaf_value":-0.009967952432098049}},"right_child":{"leaf_value":0.02003046730136343}},"right_child":{"leaf_value":-0.1493552379499126}}},"right_child":{"leaf_value":-0.010681136528409537}},"right_child":{"leaf_value":0.015891680031488564}}},"right_child":{"split_feature":6,"threshold":1.4365079365079367,"default_left":true,"left_child":{"split_feature":12,"threshold":1.6770833333333333,"default_left":true,"left_child":{"leaf_value":-0.022028551247478385},"right_child":{"split_feature":30,"threshold":36.66666666666667,"default_left":false,"left_child":{"leaf_value":-0.028189067495373598},"right_child":{"leaf_value":-0.09656608401929231}}},"right_child":{"leaf_value":0.005597881153905016}}},"right_child":{"split_feature":15,"threshold":1756.865,"default_left":true,"left_child":{"split_feature":12,"threshold":2.1927083333333335,"default_left":true,"left_child":{"leaf_value":0.014286053419322731},"right_child":{"leaf_value":-0.026917107101276417}},"right_child":{"split_feature":24,"threshold":2.2916666666666674,"default_left":true,"left_child":{"leaf_value":0.0005060014276282016},"right_child":{"split_feature":33,"threshold":36.66666666666667,"default_left":true,"left_child":{"leaf_value":-0.13351297976716248},"right_child":{"leaf_value":-0.02333107021627068}}}}},"right_child":{"split_feature":2,"threshold":0.9664986935423666,"default_left":true,"left_child":{"leaf_value":0.01252550016184199},"right_child":{"split_feature":2,"threshold":1.2019410227696905,"default_left":true,"left_child":{"leaf_value":-0.1358920907359929},"right_child":{"split_feature":16,"threshold":68.85499999999992,"default_left":true,"left_child":{"leaf_value":0.03235181669282173},"right_child":{"leaf_value":-0.07123131622703183}}}}},"right_child":{"split_feature":3,"threshold":1.4036774628879891,"default_left":true,"left_child":{"leaf_value":0.007001235905805396},"right_child":{"leaf_value":-0.16039713663798016}}},"right_child":{"split_feature":14,"threshold":1420.9950000000001,"default_left":true,"left_child":{"split_feature":29,"threshold":63.333333333333336,"default_left":false,"left_child":{"leaf_value":-0.01057939355382703},"right_child":{"leaf_value":-0.14278516857635246}},"right_child":{"leaf_value":0.0022698615174270294}}},"right_child":{"leaf_value":0.016485022041312195}}}},"right_child":{"split_feature":0,"threshold":2006.5000000000002,"default_left":true,"left_child":{"split_feature":21,"threshold":1.0000000180025095e-35,"default_left":false,"left_child":{"split_feature":11,"threshold":14.500000000000002,"default_left":true,"left_child":{"split_feature":3,"threshold":2.1359649122807025,"default_left":true,"left_child":{"split_feature":11,"threshold":7.500000000000001,"default_left":true,"left_child":{"leaf_value":-0.0166504558959174},"right_child":{"leaf_value":0.01873196739581272}},"right_child":{"split_feature":15,"threshold":1872.0900000000004,"default_left":true,"left_child":{"split_feature":14,"threshold":1558.4900000000002,"default_left":true,"left_child":{"leaf_value":-0.0018721629841558234},"right_child":{"split_feature":22,"threshold":55.00000000000001,"default_left":true,"left_child":{"leaf_value":-0.019173988163372277},"right_child":{"leaf_value":-0.1381003736187325}}},"right_child":{"leaf_value":0.01601211438584815}}},"right_child":{"split_feature":32,"threshold":36.66666666666667,"default_left":true,"left_child":{"leaf_value":-0.012166958492432055},"right_child":{"split_feature":25,"threshold":63.333333333333336,"default_left":true,"left_child":{"leaf_value":-0.18224732818222253},"right_child":{"leaf_value":-0.04275675897058409}}}},"right_child":{"split_feature":10,"threshold":6.500000000000001,"default_left":true,"left_child":{"split_feature":5,"threshold":2.3541666666666674,"default_left":true,"left_child":{"split_feature":28,"threshold":1.0000000180025095e-35,"default_left":false,"left_child":{"leaf_value":0.04844612805899895},"right_child":{"split_feature":4,"threshold":1.1180555555555558,"default_left":true,"left_child":{"split_feature":32,"threshold":63.333333333333336,"default_left":true,"left_child":{"leaf_value":-0.015969099472640438},"right_child":{"split_feature":8,"threshold":1.585714285714286,"default_left":true,"left_child":{"leaf_value":-0.027320130635589537},"right_child":{"leaf_value":-0.14525231607958358}}},"right_child":{"leaf_value":-0.0042193867078697735}}},"right_child":{"leaf_value":-0.08351645788822226}},"right_child":{"leaf_value":0.0033041499518576107}}},"right_child":{"split_feature":6,"threshold":1.1833333333333336,"default_left":true,"left_child":{"split_feature":24,"threshold":2.9000000000000004,"default_left":true,"left_child":{"split_feature":33,"threshold":55.00000000000001,"default_left":true,"left_child":{"leaf_value":-0.0049910793193942305},"right_child":{"split_feature":22,"threshold":77.50000000000001,"default_left":false,"left_child":{"leaf_value":-0.013621306924433276},"right_child":{"split_feature":10,"threshold":6.500000000000001,"default_left":true,"left_child":{"leaf_value":-0.18619143753929424},"right_child":{"split_feature":5,"threshold":1.788888888888889,"default_left":true,"left_child":{"leaf_value":0.044545949572217435},"right_child":{"leaf_value":-0.08175750547950346}}}}},"right_child":{"leaf_value":0.007512393023951976}},"right_child":{"split_feature":15,"threshold":1581.2150000000004,"default_left":true,"left_child":{"leaf_value":0.022781838135808124},"right_child":{"leaf_value":0.0015295344996836416}}}}},"right_child":{"leaf_value":0.0043336852694796256}}},"right_child":{"split_feature":6,"threshold":1.8660714285714288,"default_left":true,"left_child":{"split_feature":12,"threshold":0.8897569444444445,"default_left":true,"left_child":{"leaf_value":-0.05455426753726353},"right_child":{"split_feature":32,"threshold":45.00000000000001,"default_left":false,"left_child":{"leaf_value":0.026399485298836914},"right_child":{"split_feature":26,"threshold":70.83333333333334,"default_left":true,"left_child":{"leaf_value":-0.008125055445953397},"right_child":{"leaf_value":0.027466506797974913}}}},"right_child":{"leaf_value":0.028085425005833914}}}},{"tree_index":9,"shrinkage":0.0500788,"tree_structure":{"split_feature":6,"threshold":1.7071428571428573,"default_left":true,"left_child":{"split_feature":24,"threshold":2.9000000000000004,"default_left":true,"left_child":{"split_feature":9,"threshold":1.3541666666666667,"default_left":true,"left_child":{"split_feature":15,"threshold":1911.5700000000002,"default_left":true,"left_child":{"split_feature":1,"threshold":69.50000000000001,"default_left":true,"left_child":{"split_feature":25,"threshold":1.0000000180025095e-35,"default_left":false,"left_child":{"split_feature":27,"threshold":1.5000000000000002,"default_left":true,"left_child":{"split_feature":30,"threshold":1.0000000180025095e-35,"default_left":false,"left_child":{"leaf_value":-0.07405677587021124},"right_child":{"leaf_value":-0.02868863059945866}},"right_child":{"split_feature":13,"threshold":1.779513888888889,"default_left":true,"left_child":{"leaf_value":0.010199419899019568},"right_child":{"leaf_value":-0.08506095026535475}}},"right_child":{"split_feature":9,"threshold":0.7071428571428572,"default_left":true,"left_child":{"split_feature":2,"threshold":2.0307017543859653,"default_left":true,"left_child":{"split_feature":24,"threshold":1.5500000000000003,"default_left":true,"left_child":{"split_feature":3,"threshold":1.5551619433198383,"default_left":true,"left_child":{"leaf_value":-0.1251090952366784},"right_child":{"split_feature":6,"threshold":1.1180555555555558,"default_left":true,"left_child":{"leaf_value":-0.06998028742232283},"right_child":{"leaf_value":0.023891972573374488}}},"right_child":{"leaf_value":-0.014695121646343392}},"right_child":{"leaf_value":-0.12363920175912685}},"right_child":{"leaf_value":-0.007559466295403381}}},"right_child":{"split_feature":13,"threshold":0.8984375000000001,"default_left":true,"left_child":{"split_feature":4,"threshold":1.585714285714286,"default_left":true,"left_child":{"split_feature":12,"threshold":0.8741319444444445,"default_left":true,"left_child":{"leaf_value":-0.03362548202216889},"right_child":{"leaf_value":-0.00440928424600526}},"right_child":{"split_feature":26,"threshold":55.00000000000001,"default_left":false,"left_child":{"leaf_value":-0.018988960108043424},"right_child":{"split_feature":7,"threshold":1.2928571428571431,"default_left":true,"left_child":{"leaf_value":-0.04228229862483224},"right_child":{"leaf_value":-0.15554115980918506}}}},"right_child":{"split_feature":15,"threshold":1889.5050000000003,"default_left":true,"left_child":{"split_feature":12,"threshold":1.5669642857142858,"default_left":true,"left_child":{"split_feature":1,"threshold":137.50000000000003,"default_left":true,"left_child":{"split_feature":6,"threshold":1.3875000000000002,"default_left":true,"left_child":{"split_feature":33,"threshold":77.50000000000001,"default_left":true,"left_child":{"split_feature":2,"threshold":1.1008771929824561,"default_left":true,"left_child":{"split_feature":13,"threshold":1.5546875000000002,"default_left":true,"left_child":{"leaf_value":0.009664400093727602},"right_child":{"leaf_value":-0.019191161393030624}},"right_child":{"leaf_value":-0.03163748229522125}},"right_child":{"leaf_value":0.025961249202694166}},"right_child":{"leaf_value":0.02379548019929075}},"right_child":{"split_feature":24,"threshold":1.9000000000000001,"default_left":false,"left_child":{"leaf_value":0.01284049067339962},"right_child":{"split_feature":28,"threshold":22.500000000000004,"default_left":false,"left_child":{"split_feature":4,"threshold":0.7888888888888891,"default_left":true,"left_child":{"leaf_value":-0.17393438283247425},"right_child":{"split_feature":33,"threshold":45.00000000000001,"default_left":true,"left_child":{"leaf_value":0.00313895505546148},"right_child":{"leaf_value":-0.11563820507181702}}},"right_child":{"split_feature":2,"threshold":1.0354010025062659,"default_left":true,"left_child":{"leaf_value":-0.006448278573198969},"right_child":{"split_feature":2,"threshold":1.228899952584163,"default_left":true,"left_child":{"leaf_value":-0.10930813818952181},"right_child":{"leaf_value":-0.017302713379692993}}}}}},"right_child":{"split_feature":24,"threshold":1.7083333333333337,"default_left":true,"left_child":{"leaf_value":0.025159966239223057},"right_child":{"split_feature":20,"threshold":4.500000000000001,"default_left":true,"left_child":{"split_feature":8,"threshold":0.9500000000000001,"default_left":true,"left_child":{"leaf_value":-0.1188762326556538},"right_child":{"leaf_value":-0.0040243505303597755}},"right_child":{"leaf_value":0.0054449628189205046}}}},"right_child":{"leaf_value":-0.049804194737730956}}}},"right_child":{"split_feature":3,"threshold":2.1239035087719302,"default_left":true,"left_child":{"split_feature":23,"threshold":36.66666666666667,"default_left":true,"left_child":{"leaf_value":0.015009634040791827},"right_child":{"leaf_value":-0.07571894856420858}},"right_child":{"leaf_value":0.024608853388257128}}},"right_child":{"split_feature":31,"threshold":3.9000000000000004,"default_left":true,"left_child":{"split_feature":8,"threshold":1.7071428571428573,"default_left":true,"left_child":{"split_feature":29,"threshold":90.00000000000001,"default_left":true,"left_child":{"leaf_value":-0.004944983694005637},"right_child":{"leaf_value":0.02227162905691696}},"right_child":{"split_feature":13,"threshold":1.8359375000000002,"default_left":true,"left_child":{"leaf_value":0.017241943805454258},"right_child":{"split_feature":22,"threshold":77.50000000000001,"default_left":true,"left_child":{"leaf_value":-0.0017487043665946173},"right_child":{"leaf_value":-0.10605778457863374}}}},"right_child":{"leaf_value":0.02748215775832895}}},"right_child":{"split_feature":8,"threshold":2.154761904761905,"default_left":true,"left_child":{"split_feature":6,"threshold":1.0500000000000003,"default_left":true,"left_child":{"split_feature":11,"threshold":85.50000000000001,"default_left":true,"left_child":{"split_feature":27,"threshold":4.500000000000001,"default_left":true,"left_child":{"split_feature":2,"threshold":0.9577999051683262,"default_left":true,"left_child":{"split_feature":12,"threshold":0.7578125000000001,"default_left":true,"left_child":{"split_feature":29,"threshold":70.83333333333334,"default_left":true,"left_child":{"split_feature":7,"threshold":1.585714285714286,"default_left":true,"left_child":{"leaf_value":-0.046103869940876945},"right_child":{"leaf_value":0.002473852773797127}},"right_child":{"split_feature":13,"threshold":1.5312500000000002,"default_left":true,"left_child":{"leaf_value":-0.018887740931522477},"right_child":{"leaf_value":-0.1442759345918088}}},"right_child":{"leaf_value":0.00641533038835674}},"right_child":{"split_feature":7,"threshold":1.6833333333333336,"default_left":true,"left_child":{"split_feature":9,"threshold":1.8944444444444446,"default_left":true,"left_child":{"split_feature":27,"threshold":1.5000000000000002,"default_left":true,"left_child":{"split_feature":31,"threshold":2.9000000000000004,"default_left":true,"left_child":{"split_feature":9,"threshold":1.3875000000000002,"default_left":true,"left_child":{"split_feature":8,"threshold":1.3875000000000002,"default_left":true,"left_child":{"leaf_value":-0.06952467341526634},"right_child":{"leaf_value":0.009179263669062956}},"right_child":{"leaf_value":0.024931631226540688}},"right_child":{"split_feature":3,"threshold":1.2386133603238867,"default_left":true,"left_child":{"split_feature":3,"threshold":0.9834155701754387,"default_left":true,"left_child":{"leaf_value":-0.025227329879105597},"right_child":{"leaf_value":-0.18160718328121556}},"right_child":{"split_feature":13,"threshold":1.6770833333333333,"default_left":true,"left_child":{"leaf_value":0.004310292693831863},"right_child":{"leaf_value":-0.09823989221153342}}}},"right_child":{"leaf_value":-0.00168870664420414}},"right_child":{"leaf_value":0.020971312223851967}},"right_child":{"split_feature":26,"threshold":90.00000000000001,